baseline/conv2d/kernel:0
(5, 5, 3, 6)
[[[[-2.09000200e-01  1.25249580e-01 -1.09147556e-01 -1.20434742e-02
    -7.66417682e-02  7.93717708e-03]
   [-1.18722990e-01  2.14048363e-02 -8.86196569e-02 -1.33346617e-01
     7.71230161e-02  1.53456837e-01]
   [ 4.73725982e-02 -5.82040809e-02  1.88310474e-01  1.41273439e-01
    -3.85516956e-02  4.84855324e-02]]

  [[-9.09550563e-02 -6.82267025e-02 -2.54189949e-02 -2.79053804e-02
     8.50306079e-02  1.37497829e-02]
   [-2.60158572e-02 -7.45815560e-02  4.14115973e-02  7.03073144e-02
    -1.60300896e-01 -4.05815989e-02]
   [-9.85480174e-02  4.40346152e-02 -8.04963857e-02  2.13827163e-01
    -1.18415266e-01  1.38597861e-01]]

  [[-9.40935835e-02  1.25094205e-01 -8.38544965e-02  3.59788463e-02
     9.54984203e-02  1.56169944e-02]
   [ 8.31866264e-02 -6.54836074e-02  1.20836243e-01  2.36908004e-01
     1.65088221e-01  1.14477970e-01]
   [-1.27623022e-01 -1.04524054e-01 -7.45985508e-02  2.22688407e-01
     2.02541575e-01  2.19252091e-02]]

  [[ 1.96894929e-01  2.18923718e-01 -7.30420277e-02  1.64356202e-01
     3.26440893e-02  8.77928138e-02]
   [ 2.25063205e-01 -1.12859368e-01 -1.02111317e-01  1.33891895e-01
     2.82449685e-02 -1.07033670e-01]
   [ 3.78671139e-02 -6.94439262e-02  5.97611517e-02  1.72699168e-01
    -6.81771385e-03 -1.97881386e-02]]

  [[ 1.46160871e-01  5.33978306e-02 -1.92315429e-02 -4.01716605e-02
     4.82033864e-02 -5.49071468e-02]
   [ 5.70975952e-02 -1.34535572e-02 -7.23427162e-02  1.79762840e-01
    -1.88599825e-01 -4.92407046e-02]
   [-6.83977529e-02  2.20342763e-02 -5.82840331e-02 -8.24488774e-02
    -4.95504737e-02  1.06198691e-01]]]


 [[[ 6.79269284e-02 -1.61219407e-02 -2.36415006e-02 -1.18758462e-01
    -1.91803470e-01  1.71318930e-02]
   [-7.72747323e-02 -2.12244630e-01 -9.67712775e-02 -1.51106864e-01
     5.33298682e-03  5.07413559e-02]
   [ 2.70170756e-02 -1.76860347e-01  1.37847215e-01  2.65390147e-02
     9.28064459e-04  1.56111374e-01]]

  [[-2.33388051e-01 -1.33542523e-01 -8.14691558e-02  3.48509997e-02
    -2.69714240e-02  8.46330251e-04]
   [-2.94497702e-02  6.52012229e-02 -5.96372373e-02 -1.97169751e-01
     4.94138412e-02 -8.70491378e-03]
   [-1.79320782e-01  2.12886885e-01 -1.93697866e-03 -3.75418551e-03
    -1.99808449e-01 -1.30350962e-01]]

  [[ 6.60241991e-02 -5.29536679e-02  2.71446933e-03 -1.76872194e-01
     9.54075754e-02  2.75745988e-01]
   [ 3.82407359e-03 -2.70724185e-02  2.68946532e-02  2.71513853e-02
     9.28374976e-02 -6.03985824e-02]
   [ 1.11739300e-01 -1.32576367e-02 -9.82369762e-03  8.19751900e-03
     2.96914488e-01 -7.90172517e-02]]

  [[ 5.45511506e-02  7.19705671e-02  3.17176320e-02 -1.46737471e-01
     1.95924006e-03  2.17979372e-01]
   [ 7.25687249e-03  1.60074607e-01 -1.03641404e-02 -8.93553272e-02
     1.01127476e-03 -1.08360507e-01]
   [ 4.09544632e-02  2.25373104e-01 -3.76847833e-02 -1.20857082e-01
     6.43367618e-02  1.14713032e-02]]

  [[-9.86817256e-02 -1.96883641e-02  4.66418974e-02 -2.71569103e-01
    -7.81993195e-02  1.80534810e-01]
   [ 1.65994465e-02 -4.31245379e-02  6.03764057e-02 -5.75755090e-02
    -2.55845726e-01 -2.16926099e-03]
   [ 5.83526827e-02  2.08364353e-02  6.03602007e-02 -1.44274339e-01
    -4.44173589e-02 -4.14461531e-02]]]


 [[[-6.89769462e-02 -1.35132030e-01 -3.10220808e-01 -7.79190063e-02
    -1.04516529e-01 -1.47946253e-01]
   [ 9.42411348e-02 -2.21918732e-01  4.43600900e-02  4.58246991e-02
    -1.73404276e-01 -1.23491459e-01]
   [ 3.07073910e-02 -5.95299900e-02  4.65564691e-02  5.07809035e-03
     3.80545221e-02  1.21170796e-01]]

  [[ 9.57993791e-02 -1.83505714e-01 -2.63875067e-01 -1.62820980e-01
    -1.10294975e-01  1.15446143e-01]
   [ 2.63948172e-01  3.85458395e-02 -5.84797189e-02 -2.42384836e-01
    -6.51684329e-02 -1.31310865e-01]
   [ 2.61957765e-01  1.85077876e-01  2.49068081e-01 -7.73331299e-02
    -1.37489274e-01 -1.80056524e-02]]

  [[-1.40618011e-01  2.45258696e-02 -3.61916035e-01 -1.30100101e-01
     2.45489463e-01  2.16822386e-01]
   [-1.53842062e-01  1.10697448e-02 -3.04513369e-02 -2.19238818e-01
     4.14078057e-01 -2.73233205e-01]
   [-9.82897356e-02  1.69497699e-01  2.32811794e-01 -2.20784187e-01
     1.21049717e-01 -2.09939376e-01]]

  [[ 8.88762152e-05  1.54718682e-01 -1.66649923e-01 -1.38900608e-01
     5.57361022e-02  1.13849983e-01]
   [-1.88459963e-01  2.04446077e-01 -1.31393492e-01 -1.49532303e-01
    -1.95279513e-02 -7.24921674e-02]
   [-2.75117069e-01  4.60342735e-01 -8.14859346e-02 -3.69855389e-02
    -1.16501838e-01 -2.94562757e-01]]

  [[-2.03228109e-02 -6.74816594e-02 -3.65599878e-02  1.34918034e-01
    -2.88800914e-02  2.79220399e-02]
   [ 1.75475284e-01  2.22131059e-01 -1.34107441e-01  1.51417941e-01
    -2.22810686e-01 -2.37246215e-01]
   [-4.86589521e-02  2.44808212e-01 -7.21571594e-02  3.02141923e-02
    -1.58632874e-01  1.89126842e-02]]]


 [[[ 4.92457375e-02 -2.31205299e-02 -9.85286981e-02  2.23758444e-01
    -1.30970720e-02 -1.23066299e-01]
   [ 1.23481832e-01 -2.19757587e-01  1.20410554e-01  7.39357024e-02
    -1.39641851e-01  7.72614330e-02]
   [ 2.90037990e-01 -2.17176780e-01  2.55327076e-01 -2.06964891e-02
    -8.10119510e-02  1.91652100e-03]]

  [[ 1.51040927e-01  9.82000455e-02 -1.97792009e-01  9.13224295e-02
    -1.04465894e-01 -1.41200349e-01]
   [ 4.66875136e-02 -9.96311083e-02  1.35648265e-01  1.93054050e-01
     1.00911215e-01 -1.70918614e-01]
   [ 2.43080035e-02 -1.00649912e-02  1.11344717e-01 -3.90722640e-02
     8.23523477e-02  3.06175370e-02]]

  [[ 6.29655346e-02  3.95557024e-02  1.62288602e-02  1.21462576e-01
     2.78150022e-01  7.23655075e-02]
   [-3.81742604e-02  3.98743376e-02 -1.49865691e-02  1.29661903e-01
     2.98641443e-01 -3.54025885e-02]
   [ 1.32479623e-01  8.91089141e-02  3.34432930e-01 -1.00362562e-01
     6.95918873e-02 -1.84825081e-02]]

  [[-8.87385607e-02  1.26858622e-01  4.98755043e-03  1.74628329e-02
    -2.02623177e-02  1.20607063e-01]
   [-5.55942282e-02  1.06403092e-02  1.47120595e-01  1.03141665e-01
    -9.96384472e-02  8.48786980e-02]
   [-2.32007414e-01  1.21817909e-01  1.11054607e-01  4.95701805e-02
     7.40222856e-02 -1.23552255e-01]]

  [[-1.52352417e-03 -7.45894238e-02 -1.56284690e-01  2.76659373e-02
    -6.16452657e-02  1.51265889e-01]
   [-2.79642671e-01  2.86977906e-02  6.28412291e-02  1.38709083e-01
    -7.19344476e-03 -6.39482886e-02]
   [-2.05118358e-01  6.69821501e-02  1.72916189e-01  5.57416640e-02
    -3.05553153e-02  1.45891964e-01]]]


 [[[ 1.38435006e-01 -7.39465877e-02  1.70481112e-02 -1.51405865e-02
     2.10313201e-02 -1.21748559e-01]
   [ 1.27592459e-01 -8.10923055e-02 -1.49142355e-01 -1.14975959e-01
    -3.05572357e-02 -2.85911225e-02]
   [ 2.14064673e-01  5.33071021e-03  8.84644240e-02  2.90837027e-02
    -1.04649924e-01  1.93450060e-02]]

  [[ 5.49909025e-02 -2.88816802e-02  7.49029405e-03  1.52695432e-01
    -1.44610256e-01 -1.66982383e-01]
   [-1.42314896e-01 -2.02075969e-02 -8.14984068e-02 -1.31972479e-02
     1.04540415e-01 -3.57416011e-02]
   [ 4.40235622e-02  1.86280295e-01  1.32699922e-01  2.55985977e-03
     7.61519372e-02  2.59754330e-01]]

  [[-2.07032841e-02 -3.87514979e-02 -1.80983424e-01  1.72677815e-01
     1.35119036e-01 -1.15797594e-01]
   [-1.71299160e-01 -1.03615418e-01  9.20443621e-04  8.34390745e-02
     1.15463093e-01  7.55847022e-02]
   [ 7.11921230e-02  9.62006748e-02  1.97121754e-01  1.63063258e-02
    -4.31849528e-03 -5.93532920e-02]]

  [[ 1.52794586e-03  3.10053769e-02  1.19038234e-02  1.25466421e-01
    -3.57943587e-04 -2.69047786e-02]
   [-1.51681408e-01  1.18232578e-01 -1.43828928e-01 -8.78361799e-03
    -6.12466745e-02 -8.84090513e-02]
   [ 4.08171900e-02  1.74448699e-01  9.91099700e-02 -4.01156470e-02
     2.60426067e-02  5.62170744e-02]]

  [[-1.05898380e-01  1.05830334e-01  5.51361144e-02 -1.02157883e-01
    -1.43078253e-01 -2.31011391e-01]
   [-1.55272171e-01 -8.26893672e-02  2.52663754e-02  1.12853684e-02
    -1.75822079e-01  6.83949739e-02]
   [-1.35551378e-01  6.15792461e-02  3.52638662e-02 -1.19174540e-01
     1.00818828e-01  1.05956703e-01]]]]
baseline/conv2d/bias:0
(6,)
[-0.0590855   0.17411025  0.03169995 -0.14799789 -0.10335072 -0.20521235]
baseline/batch_normalization/gamma:0
(6,)
[0.82957757 0.7354042  0.64410305 0.94956475 0.84027785 0.8610351 ]
baseline/batch_normalization/beta:0
(6,)
[-0.21129291 -0.23415138 -0.04570725 -0.37486988 -0.01301499 -0.51099944]
baseline/dense/kernel:0
(1536, 128)
[[ 3.80464010e-02  9.51549783e-03 -3.03764679e-02  4.27737981e-02
   3.95269878e-02 -8.71846601e-02 -1.69119656e-01 -2.01553240e-01
  -1.90693811e-02  3.09163630e-02 -5.42368218e-02 -3.96797881e-02
   3.83358300e-02  3.53262164e-02 -1.27550095e-01  2.54599424e-03
  -3.66481729e-02 -3.36297490e-02 -5.94996773e-02  1.71823818e-02
  -3.65335383e-02 -4.08954546e-02  6.00810768e-03  3.17861401e-02
  -5.92845939e-02  3.25942151e-02 -3.97413298e-02 -9.21296328e-03
   5.44023514e-02 -1.43888500e-02 -2.51445789e-02 -8.05132017e-02
   1.08809425e-02 -2.02075001e-02  1.89014748e-02 -1.69292346e-01
   5.51299974e-02  2.62449738e-02 -1.47200614e-01  1.44182414e-01
   1.47766909e-02  3.23060602e-02 -6.14298880e-02 -4.02325578e-02
  -7.15654790e-02 -1.85720280e-01  1.13635011e-01  4.90467399e-02
  -1.22305632e-01  4.79808636e-02 -9.68930312e-04 -1.23946153e-01
  -3.99517082e-02  6.93151262e-03 -2.09116973e-02 -4.81689572e-02
  -8.35115369e-03 -3.18512842e-02  6.74849749e-03 -4.17742841e-02
   3.57144140e-02  2.25880719e-03  9.73711684e-02  3.88510227e-02
   3.76674794e-02  1.14901327e-02 -2.78785941e-03 -2.60536950e-02
  -4.29617837e-02 -2.04291746e-01 -4.55377763e-03 -2.37916205e-02
   2.09541582e-02  2.23906234e-01 -1.11574437e-02  2.06369292e-02
  -4.56861816e-02  3.83511595e-02  1.56992637e-02  1.43284574e-02
  -7.26736188e-02  2.12033279e-02 -4.15420299e-03 -6.27696663e-02
  -4.20380309e-02 -3.51195298e-02  3.57910222e-03 -2.50608306e-02
   5.14317751e-02 -1.80719998e-02  3.25175822e-02  2.82593966e-02
  -6.03962466e-02 -8.08231682e-02 -5.01563326e-02 -1.88727174e-02
  -1.54136904e-02  2.33620964e-02 -7.27551728e-02 -6.05485961e-02
  -1.61506817e-01 -7.22537786e-02 -5.50149642e-02 -1.88841410e-02
  -1.88034344e-02 -1.40377330e-02  1.23795420e-02 -9.59152132e-02
  -4.61130440e-02  1.24006122e-02  1.50687903e-01 -4.65792930e-03
  -4.07846794e-02 -2.73516551e-02  2.49300990e-02 -1.30584702e-01
   7.57533824e-03 -6.69728294e-02 -2.22008869e-01  2.53776051e-02
  -6.94153607e-02 -4.67401519e-02  1.43585866e-02  1.52317569e-01
   1.98530387e-02 -5.79972081e-02 -1.22551064e-04  2.16562897e-02]
 [-8.66536871e-02  2.02754955e-03  1.77792292e-02  2.50671972e-02
   4.26518247e-02 -1.83984283e-02  7.77977332e-02 -5.44202514e-02
  -3.59620862e-02 -4.74368334e-02 -2.55420711e-02 -1.77778170e-01
  -5.70241995e-02  5.37743373e-03 -6.12367615e-02 -9.35220495e-02
  -1.75127806e-03 -2.71491129e-02 -1.66906174e-02  4.11678329e-02
  -3.16131860e-02  1.65511370e-02 -1.99133195e-02  7.95751717e-03
  -2.33946797e-02 -5.38006499e-02  2.82784123e-02 -5.12603447e-02
   1.57697275e-02  2.01273873e-03 -2.92170309e-02  4.51211706e-02
   6.05519414e-02 -2.30874103e-02  1.06456699e-02 -2.21502427e-02
  -4.11332846e-02  1.88763682e-02  2.71335132e-02  2.94085164e-02
  -4.94565554e-02 -9.62119520e-05 -5.71656674e-02 -2.99928859e-02
   1.74077731e-02  6.51901215e-02 -1.21061459e-01  1.22456755e-02
   5.20140724e-03 -2.02487614e-02 -2.36976929e-02  1.24371931e-01
   2.03252826e-02 -9.62904766e-02  5.03273346e-02  4.08731122e-03
  -5.85572422e-02 -1.11985533e-02 -2.13550143e-02 -5.49194962e-02
   1.81188956e-02 -5.11692315e-02 -6.41557202e-02 -1.91490389e-02
  -8.32197070e-03 -1.89036615e-02  3.46814543e-02 -3.65998484e-02
  -4.85019423e-02  2.70933453e-02 -1.77225880e-02 -1.61384940e-02
   6.03414439e-02 -7.23755583e-02  1.88105237e-02 -5.78067452e-02
  -1.46331349e-02 -2.49348977e-03  4.83038984e-02 -7.54768029e-02
  -9.36133415e-02 -5.65112159e-02 -2.95883371e-03  5.90347797e-02
   2.85514025e-03  3.23858447e-02 -2.39482149e-02 -1.60137154e-02
   2.11064015e-02 -4.37224992e-02  1.05102044e-04 -5.52530438e-02
  -2.67088916e-02 -1.16248310e-01  1.38713261e-02 -2.82723382e-02
  -5.25043383e-02 -4.93994122e-03 -3.73085849e-02  1.40397549e-02
  -1.44084506e-02 -2.86849719e-02 -2.02686619e-02  3.71681005e-02
  -1.75513960e-02  2.99277026e-02 -1.15223289e-01  4.13345844e-02
   1.29575431e-02  7.44691044e-02 -3.69567759e-02  2.02263938e-03
   3.81144881e-02 -7.12179542e-02 -6.67118728e-02  1.72167793e-02
  -2.88092922e-02 -8.09548944e-02 -5.50144091e-02  2.51061097e-02
   4.59964611e-02 -2.33818088e-02  2.32213046e-02 -9.54430178e-02
  -2.43647210e-02  1.59357134e-02 -4.64635342e-02 -5.56978397e-02]
 [ 3.16190929e-03  3.06988340e-02 -6.63440078e-02  2.23466605e-02
  -2.48779580e-02  5.55400131e-03  6.63780719e-02  6.43727370e-04
  -9.13938507e-03 -3.31331370e-03 -6.01465814e-02  3.27907614e-02
  -4.07329537e-02 -7.21872449e-02 -4.00076546e-02  1.81630813e-02
   2.39260700e-02 -2.41033896e-03  1.13391997e-02 -4.28494327e-02
  -3.39745618e-02 -5.50503917e-02 -1.13136275e-02  6.96557283e-04
   1.13831498e-02 -5.58774322e-02 -5.25807776e-02  1.24799786e-02
   5.19042276e-02  3.70254703e-02  7.81946070e-03  5.41634150e-02
   1.91654861e-02 -3.13426405e-02 -2.07486898e-02 -1.50992004e-02
  -6.73817694e-02 -1.61638092e-02  7.16150738e-03 -4.01542746e-02
  -4.93068323e-02 -5.60207069e-02 -2.28228550e-02 -4.75229434e-04
   5.75994328e-02  1.56045020e-01 -1.05168886e-01  5.33803441e-02
   4.65422980e-02 -5.91485947e-02 -1.68445928e-03  1.00155883e-01
  -4.08776402e-02 -4.31034118e-02  2.28294190e-02  8.38776678e-03
  -7.34494328e-02 -8.72062374e-05 -3.33797932e-02  4.72189486e-03
  -4.01656330e-02  2.81753279e-02  1.63836163e-02 -1.35452682e-02
  -3.94048356e-03 -4.26576063e-02  2.91864257e-02 -1.51059330e-02
  -5.24037983e-03  3.54131125e-02 -6.00730255e-02  2.48450451e-02
  -2.20428575e-02 -2.41393354e-02 -2.81879772e-02 -4.86981310e-02
  -4.58425283e-03  3.29212248e-02 -4.03649397e-02 -1.36242732e-01
  -2.27679480e-02 -7.53351450e-02  2.37563718e-03 -5.58805354e-02
  -1.77552290e-02 -2.81495899e-02  6.11058995e-02 -3.78668867e-02
  -7.98824206e-02 -1.77858509e-02  8.06920603e-03  6.07025363e-02
  -4.76330705e-02  5.82315354e-03  1.71799946e-03 -1.78758744e-02
  -6.05391562e-02 -6.48902357e-02 -5.76608442e-02 -8.02716613e-02
   1.01720177e-01 -1.86110623e-02 -4.77971174e-02 -1.90564408e-03
   1.67848263e-02 -1.22842984e-02 -2.48460211e-02  3.81065272e-02
   1.73652731e-02 -5.51129729e-02 -6.89183548e-02 -2.43869759e-02
   1.98881812e-02 -1.20904101e-02 -5.05797453e-02  5.02290949e-02
   4.22566161e-02  8.63423124e-02  4.65258844e-02  6.29630759e-02
   2.42308825e-02 -4.78157327e-02 -1.09787881e-02 -7.14831352e-02
   1.36846956e-02  5.51079493e-03  2.75282431e-02  3.99702340e-02]
 [ 3.98715287e-02  8.47526547e-03 -1.90226268e-03  1.44518754e-02
   8.12817714e-04  7.36672478e-03 -1.05084389e-01 -9.55889523e-02
   2.78159231e-02  4.27953452e-02 -6.44081160e-02  5.72378039e-02
  -3.59547883e-02  1.78225525e-02  9.01927575e-02 -1.04839399e-01
  -3.55901010e-02 -4.00695354e-02 -1.49152987e-02 -1.21049197e-04
  -6.45982400e-02 -2.64598010e-03 -4.10583429e-02 -1.51165510e-02
  -6.42454401e-02 -6.67195842e-02 -8.43429007e-03  2.39220969e-02
  -2.94256769e-02 -1.97883006e-02 -3.31399031e-02 -5.05693294e-02
  -7.39115477e-02  2.86550471e-03  8.39745905e-03 -3.23794074e-02
  -5.34907728e-03  3.25112268e-02 -1.38072958e-02 -3.96685004e-02
   2.47053187e-02  7.05427211e-03 -7.15505704e-02 -4.49495576e-02
  -7.70095736e-02 -1.85386956e-01  2.74433065e-02  1.76268201e-02
   3.77315432e-02 -3.48783545e-02 -6.08061776e-02 -1.08360089e-02
   7.69703137e-03  6.38004579e-03 -8.02708119e-02  2.27065124e-02
  -3.81124355e-02 -5.80998510e-02 -5.69520779e-02 -5.20884767e-02
   3.01528797e-02 -3.88271064e-06 -1.27955869e-01 -3.28146555e-02
  -1.87602098e-04 -6.49444312e-02 -5.76372221e-02 -2.05983259e-02
   3.14027518e-02  2.87123546e-02 -4.75273356e-02 -3.64292227e-02
  -8.89611840e-02 -7.71187842e-02  2.48578191e-02  3.49635491e-03
  -1.64808487e-04 -3.07799764e-02 -4.43582088e-02 -2.30006445e-02
  -3.60865779e-02 -2.78122984e-02  4.70251665e-02  2.70626079e-02
  -6.97324891e-03  1.30744576e-02 -1.32060200e-01 -7.77217671e-02
   8.61635208e-02  4.88712229e-02 -7.15163276e-02  1.19340517e-01
   3.33777070e-03  1.00195661e-01  2.06835922e-02  9.40505788e-03
  -1.14034507e-02 -4.01668549e-02 -1.96782369e-02  3.89233269e-02
   4.33569066e-02 -2.40899399e-02  3.52547667e-03  1.35497674e-02
   2.15165373e-02 -7.04829246e-02  3.19604091e-02 -1.83637645e-02
  -9.28720161e-02 -3.37697864e-02  3.39477733e-02 -7.69504579e-03
   3.93717363e-02 -5.12270853e-02  3.31351557e-03 -1.40561923e-01
  -6.30428875e-03  9.92907807e-02 -3.47610489e-02 -8.27857256e-02
   6.67551905e-03  4.67553847e-02  4.98086363e-02  5.85504472e-02
  -2.57858392e-02 -2.52727792e-02  5.02142007e-04  4.31957319e-02]
 [-9.98895988e-03 -5.35195693e-02  5.86380027e-02 -5.76510504e-02
   1.92068238e-02  7.56765679e-02 -4.37171571e-03  1.58979952e-01
  -7.24359080e-02 -7.81727135e-02  4.57840506e-03 -2.09380910e-02
   3.87604348e-02 -1.02836275e-02  5.16421199e-02 -3.29841152e-02
   5.71805947e-02  3.35339899e-03 -1.19809769e-02 -1.36644719e-03
   6.97789118e-02 -7.17364205e-03  3.25550418e-03 -2.29497682e-02
   7.62981782e-03  5.50850155e-03  5.45095606e-03  5.91188110e-03
   8.34449474e-03  2.69333292e-02 -5.13658971e-02 -1.59787368e-02
   4.92672995e-02  5.76631539e-02 -4.00165729e-02  1.49026662e-02
  -6.12920895e-02  3.58084515e-02  8.79896507e-02  1.40745519e-02
  -2.61952076e-02 -3.03478502e-02 -8.77498742e-03 -3.66057679e-02
  -1.87148266e-02  3.68949175e-02 -1.58429164e-02 -3.09272911e-02
   6.45241141e-02  3.50049548e-02  5.23065031e-02  9.59698185e-02
  -1.89992841e-02 -6.08646348e-02  1.53822536e-02  2.16893423e-02
   4.29414399e-02 -1.29015055e-02 -7.09541216e-02  9.45185032e-03
  -4.46869582e-02 -8.30594897e-02 -3.35712209e-02  1.83632970e-02
   7.51550368e-04 -4.01720777e-03 -1.00708259e-02 -2.52332981e-03
  -4.00946103e-02 -2.21449807e-02  2.62042545e-02 -4.79749143e-02
   2.72416398e-02  1.95233673e-02  2.28067599e-02 -1.24779399e-02
  -6.21003509e-02  4.76904772e-02 -5.20502068e-02 -9.20684487e-02
  -2.14052256e-02 -4.20128852e-02  7.92886654e-04  3.82456370e-02
  -1.59669391e-04 -5.66629432e-02  2.27702614e-02 -5.72808413e-03
  -5.94132990e-02  3.05633643e-03  5.37363924e-02 -2.73422943e-03
   4.32874821e-02 -6.98043108e-02 -3.91648784e-02  3.53357047e-02
  -4.24166322e-02  1.15086716e-02 -4.54481244e-02 -2.56238360e-04
   3.99942100e-02  1.05642369e-02  4.80038449e-02  4.31377217e-02
  -5.21582142e-02  3.77319269e-02  3.85393500e-02  1.15933314e-01
  -3.67721021e-02  8.26943889e-02 -7.91849047e-02 -2.69363839e-02
   1.73094068e-02 -1.17400110e-01 -3.27321328e-03  2.16975063e-02
  -3.22579779e-02  1.33064184e-02  1.98956970e-02 -3.04339323e-02
   4.19375412e-02  2.01076958e-02  6.27608746e-02  2.18888074e-02
  -4.75588627e-02 -7.61694647e-03 -3.27046439e-02 -5.73964044e-02]
 [-1.07573159e-02 -5.26686348e-02  3.78215313e-02 -4.81907204e-02
  -4.94479612e-02  3.80765982e-02 -4.33900394e-02  1.92931071e-01
   2.99953576e-02 -3.09493076e-02 -4.75490317e-02  5.54325283e-02
   4.68931533e-03  2.38787499e-03 -9.00762826e-02  2.57948935e-02
  -5.19488119e-02  2.03224961e-02 -2.60166563e-02  1.42913836e-03
  -5.69251738e-02 -4.16942835e-02  2.18006037e-02 -6.02304861e-02
  -4.63685840e-02 -6.22165650e-02 -2.67649610e-02  2.63208803e-02
  -4.91853990e-03 -9.84270964e-03  3.33650149e-02 -1.52223125e-01
   4.40831147e-02 -1.71077345e-02 -8.34358558e-02  1.00837559e-01
   4.33447026e-03 -2.05659736e-02  1.24293394e-01  5.01511060e-02
  -2.34851539e-02 -6.82067424e-02  1.00188944e-02  1.17791193e-02
  -1.02465004e-01 -2.26371214e-01 -1.78409331e-02 -4.68703844e-02
   6.29175529e-02  5.03302040e-03 -6.05178587e-02 -1.32583976e-01
  -3.52878566e-03 -4.83334363e-02 -1.13728466e-02 -4.53175791e-02
  -1.40816160e-02 -2.47041546e-02 -5.53306937e-02 -1.14246324e-01
   4.17685881e-02 -1.12196114e-02  6.89884126e-02 -7.01821642e-03
  -2.56636627e-02  2.14177761e-02  2.75137369e-02 -3.95993926e-02
  -1.88229382e-02 -1.86917812e-01  2.51738611e-03  4.06823717e-02
   3.79031897e-02  7.15681165e-02  3.21510658e-02  3.97649445e-02
  -1.23610031e-02  4.49369177e-02  2.37062331e-02  1.85618158e-02
   3.30465054e-03 -2.24939082e-02  2.87297592e-02 -1.73677038e-02
   4.83282842e-02  2.91320845e-03 -1.17499530e-01 -4.30729724e-02
   4.33511194e-03 -6.11603595e-02 -1.16503172e-01  7.86300004e-02
  -3.21593434e-02  6.95892796e-02  3.09195705e-02  1.65621061e-02
  -4.48638536e-02  5.99163678e-03  1.12089189e-02  1.76854078e-02
  -8.75367075e-02 -8.29318985e-02 -4.16091643e-02  3.40864211e-02
  -4.11603153e-02 -2.99340226e-02  4.48087871e-04 -3.71855982e-02
  -4.22990881e-02 -6.78057596e-02  6.38234243e-02  2.44036578e-02
  -1.28449546e-03  5.34662791e-03 -8.21163729e-02  7.44511411e-02
   1.66083440e-01 -1.46488011e-01  2.39477027e-02  5.76860365e-03
   3.14550325e-02  3.42885591e-02 -1.68814469e-04  3.31810229e-02
   7.06645846e-02 -2.57314533e-01 -5.57996668e-02  2.97316187e-03]
 [-9.98434704e-03  2.89678629e-02  3.51971984e-02  4.34096605e-02
   2.43494753e-02 -7.28405546e-03  1.09397806e-01 -3.45026627e-02
   6.75889989e-03 -1.42390849e-02  8.92482400e-02 -6.69521047e-04
   3.57177965e-02 -2.36369427e-02 -9.55724418e-02 -9.37680379e-02
  -5.77792712e-02  5.47318980e-02  6.13524765e-03  1.28671583e-02
  -1.18210353e-02 -1.32307541e-02  4.09272201e-02 -5.12341633e-02
  -3.04653253e-02 -3.71675864e-02  4.81025055e-02 -5.78605309e-02
  -5.97636066e-02  4.56351079e-02 -4.24262024e-02  9.37850028e-03
  -1.05934530e-01  4.61596213e-02  4.78191376e-02 -8.46301913e-02
   1.12229697e-02  3.70907560e-02 -1.07873246e-01  3.17669958e-02
   1.69351958e-02  4.57115397e-02 -1.61186848e-02  3.74609837e-03
   6.54524863e-02  7.16422126e-02  2.11580098e-01  1.42031489e-02
  -1.11258157e-01  8.52018408e-03 -4.08693813e-02 -2.12170035e-01
  -8.21339712e-03  1.55346571e-02  3.17113958e-02 -2.28413497e-03
   6.60553388e-03 -2.49405932e-02  6.22953754e-03  1.09374724e-01
  -6.36731908e-02 -6.11827895e-02  1.27801344e-01  3.37628052e-02
  -3.83247528e-03  2.14848714e-03 -4.10681404e-02  8.57377052e-03
   1.57210580e-03 -3.60215157e-02  3.29420180e-03  5.87033406e-02
  -1.02142356e-02  1.01677768e-01 -8.40018392e-02 -2.83759087e-02
  -8.66712257e-03  3.11870445e-02 -3.19811665e-02 -6.21112362e-02
  -3.85495052e-02  1.39294034e-02  1.43382419e-02 -1.60905607e-02
  -5.43607026e-02 -3.32749896e-02  1.19596511e-01  1.58760354e-01
   2.21607849e-01 -3.21767107e-02  5.83682805e-02 -4.49486151e-02
   4.31619212e-02  1.00646652e-01 -2.85340305e-02 -7.14787096e-02
  -5.12217730e-02 -5.84263913e-02  2.73986720e-02 -5.72331063e-02
   3.56140472e-02 -5.58540449e-02  2.22732276e-02 -3.55015695e-02
   4.45330739e-02  3.59114073e-02  3.90527514e-03 -6.62393644e-02
  -3.19373757e-02  2.69210674e-02  5.04175015e-02 -3.79702053e-03
  -7.39180967e-02 -3.68772708e-02  1.43077960e-02  1.81850284e-01
   3.70575599e-02  3.42635885e-02 -2.16703802e-01 -2.10759304e-02
   1.05326949e-02  2.70644831e-03 -4.37721461e-02  3.49560603e-02
   5.48877148e-03  4.25375300e-03 -6.49045408e-02  2.66577676e-02]
 [-4.74180803e-02 -2.18801433e-03  5.14123291e-02 -4.64589633e-02
   1.75228659e-02  2.23902607e-04 -2.01927088e-02 -1.16220616e-01
  -6.41939044e-02 -1.89414732e-02 -2.95712184e-02 -2.48350009e-01
  -3.62187736e-02 -3.34862806e-02 -9.55021903e-02 -5.73609211e-02
   2.32996866e-02  4.31764089e-02 -5.01465723e-02  1.42161800e-02
  -8.35297331e-02 -8.39594379e-02  2.58375574e-02 -6.49420405e-03
  -2.66313646e-02 -5.14666587e-02 -1.90368518e-02 -3.86321247e-02
  -4.86515760e-02 -1.67746861e-02  2.69585215e-02  3.44291441e-02
  -7.34946132e-02 -2.94616334e-02  3.99112850e-02 -1.79380774e-01
   6.07568165e-03  4.72707190e-02 -6.72662407e-02 -8.41676518e-02
  -2.25888137e-02  5.04082032e-02 -7.38560036e-02 -5.35836145e-02
  -1.19956979e-03  3.98932844e-02 -1.74844131e-01  4.58623692e-02
  -2.00992540e-01 -5.56822345e-02 -2.55395733e-02  1.33088946e-01
   2.64016408e-02 -3.33449356e-02 -4.48110178e-02 -3.55805345e-02
  -3.09796780e-02 -1.92585811e-02 -3.39042321e-02 -1.50791695e-02
  -5.93916103e-02 -2.10833903e-02 -2.18157042e-02  6.98946975e-03
  -8.29012468e-02 -1.51405148e-02 -7.97151402e-02 -6.29973365e-03
   5.85170239e-02 -1.70788124e-01  2.36779898e-02 -2.88527785e-03
  -1.03433080e-01 -2.55800396e-01 -8.73989705e-03  5.31084137e-03
   1.84581317e-02 -1.48984995e-02  3.91657911e-02 -2.04104818e-02
  -4.25222442e-02 -1.66166760e-02  4.99555981e-03 -3.99473831e-02
  -3.38634029e-02 -4.47012894e-02 -6.08259700e-02 -9.98793691e-02
   4.97708879e-02 -2.78700050e-02 -6.60812557e-02 -2.88794428e-01
   1.22333039e-02 -1.28911376e-01  6.68998182e-05  2.35563237e-02
   9.21718683e-03  2.12161597e-02  4.30743322e-02  2.26313509e-02
  -1.24682039e-02  2.49395948e-02  3.46430466e-02  2.62484904e-02
   3.40952799e-02 -6.54586870e-03 -9.02956799e-02 -3.03237736e-02
  -2.29200870e-02 -2.22272594e-02 -2.12564357e-02  8.29789508e-03
   2.41245180e-02 -4.10328470e-02  2.41838321e-02 -4.57770452e-02
  -9.68549848e-02 -3.37300271e-01 -2.05171295e-02  1.86839998e-02
  -5.31088263e-02  4.82203029e-02 -1.27168093e-02 -8.81625246e-03
  -7.55899847e-02  1.32032096e-01 -5.57937734e-02 -4.97978926e-02]
 [ 2.55334675e-02  4.09144387e-02  4.29568589e-02 -4.18140888e-02
   2.11962629e-02 -1.86305474e-02  5.55371195e-02 -1.01646604e-02
  -8.41893554e-02 -1.23090278e-02 -1.45196225e-02 -2.06144769e-02
   1.43054652e-03  2.36080699e-02 -4.70621958e-02 -5.76655157e-02
  -1.43035436e-02  3.27325123e-03  3.28379646e-02  1.40683930e-02
   1.65027361e-02 -7.42766559e-02  3.05934623e-02 -3.45365517e-02
  -3.04239467e-02  4.70667146e-02 -3.15389931e-02  2.43850425e-02
   4.51169647e-02 -2.42275726e-02 -4.98774648e-02  1.21558115e-01
   1.32833084e-03 -5.34213055e-03  2.05764156e-02  1.23771392e-02
  -5.57139292e-02 -3.84543724e-02  5.70358187e-02 -2.38509011e-02
  -3.28081921e-02  1.41907996e-02 -5.18982597e-02 -6.25306880e-03
   1.16342613e-02 -6.31474517e-03 -1.23570822e-01  3.65445092e-02
  -3.45102139e-02 -1.22077949e-02 -5.78927174e-02  5.73857278e-02
  -1.40748033e-02 -6.99917600e-02 -3.23248357e-02 -2.86272429e-02
  -6.46045581e-02 -5.27982824e-02 -5.50134927e-02 -5.87302037e-02
  -2.03419738e-02 -1.61908157e-02  1.79616529e-02  2.46110838e-02
  -3.89317945e-02 -2.12251246e-02 -2.47834250e-02 -1.11401174e-02
  -4.01812121e-02  7.02861473e-02 -4.42297943e-03 -4.87944335e-02
   3.63975614e-02 -8.34309496e-03 -1.30543588e-02  7.72425812e-03
  -3.79363867e-03  4.55072336e-03 -2.30092723e-02 -5.50204590e-02
   2.82940846e-02  1.67045277e-02  2.69077215e-02 -4.48971651e-02
  -4.19897176e-02  1.16279675e-02  3.86352949e-02 -6.53381571e-02
  -4.11467589e-02 -2.73071826e-02 -5.77344187e-03 -5.65342419e-02
   5.30321114e-02 -3.47098447e-02 -2.27821972e-02  3.67736220e-02
  -5.40797226e-02 -4.60558012e-02 -2.86602248e-02  1.24687785e-02
  -6.49870560e-02  5.37403263e-02  1.87419280e-02 -5.02235778e-02
   3.38180549e-02  1.49972653e-02 -3.99086326e-02  7.27337301e-02
   3.04902289e-02  7.53583610e-02  3.70402820e-02 -2.89450120e-02
   2.73266528e-02 -3.87586057e-02  2.90429965e-03  9.82171744e-02
  -6.32887846e-03  2.15323991e-03 -9.08400714e-02 -8.19603205e-02
  -4.40189615e-02  4.19525616e-03 -3.93695831e-02 -2.11696457e-02
  -7.68014118e-02  7.93234706e-02 -4.69839051e-02 -2.25287396e-02]
 [-1.02897305e-02 -6.82857037e-02 -6.32408112e-02  4.43415577e-03
  -7.81949610e-03  7.25488067e-02 -8.37428793e-02 -1.05531096e-01
  -4.62152138e-02 -1.36316456e-02  6.18699118e-02  1.19891651e-01
   4.36816253e-02 -1.13678956e-02  1.97990332e-02  1.20067531e-02
   2.24209577e-02  2.84802988e-02  1.71610489e-02 -5.05424216e-02
  -4.54927981e-02 -1.10311747e-01  1.34758530e-02 -1.96974836e-02
  -1.41925011e-02 -6.09818473e-02  3.00264042e-02  2.27263365e-02
  -4.92671095e-02  2.41133571e-02  1.81710515e-02 -6.94355890e-02
  -1.10733569e-01 -5.14971241e-02  1.93549544e-02  1.67058576e-02
  -1.19740823e-02  2.60228664e-02 -3.45292613e-02  5.86020462e-02
   5.22110797e-03  2.39877924e-02 -5.65670133e-02 -3.07783801e-02
  -8.97433423e-03 -6.02627955e-02 -4.22168784e-02  4.14084643e-02
  -1.10926665e-01 -2.42898557e-02 -7.64581487e-02 -9.89399329e-02
  -3.19568440e-02 -7.05934479e-04 -2.97573432e-02 -6.00481816e-02
  -5.24037741e-02 -5.71420714e-02  4.91852909e-02 -3.50939818e-02
  -1.41599635e-02 -7.28620589e-02 -5.45957461e-02  2.28669699e-02
   2.12798286e-02 -2.46800035e-02 -2.31131651e-02  1.44340582e-02
  -1.71925512e-03 -1.58442426e-02  1.37882326e-02 -8.91969576e-02
  -2.48921849e-02 -7.80283520e-03 -4.48944159e-02  1.78062748e-02
  -2.27297898e-02 -5.65964319e-02  2.71847211e-02 -5.78068830e-02
   2.26166521e-04 -1.88245401e-02  1.38672795e-02 -5.94571643e-02
  -4.65792371e-03 -1.88154336e-02 -7.45827928e-02  2.65292102e-03
   9.62723419e-03 -6.26950189e-02 -1.01572700e-01  3.49026546e-02
   1.67034604e-02  9.31314230e-02  4.06248048e-02 -7.80165419e-02
  -6.73802570e-02 -1.80409439e-02 -2.52011549e-02  2.82610897e-02
  -5.09313829e-02  3.37385014e-03 -4.57209535e-02  4.56357934e-02
  -3.93033735e-02 -7.63802528e-02  2.51342710e-02  5.29008312e-03
  -6.13541044e-02 -9.21764374e-02  3.73638421e-02  2.20958125e-02
   3.38352285e-02  1.62477437e-02  1.32985227e-02 -6.44434169e-02
  -1.08049484e-03  2.61510331e-02 -5.78599721e-02 -7.33341351e-02
  -1.21380109e-02 -6.85869083e-02  2.69498816e-03 -8.43962133e-02
  -8.59817304e-03 -3.06243952e-02  2.49391496e-02 -5.95803820e-02]
 [-5.11862747e-02  3.64229158e-02  2.14238726e-02  2.87473667e-02
   3.26141231e-02 -7.99809918e-02 -1.54304937e-01 -2.66349703e-01
  -6.13109469e-02  2.95854220e-03  2.33453259e-01  8.23239833e-02
  -1.31322267e-02  9.55483317e-03  1.66252941e-01 -6.43146187e-02
   4.27260138e-02  3.69271785e-02 -2.50657555e-02 -1.62637811e-02
  -4.71894294e-02 -1.67415682e-02 -7.28280563e-03  1.27055943e-02
  -5.21439761e-02 -6.39587566e-02  1.46761481e-02  1.53984316e-02
  -1.12513430e-01 -6.27057180e-02 -5.38765751e-02 -9.11758691e-02
  -1.97977781e-01 -6.47590756e-02  1.39860913e-01 -5.99024594e-02
  -1.51002668e-02 -4.15802523e-02 -1.90021664e-01  2.90462915e-02
   4.54437844e-02 -4.65272442e-02 -4.52021025e-02  4.90153395e-02
  -4.65225913e-02 -1.57671720e-01  3.62496912e-01 -3.28995101e-02
  -1.54302731e-01 -4.66837361e-02 -8.55941400e-02 -2.36596733e-01
  -1.76669285e-02 -6.14534579e-02  9.19879507e-03 -3.67525406e-02
   1.09011475e-02  2.45198514e-02  4.56569018e-03  1.93736434e-01
  -7.46181458e-02 -7.52034038e-02  1.11905135e-01 -8.16493481e-03
   1.67806353e-02  1.56482328e-02 -4.07240577e-02 -5.44846803e-02
  -4.54047844e-02 -4.35053617e-01 -2.32961420e-02  4.52387407e-02
  -7.16444552e-02 -9.65866819e-02  1.79661326e-02  3.07420567e-02
  -6.17503040e-02  5.07943407e-02  5.47699891e-02 -4.46229018e-02
   1.87152028e-02  3.72261107e-02 -3.17641348e-02  1.17540555e-02
  -4.48322447e-04 -6.63791075e-02 -2.60452516e-02  3.22653987e-02
   3.01278681e-01 -1.76345780e-02  5.06291464e-02  1.80923030e-01
   2.53386516e-02  9.25396532e-02 -4.12639119e-02 -7.05565587e-02
   2.15800945e-02  1.98063124e-02 -1.98432803e-02  2.55289543e-02
   2.10531652e-02  6.39018863e-02  1.78603325e-02 -3.04957181e-02
   2.45466642e-02 -6.83057904e-02 -6.11585528e-02  9.28628165e-03
  -9.28886607e-03 -1.95106305e-02 -3.44557688e-02 -1.87619533e-02
  -3.23089398e-02 -2.45434679e-02  5.20875631e-03 -6.52647614e-02
  -4.13318500e-02  8.43099281e-02 -7.52981380e-02 -1.08742751e-01
  -6.63845837e-02  2.01932825e-02  5.05952984e-02  2.05123290e-01
   1.10020563e-02 -1.15810689e-02  7.91680627e-03 -7.18083186e-03]
 [ 1.79758747e-04  4.24121916e-02  1.13521740e-02  2.02497747e-02
   6.46024197e-03 -2.46947501e-02 -1.70317888e-01  6.77557886e-02
  -9.35864169e-03 -5.20282052e-02  1.81875631e-01  9.42656025e-02
  -1.08918184e-02 -9.78931412e-03 -2.84311801e-01  1.32308938e-02
  -8.03126693e-02 -5.44239720e-03  2.24992707e-02 -4.05656248e-02
  -4.30635735e-02 -3.52698006e-02 -1.73623096e-02 -2.37151980e-03
   7.59583116e-02 -1.19119175e-02  2.28857696e-02 -3.75435427e-02
   1.53668344e-01  2.02547070e-02  2.42423508e-02 -1.19060636e-01
  -8.99610817e-02 -4.56741489e-02  5.92375025e-02  1.09156676e-01
  -1.34381643e-02  3.58332247e-02 -3.72459143e-02 -2.04928331e-02
   4.67899330e-02  2.23471201e-03  3.34918052e-02  2.01466531e-02
   6.46003336e-03 -2.83393890e-01  7.89235160e-02  5.37905693e-02
   2.80903250e-01 -1.00048305e-02  1.02716006e-01 -1.55624360e-01
   2.30165645e-02  1.02245726e-01 -1.24194138e-02 -4.37833145e-02
   3.72827686e-02  5.49742393e-02  3.65733914e-02 -2.35382430e-02
   2.22659893e-02  2.68132845e-03 -1.68778244e-02  6.04057638e-03
   2.90416777e-02 -1.31688332e-02 -1.89321227e-02 -2.07108092e-02
   4.46419753e-02 -1.21431969e-01  1.13404896e-02  1.59909967e-02
  -3.29025388e-02 -1.26910424e-02  2.13559270e-02  5.25630489e-02
  -2.84406170e-02 -3.22680101e-02 -1.00423275e-02  9.04240534e-02
  -1.07117454e-02 -2.88193896e-02  3.46655548e-02 -2.59102341e-02
  -5.06385714e-02 -5.25913723e-02 -1.24152854e-01  2.90494971e-02
   1.65205866e-01  2.50749141e-02 -1.07123286e-01  6.38817102e-02
   3.14526483e-02  1.89626664e-01  4.04915512e-02  4.70039733e-02
  -2.07522586e-02 -5.32735549e-02 -4.23246399e-02 -4.05560099e-02
  -2.35608011e-01  1.10220434e-02 -7.96122327e-02 -4.33217771e-02
   4.06330675e-02  3.53559777e-02 -2.25729048e-02  3.19306776e-02
  -2.11136825e-02  1.97798982e-01  7.71491677e-02  1.67807564e-02
  -6.73303530e-02  3.84535939e-02 -5.13968095e-02 -2.13113844e-01
  -1.92147251e-02 -1.01468615e-01 -1.33957416e-01 -8.17973390e-02
   1.68061331e-02 -4.17799689e-02 -3.73355895e-02  1.50761351e-01
  -3.73788946e-03  3.23420130e-02 -2.08558440e-02 -2.87073534e-02]
 [-7.87141845e-02  3.12050078e-02 -6.22207820e-02 -4.96057570e-02
  -7.42952863e-04 -7.87423030e-02  6.98255673e-02 -9.09859911e-02
   3.06975339e-02 -1.13927328e-03  1.63617074e-01  8.16492960e-02
  -2.41676867e-02 -3.26301791e-02  3.77279781e-02  6.94088032e-03
  -5.26896305e-02  3.13065425e-02 -4.22128774e-02 -4.14019786e-02
   1.70198269e-02  2.49460731e-02  1.48762297e-03  1.94231737e-02
  -3.97029445e-02 -6.26020432e-02  2.27806568e-02  3.81501392e-02
  -5.75701520e-02 -3.88632081e-02  3.70664038e-02 -5.82811832e-02
  -1.15817010e-01  2.78583001e-02  8.89428556e-02 -7.90909603e-02
  -1.25769172e-02  1.50224485e-04 -5.11595458e-02  5.70942722e-02
   1.75318141e-02 -4.76068538e-03  2.07160693e-02 -3.55814323e-02
   2.21907366e-02  3.98823991e-02  1.34417310e-01 -3.96350492e-03
  -1.29329249e-01  3.95987853e-02  3.98817891e-03 -1.25090986e-01
   2.60226838e-02  4.08382295e-03 -5.43369539e-03  1.65255088e-02
  -5.09497412e-02 -6.57492224e-03  1.89024322e-02  1.24581583e-01
  -5.60959615e-02 -8.86518881e-02 -2.03210656e-02  3.32856849e-02
   2.79130731e-02  4.64755520e-02  1.29087102e-02 -3.35995331e-02
  -1.82780419e-02 -2.09567115e-01  3.61836776e-02 -3.15047503e-02
   2.95481794e-02  8.85392949e-02  3.58073562e-02 -1.69404149e-02
   2.50780042e-02 -4.42778170e-02  1.68985780e-02 -5.35094477e-02
  -2.34218538e-02 -4.86419834e-02 -6.67618886e-02 -5.64775318e-02
   1.65310455e-03 -1.96431596e-02  9.11610201e-02  3.38566639e-02
   1.45006523e-01 -6.15639938e-03  8.78161099e-03 -3.37297693e-02
  -2.74564214e-02  2.24353001e-02 -3.17266658e-02 -1.37518384e-02
  -2.09658407e-02 -1.41808316e-02  3.93863767e-02 -1.68651324e-02
   5.44093363e-02 -5.30165546e-02 -4.10583690e-02 -3.23744267e-02
  -5.92674799e-02 -8.54851212e-03  2.13597883e-02 -1.47264972e-02
  -5.22510670e-02 -5.16823232e-02  3.07008326e-02 -6.67588133e-03
  -6.13294840e-02 -6.64773360e-02 -8.42078403e-03 -6.64467439e-02
   1.46364812e-02 -6.20192382e-03 -8.85202661e-02 -7.26529285e-02
   2.59761848e-02 -2.01519430e-02 -2.23730262e-02  6.65709078e-02
  -9.30219293e-02 -5.43356910e-02 -5.35691604e-02  1.36554753e-02]
 [ 5.09991050e-02 -2.70812884e-02  3.97226727e-03 -7.77044520e-02
   3.72671224e-02  5.89872785e-02  9.19556245e-02 -1.12788156e-01
  -6.08509146e-02  4.44625691e-03  2.75816582e-02 -1.14670537e-01
  -4.47602235e-02  4.77113873e-02 -1.68547824e-01 -2.64586695e-02
  -5.45998663e-02  3.80846523e-02  3.73998359e-02 -4.16671336e-02
   8.28284547e-02 -5.66619933e-02  4.17573564e-02 -6.84793293e-02
  -2.58305855e-02  4.45104316e-02 -3.22394781e-02 -7.10193813e-02
   2.77553238e-02  6.72362838e-03 -3.50108631e-02  3.32025997e-02
  -5.03154621e-02 -7.92173450e-05 -3.95992510e-02 -7.71236494e-02
   4.56237905e-02 -4.44120616e-02 -9.65732485e-02 -1.61999181e-01
  -4.86329086e-02 -2.77326331e-02 -4.88777198e-02 -5.15988804e-02
  -5.04045933e-02  9.83305275e-03 -1.66147143e-01 -6.27013072e-02
  -1.69695213e-01 -4.61700857e-02 -3.77851608e-03  1.06820554e-01
  -6.05620779e-02 -6.12680018e-02 -2.25318074e-02 -3.55586261e-02
   6.52905554e-02  3.25793289e-02 -1.57587398e-02  4.13490343e-04
  -7.51872435e-02 -2.77448184e-04  3.67104113e-02 -1.07389037e-02
   1.32592879e-02 -6.80774674e-02 -3.72076370e-02 -3.51485573e-02
   6.81390092e-02 -9.15840790e-02  4.94033881e-02 -7.20331594e-02
  -3.40582989e-02 -7.60132149e-02 -7.31110945e-03 -6.56328201e-02
   5.28361015e-02  1.89279998e-03  2.38168798e-02 -3.14595774e-02
  -2.09468156e-02 -2.28854381e-02  1.48892524e-02  4.72562797e-02
   6.56038010e-03 -4.15734947e-03  5.82195222e-02 -1.30454510e-01
  -1.68111995e-02 -7.95724690e-02  1.69355273e-02 -3.03932548e-01
   3.91493700e-02 -1.53706402e-01 -1.72676034e-02  6.86288476e-02
  -2.29198718e-03 -1.00196921e-03  2.12146379e-02  5.14915176e-02
  -8.05954188e-02  7.41184205e-02 -3.34177725e-02 -3.58466916e-02
   4.97011328e-03 -9.61117074e-02 -6.38564723e-03  2.69198678e-02
  -4.72331233e-02  8.61299932e-02 -6.45676479e-02  1.23736858e-02
  -2.08659039e-04 -4.54363972e-02 -1.42075093e-02  3.86337265e-02
  -2.93780006e-02 -2.81086981e-01 -6.97680861e-02 -4.86514196e-02
  -8.73178989e-02  3.03562079e-02  2.89076604e-02 -1.88455707e-03
  -5.41039966e-02  1.31807163e-01 -6.27731457e-02  3.74406762e-02]
 [-2.13681795e-02  7.45356735e-03 -3.24376151e-02 -2.64248196e-02
  -7.57753477e-03  5.00058830e-02  2.15648022e-03 -1.72842350e-02
  -3.66916284e-02 -1.62292607e-02  2.86829267e-02  1.95715558e-02
   1.82948727e-02  4.89203446e-02 -6.33556247e-02 -1.56009197e-02
   2.26906296e-02  5.00078648e-02 -5.98063543e-02 -1.56166330e-02
   1.81889776e-02 -6.83321953e-02  3.08566205e-02  1.98990274e-02
  -4.21727337e-02  2.43537151e-03  2.14259047e-02 -4.22171913e-02
   2.21198294e-02 -1.51038114e-02 -2.69495528e-02 -1.73345618e-02
   3.53298485e-02 -2.53417958e-02  3.61832194e-02 -3.98050202e-03
  -4.20720875e-02  6.44437084e-03  3.88793908e-02 -5.80010377e-02
  -3.56311798e-02  4.84544821e-02 -3.80393118e-02 -6.60239309e-02
   6.26189858e-02  1.08968858e-02 -2.36684978e-01 -5.10701500e-02
  -2.25303695e-02 -4.27576043e-02  1.82989368e-03  1.14355966e-01
   2.88735032e-02 -8.43524467e-03 -3.42314504e-02 -1.94828622e-02
  -8.02414939e-02 -9.06283259e-02 -7.47326761e-03  1.38176456e-02
   4.05793339e-02 -3.66483256e-02  3.82296033e-02  5.92384581e-03
   3.67813446e-02 -4.20308411e-02  2.48531885e-02  7.11775525e-03
  -5.88920042e-02 -2.95195486e-02 -2.61678603e-02  2.21239682e-02
   1.56487171e-02 -8.42335448e-02 -2.00254004e-02  6.82066986e-03
  -1.28542096e-03  5.05050784e-03 -3.76065932e-02 -6.44146502e-02
   1.76831931e-02  1.88227929e-02  3.52880917e-02 -1.00052892e-03
  -4.24195677e-02  5.68844285e-03  5.33272326e-03 -8.15754086e-02
  -1.05166726e-01  5.69037022e-03 -1.41542349e-02 -3.52997035e-02
  -5.25864772e-02 -2.59785075e-02  3.52045633e-02 -4.50524762e-02
  -4.73592244e-02 -8.37258920e-02 -1.51434019e-02  4.71554659e-02
   4.91940081e-02  6.32023513e-02  3.08470968e-02 -5.91460839e-02
  -4.92359512e-02 -2.59820186e-02 -2.61315033e-02  5.91150150e-02
  -7.61819035e-02  6.79490641e-02 -1.49776209e-02  2.99511873e-03
   4.55866046e-02 -6.27260190e-03 -4.56952713e-02  1.04357198e-01
   3.90759446e-02 -7.71201262e-03 -9.85370949e-02  3.72518227e-02
  -6.22025542e-02 -4.34700362e-02  1.85282957e-02 -1.42082572e-02
   2.09148228e-03  2.44691037e-03 -4.00523692e-02  4.72758375e-02]
 [-8.52943733e-02  2.92139128e-02  1.56270731e-02 -8.11553374e-03
  -6.43592626e-02  2.60055196e-02 -1.66562423e-01 -1.02662675e-01
   1.64848845e-02 -5.39645441e-02 -6.10883813e-03  8.24493989e-02
   4.02875468e-02 -1.46891866e-02  3.95504050e-02  2.18416215e-03
  -3.73780243e-02 -9.57986806e-03 -3.59469689e-02  4.00508754e-03
  -3.99289466e-02  8.03813245e-03  3.89544410e-03 -3.37602682e-02
   3.03298980e-02  3.67722586e-02 -4.73584905e-02 -3.49251516e-02
  -2.81132217e-02 -3.36090326e-02 -5.55891991e-02 -8.51963162e-02
  -1.27867699e-01 -2.10914966e-02  4.18171706e-03  1.01043180e-01
  -7.14500714e-03 -6.34830967e-02  3.78921777e-02  2.68538911e-02
   3.12993042e-02  1.13918120e-02 -2.40133163e-02 -3.96156050e-02
  -1.48537591e-01 -9.78713930e-02  2.40793321e-02  6.92146271e-03
  -2.90926564e-02 -4.81678620e-02 -7.26749077e-02 -8.43097717e-02
  -5.66041805e-02 -3.54600288e-02 -6.50219843e-02  3.43333967e-02
  -5.03130294e-02 -8.07553232e-02 -1.60353947e-02 -1.09279558e-01
   1.09939985e-02  4.69194762e-02  3.13965194e-02  2.38426551e-02
  -7.32992589e-02 -5.57705835e-02  2.31026229e-03  4.46095318e-02
  -3.03695090e-02 -6.66551515e-02  6.47658203e-03 -2.70386152e-02
  -1.36939138e-02  9.08575431e-02  2.42190789e-02 -4.19190265e-02
   4.70328145e-02  2.68359203e-02  2.99248993e-02  4.94390551e-04
  -4.38983664e-02 -1.30993528e-02 -5.00894487e-02 -1.83216948e-02
   2.61252057e-02 -4.40154262e-02 -8.52102693e-03  9.39525291e-02
   1.40499979e-01  8.23648367e-03 -6.91894293e-02  1.61130607e-01
   6.37787278e-04  3.05323005e-02  2.57257670e-02 -1.13783581e-02
  -9.56784114e-02 -8.95456672e-02  2.20645424e-02 -1.02221034e-03
   3.59570161e-02 -1.01459101e-01 -1.45388078e-02 -3.16742063e-02
  -3.37848887e-02 -5.74931782e-03  7.60542974e-03  1.38175730e-02
  -5.37752733e-02 -4.80304696e-02 -5.16098179e-02  2.59987060e-02
  -4.87707891e-02 -8.17327574e-02 -2.72982977e-02 -9.09610316e-02
   3.92752700e-02  7.91448876e-02  4.71562371e-02  7.74292462e-03
  -4.40162122e-02 -4.72265296e-02 -4.16223854e-02 -4.45945598e-02
  -4.68113497e-02 -1.64300248e-01  5.44401035e-02 -2.67235506e-02]
 [-4.44660746e-02 -1.76739637e-02  2.25852970e-02  3.55568491e-02
   2.42436603e-02 -1.53266802e-01 -1.44426152e-01 -1.02637537e-01
   8.76182504e-03  1.81190390e-02  8.46227035e-02  6.27297312e-02
   8.83803051e-03 -5.24368649e-03 -7.47363865e-02 -4.04998456e-04
  -5.26293926e-02  3.01502720e-02 -7.79118463e-02 -5.95469885e-02
   3.90848108e-02 -1.46918762e-02  2.22747456e-02  4.55722660e-02
  -5.77139072e-02 -5.43090217e-02 -6.33152351e-02  1.74067747e-02
  -7.87585527e-02 -3.53911854e-02 -3.00925989e-02 -7.88883045e-02
  -3.41153979e-01  4.48013321e-02 -6.14201128e-02 -9.51840952e-02
  -1.45276682e-02  1.57000311e-02 -2.34551907e-01  8.77668038e-02
   5.25034517e-02  2.05718651e-02 -6.29589632e-02  2.60412488e-02
   3.53492312e-02 -3.87805067e-02  2.57548332e-01 -2.60783210e-02
  -1.96739435e-01  3.82288964e-03  3.22366916e-02 -2.01955616e-01
  -2.50542276e-02 -6.30164519e-02 -2.03837175e-02  2.65673455e-02
   1.55542055e-02  3.04709431e-02  1.02636628e-02  1.50854766e-01
   8.27007182e-03 -1.47224981e-02  6.43089181e-03  3.52388360e-02
   9.57585499e-03 -5.11996411e-02 -4.08184119e-02 -4.95533273e-02
   5.00741117e-02 -1.30530223e-01 -2.35120729e-02  3.13485526e-02
  -4.97832410e-02  7.08460435e-02 -5.10076918e-02 -5.74737554e-03
  -6.08365610e-02 -2.61503793e-02  1.89362094e-02 -1.13141946e-02
   7.86599703e-03  1.45578012e-03 -2.02775840e-02 -1.60797723e-02
   1.66936070e-02 -5.77992275e-02  1.20233595e-01  3.80538637e-03
   5.84336855e-02 -3.24118733e-02 -1.71643049e-02  9.85938162e-02
   4.38383371e-02 -3.14204730e-02 -5.72283976e-02  2.51540318e-02
   6.03017434e-02  3.74944968e-04 -1.23395594e-02 -3.02715506e-02
  -6.29202798e-02 -1.59616899e-02 -9.67998803e-03  3.92044447e-02
  -4.49674204e-03  3.42511013e-02 -1.54289119e-02 -1.15437232e-01
  -1.44401360e-02 -7.30437739e-03  6.23445846e-02  1.03500951e-02
  -5.89623377e-02  3.14135849e-02 -2.35971306e-02 -6.74969703e-02
   7.06337690e-02  7.98556283e-02 -1.81760669e-01 -4.10230570e-02
  -6.57096878e-03  3.16531733e-02  2.44494267e-02 -2.96183657e-02
  -2.19280794e-02 -1.41260242e-02  5.00529930e-02  1.37520842e-02]
 [-1.37256028e-03  2.42455513e-03  3.00050210e-02 -3.52120139e-02
   2.98995618e-02 -1.22101652e-02  1.95077173e-02  1.70282215e-01
   1.87920630e-02  7.82570615e-02  1.31167948e-01  1.77419662e-01
   5.08766212e-02  5.26632443e-02 -1.22832216e-01 -2.64046416e-02
  -1.10139653e-01 -1.65699422e-02 -1.14999814e-02 -4.24806168e-03
  -4.45039198e-02  5.56809828e-02  1.49052870e-02 -1.44441919e-02
   3.79312783e-02  3.68535519e-03 -2.71476731e-02  2.88209431e-02
  -7.84316808e-02 -1.76053494e-02 -5.18925115e-02 -1.84043601e-01
  -6.21361397e-02  4.15523686e-02  4.02583070e-02 -1.68119103e-01
  -4.64714281e-02 -4.89070565e-02 -1.29798084e-01 -1.22712277e-01
  -1.38014397e-02  4.55731153e-02  5.64714186e-02  2.39220262e-02
   5.71479350e-02 -1.49433747e-01  1.24688573e-01 -5.86376712e-03
   7.27784559e-02  1.93489846e-02  2.27931198e-02 -1.01672977e-01
  -6.36622235e-02  6.75805807e-02 -5.03519736e-02  6.54541142e-03
  -5.14794290e-02 -4.09592612e-04 -2.47525908e-02  4.60941307e-02
  -3.95750925e-02  2.40857676e-02 -1.07748462e-02  3.92436571e-02
   8.80679861e-02  7.15140775e-02  1.64561924e-02  1.12724323e-02
   6.70351461e-02 -9.08259600e-02 -4.84426878e-02  1.33559154e-02
   1.66791808e-02  1.96178686e-02  1.63294580e-02  2.50343625e-02
   2.50909105e-02 -9.82182845e-03  5.00871651e-02 -5.30007258e-02
   3.60632874e-02  2.88388208e-02 -5.87019399e-02 -4.98586781e-02
   2.54589021e-02  1.58917587e-02  4.09452058e-03 -4.28022221e-02
   2.11812645e-01 -6.28381176e-03 -2.10251361e-02  1.27704948e-01
  -4.89343442e-02  1.24777586e-03  8.61568749e-03 -2.78204437e-02
  -5.56275062e-02 -1.34589884e-03 -5.61493263e-02 -2.21578721e-02
  -8.31257328e-02 -4.67516556e-02 -7.30996672e-03  3.71048786e-02
  -6.03587106e-02 -4.32580560e-02 -4.17958247e-03 -7.80167431e-02
  -5.10252118e-02  3.09301578e-02  5.58175147e-02  4.62899581e-02
  -3.66870835e-02  1.14823282e-02  9.59711429e-03 -2.64302194e-01
  -4.72553559e-02 -2.10542660e-02 -2.77362704e-01  7.25134313e-02
  -2.24174075e-02  3.33718285e-02  5.92122599e-02  1.40983418e-01
  -6.67608082e-02 -1.05112098e-01  2.15940252e-02 -2.12179329e-02]
 [ 5.49938157e-03  1.12404265e-02 -3.27077368e-03  1.90580692e-02
  -7.35236658e-03 -9.91100073e-03  5.17674871e-02 -8.13796520e-02
  -4.99614216e-02 -5.04151098e-02 -3.19641531e-02  4.80946414e-02
   3.39439474e-02 -3.40102725e-02  1.00780874e-01 -6.59417361e-02
  -6.88835755e-02 -2.09947284e-02 -7.08059967e-02  8.52447376e-03
  -3.50507423e-02 -9.30642243e-03 -1.44530376e-02 -1.39032854e-02
   1.39115620e-02  8.52968916e-03  1.07615180e-02 -1.44519005e-02
  -1.36577725e-01  1.65548325e-02 -8.76320712e-03 -4.48818924e-03
  -1.79599971e-01  3.52324843e-02 -1.83358807e-02  1.05282634e-01
  -5.64894378e-02 -4.56955060e-02 -1.97321512e-02  3.74428444e-02
  -4.35093231e-02 -5.40365884e-03 -2.35133842e-02 -5.33430614e-02
   9.38936695e-02  2.15890631e-02  1.23123683e-01  5.12513258e-02
  -5.16240150e-02 -1.02031305e-02 -4.29545417e-02 -5.53491386e-03
   5.32984138e-02 -5.72334640e-02 -8.56997818e-03 -2.52840836e-02
   1.84489600e-02  1.80708487e-02 -2.79091466e-02  1.14689637e-02
  -4.91150655e-02  1.27479471e-02 -7.66293705e-03  2.89735030e-02
  -3.80344056e-02 -3.71555164e-02 -2.63580829e-02 -2.71052159e-02
  -1.69548336e-02 -1.72538325e-01 -1.05271908e-02 -8.16827342e-02
   7.73077458e-02 -3.32424194e-02 -3.11382283e-02 -1.64267793e-02
   5.38084581e-02 -3.66560593e-02 -3.76034454e-02 -7.89326280e-02
   4.75022756e-02 -7.07178786e-02  3.83569486e-02 -3.44722830e-02
  -3.41404453e-02  3.06526516e-02  5.96342012e-02 -7.44215474e-02
   8.30282047e-02  4.76904921e-02 -5.19625098e-02 -4.44595665e-02
   1.59655549e-02  3.81936580e-02 -3.02293058e-02 -3.80954184e-02
   2.56768353e-02 -1.91243179e-02  3.13942991e-02  2.37432253e-02
  -3.03891916e-02  1.10201947e-01 -3.68227661e-02  2.28753760e-02
  -5.43702133e-02 -1.05138700e-02 -8.93538818e-03 -9.38785970e-02
  -4.33295779e-02 -2.53016856e-02 -9.35701746e-03 -1.07577723e-02
  -3.47464439e-03  5.08277444e-03  2.54570302e-02 -9.95233729e-02
   1.26314133e-01  2.85302568e-03 -3.90979573e-02  3.94163020e-02
  -3.65182273e-02 -7.34587759e-02 -7.08444268e-02 -4.03833129e-02
  -6.81017116e-02 -7.26590231e-02 -7.61023350e-03  4.12319638e-02]
 [-3.07439212e-02  1.48110082e-02  3.16852741e-02  2.17836294e-02
  -5.94036765e-02  7.05866665e-02  1.12701496e-02 -1.44048020e-01
   2.23217588e-02  2.51304489e-02  5.00157699e-02 -6.08382560e-02
  -7.91233778e-02 -1.29143465e-02 -1.43452406e-01 -2.21789088e-02
  -4.71648052e-02  2.80360896e-02 -6.20368496e-02 -2.04945058e-02
  -1.49930594e-02  4.12087981e-03  6.42025024e-02 -1.69680808e-02
   1.35814231e-02  4.03003991e-02 -3.22273821e-02 -1.12604199e-03
  -5.15693650e-02 -2.65921745e-02  1.20800026e-02  7.91942179e-02
  -3.32512446e-02  2.51691639e-02  9.96397063e-03 -9.55509990e-02
  -4.20925617e-02  7.57341273e-03 -5.38168103e-02 -6.85062818e-03
  -3.93481106e-02  4.50060368e-02 -4.79086936e-02 -4.30226438e-02
   3.61244008e-02 -5.48593216e-02 -7.36913607e-02 -1.02909952e-02
  -1.97086990e-01  3.73805426e-02 -4.70117852e-02  1.61269903e-01
  -1.16731133e-02 -2.59170122e-02 -4.49745953e-02  2.85839252e-02
   1.02999862e-02 -6.20601922e-02  3.00030150e-02 -7.50989616e-02
  -3.68814170e-02 -3.08894329e-02  8.04327875e-02  3.99629623e-02
   8.33900645e-03  1.82230994e-02  2.64832843e-02  1.68054160e-02
  -5.49479611e-02 -5.68235032e-02  2.46669929e-02 -4.46325578e-02
  -2.92722564e-02 -1.49383366e-01 -3.26083489e-02 -4.41410905e-03
   3.44896805e-03  5.60634881e-02 -3.85530554e-02 -4.39892989e-03
  -7.69069344e-02 -3.40681560e-02 -2.85130795e-02 -5.88384531e-02
   4.85871434e-02  2.74268351e-02  5.62008619e-02 -4.79350165e-02
   4.13328223e-02 -3.98157649e-02  4.89701033e-02 -2.33968928e-01
   1.29910223e-02 -6.25117719e-02 -1.66230146e-02  1.57461930e-02
  -5.40707558e-02 -1.26836551e-02  5.71781769e-02  3.65484394e-02
  -1.08835913e-01  7.49168312e-03  5.26858261e-03  3.38618606e-02
   6.17890293e-03 -4.55803331e-03 -4.89498936e-02  4.42472398e-02
  -3.78251150e-02  9.92352664e-02 -5.22562340e-02 -7.42051238e-03
   5.07651567e-02 -2.00819746e-02  3.86464782e-02  6.22620247e-02
  -4.31898050e-02 -2.36398026e-01 -4.07471247e-02 -9.64019150e-02
  -6.80955267e-03  1.22654275e-03  1.05360188e-02 -5.18890209e-02
   4.80245240e-03  9.43194553e-02 -9.38876625e-03 -2.68264916e-02]
 [-7.47101083e-02 -4.65610251e-02 -7.71519402e-03  4.62177694e-02
   4.29754667e-02  7.71821067e-02  8.68284404e-02  5.66493534e-03
  -6.91303462e-02 -2.95089260e-02  3.45099121e-02 -6.33153021e-02
  -6.96948245e-02  4.01657410e-02 -3.33758853e-02 -7.52888620e-02
  -5.63056208e-03  2.05292590e-02 -3.92362699e-02 -2.34162137e-02
  -3.59065048e-02 -4.83303890e-02  4.22508605e-02  5.06586246e-02
  -2.33851206e-02 -3.24224159e-02  2.43631862e-02  4.19558734e-02
   4.23703901e-02  1.02783665e-02 -2.64908094e-02  4.31840494e-02
   7.61507750e-02 -1.67043728e-03  4.26799059e-02 -2.21691150e-02
  -3.43273655e-02 -1.38027677e-02  8.93681124e-03 -3.13823782e-02
   3.65454108e-02  3.90899926e-02  1.22426925e-02 -3.47762406e-02
  -9.25435591e-03  2.66207438e-02 -1.77912578e-01 -1.91720459e-03
   3.25362422e-02  4.18906622e-02 -2.25787982e-02  5.12041412e-02
   3.75702381e-02 -6.38291091e-02  2.09457651e-02  5.76915704e-02
   1.56847481e-02 -6.45138621e-02  1.72496103e-02 -1.91083760e-03
   5.99439628e-03  1.43567817e-02  4.42161486e-02 -1.99150965e-02
  -6.56346604e-02 -3.13856602e-02 -1.28149837e-02  3.22053619e-02
   3.31665715e-03  6.35294616e-02 -6.24969080e-02  4.60265093e-02
   7.21048415e-02 -1.12353461e-02 -1.76999681e-02 -2.13611890e-02
  -5.05701862e-02 -5.16518317e-02 -1.31471958e-02 -6.08381294e-02
  -6.91256523e-02 -6.33600280e-02 -4.22943793e-02 -8.88961367e-03
  -6.21485636e-02  3.21218297e-02  4.35981005e-02 -3.47081423e-02
  -1.13623217e-01  3.37213092e-02  5.85832959e-03  3.06478632e-03
   2.38936599e-02 -3.21895517e-02 -4.81251925e-02 -1.59886423e-02
  -5.81207387e-02  4.19668183e-02 -4.64881696e-02  2.80753877e-02
   6.91462681e-02  7.35909119e-02 -6.71129819e-05 -6.53536245e-02
  -5.11155054e-02  2.35865042e-02 -5.88591620e-02  2.28664428e-02
  -4.86065336e-02  6.12436347e-02 -4.92027542e-03 -4.45778705e-02
   1.18359206e-02 -7.76863843e-02  2.48382334e-03  8.76313075e-02
  -2.69071124e-02  1.25161344e-02  1.57474540e-02 -2.29981951e-02
  -6.16967939e-02  3.19790654e-02 -5.12529165e-02  4.89758663e-02
  -5.76337194e-03  8.94493535e-02 -2.62432676e-02  1.58068724e-02]
 [-5.25997467e-02 -2.34125797e-02 -4.81243320e-02 -2.40345858e-03
  -7.39693781e-03  1.40038133e-02 -1.78221360e-01 -9.39490721e-02
  -6.25763163e-02  1.95459258e-02  5.33231476e-04  1.01257280e-01
   4.59893271e-02 -4.53969045e-03 -2.54124366e-02 -2.86571328e-02
  -5.39623424e-02 -4.07867245e-02  6.15238305e-03  3.57986502e-02
  -4.67412919e-02 -6.39934232e-03 -5.66061959e-02  1.53128039e-02
  -4.82142791e-02  6.93427073e-03 -7.45375901e-02 -4.63673770e-02
  -6.42569810e-02  3.38264741e-02 -4.95676100e-02  2.05227248e-02
  -6.30207583e-02 -4.60915491e-02 -1.36616966e-02  9.77664515e-02
   3.73928668e-03  1.00512998e-02 -1.70394052e-02  2.17651855e-02
   4.41935007e-03  3.78442928e-02  3.91741432e-02 -5.91984689e-02
   7.87685858e-04 -1.28180146e-01  7.32978508e-02  5.10184430e-02
   3.76975611e-02  4.33389693e-02 -4.45534065e-02 -1.66318715e-01
  -5.39949797e-02 -7.00459033e-02  1.51857419e-03 -1.89778432e-02
  -1.13273016e-03 -5.96212260e-02  6.74319193e-02 -3.16911861e-02
   1.80733837e-02 -1.91876367e-02  6.89366236e-02  1.05143273e-02
   4.34749462e-02 -2.94023789e-02 -5.33492304e-02  7.49645056e-03
   2.18151393e-03 -1.03385814e-01  4.52680141e-02 -5.05810827e-02
  -1.32474331e-02  5.72614744e-02 -7.22810719e-03 -4.55188041e-04
  -5.12141548e-02 -2.40995623e-02  8.43767915e-03 -5.70296943e-02
  -2.50370633e-02 -6.50157332e-02 -4.08593081e-02 -6.25615194e-02
  -2.34389585e-02 -5.07836565e-02 -4.61892374e-02  9.90945101e-02
   6.35033101e-02 -3.79927196e-02  1.48816863e-02 -6.79510646e-03
  -4.13876958e-02  5.62504977e-02  3.81470844e-02 -2.80347257e-03
  -1.56900694e-03 -8.37978646e-02 -5.63124083e-02 -2.08080932e-02
   2.56020781e-02 -8.54878724e-02  3.36674005e-02 -7.12628523e-03
  -5.49689420e-02  6.12355815e-03 -3.68238986e-02 -5.84788918e-02
  -1.15217175e-02 -1.13054559e-01 -3.69436368e-02 -5.14206402e-02
   3.86547409e-02 -7.23781735e-02  5.14284987e-03 -1.11687183e-01
   6.52191937e-02  2.07259525e-02  8.02085325e-02 -8.41275007e-02
  -2.31006742e-02 -3.63612846e-02  2.49910634e-02 -8.79997462e-02
  -9.88745019e-02 -1.22589834e-01  4.02853005e-02  2.70265099e-02]
 [-5.32155484e-02 -3.64764803e-03 -6.02498204e-02  1.77861489e-02
  -6.44072369e-02  4.28308407e-03 -1.27673715e-01 -4.25243601e-02
   3.84227522e-02 -1.34308068e-02  4.27774666e-03 -1.12654278e-02
   1.67769473e-02 -4.82233241e-02  2.06080265e-02  3.13141458e-02
  -7.35010281e-02  4.11664173e-02  4.72894162e-02 -2.32876521e-02
  -1.03528500e-02 -1.33956606e-02 -3.96862738e-02 -4.97680381e-02
  -4.93226796e-02 -5.82058914e-03 -3.53145525e-02 -5.57926558e-02
  -8.14077333e-02  5.26047014e-02 -6.60675243e-02 -1.13472626e-01
  -1.95511639e-01 -4.54774015e-02  6.61237538e-02 -6.15377957e-03
   2.41295695e-02  4.95305583e-02 -6.19239472e-02  1.02569476e-01
  -6.73934305e-03  1.84298679e-02 -2.50891689e-02 -4.03627101e-03
   1.71046183e-01 -1.66074321e-01  2.63487875e-01 -2.51860451e-02
  -3.14833194e-01 -3.70606817e-02 -6.16741627e-02 -5.56087643e-02
   4.52473797e-02  8.75210483e-03 -1.97719205e-02 -1.70628242e-02
  -5.39257415e-02 -3.55890281e-02  2.99352873e-02  1.14375181e-01
  -9.59858857e-03 -3.18461582e-02 -5.35591599e-03  2.45457068e-02
  -8.98193661e-03  5.81333274e-03  3.84398550e-02 -5.43152280e-02
  -4.01075631e-02 -1.96259290e-01  3.39627005e-02 -2.79020071e-02
   1.25946745e-01  1.22899562e-01  1.10568464e-04  3.00550298e-03
  -1.23947514e-02  2.08494812e-02  5.80890197e-03  8.15982521e-02
  -5.68750016e-02 -5.02350777e-02  4.13010493e-02 -3.71789522e-02
   4.58157137e-02 -3.13552804e-02  9.91216451e-02 -7.77602866e-02
   1.78058326e-01 -4.82767485e-02 -3.04109752e-02  8.18830207e-02
  -6.75469488e-02  5.02183288e-02 -2.38214880e-02  5.33344485e-02
  -6.43119588e-02  1.11926720e-02  3.57916504e-02  2.56886669e-02
   1.19952373e-02 -1.02992244e-01 -1.16453730e-02  3.12044248e-02
  -4.72845137e-02 -3.17018926e-02 -5.87841347e-02 -5.10845594e-02
  -5.33607155e-02  3.27158277e-03 -8.54282826e-02  2.38899793e-02
  -3.94834280e-02 -3.80251296e-02  1.74260512e-02  2.68358961e-02
   5.78199029e-02  8.19583610e-03 -1.16594762e-01  6.95601106e-03
  -2.62698880e-03  2.56034713e-02  2.55344380e-02  2.15486154e-01
  -7.47570843e-02  1.71809271e-02  3.66021763e-03 -7.47697102e-03]
 [-2.45997775e-02 -6.96704090e-02  1.73476245e-02 -5.84098361e-02
  -3.85211818e-02 -3.31991650e-02 -8.18704292e-02  1.14058055e-01
  -2.89236568e-02  4.50457558e-02 -4.58058028e-04  1.05870903e-01
   6.23994134e-02 -3.81967425e-03 -3.52376066e-02 -7.23769004e-03
  -4.95650358e-02  2.52293353e-03  1.62072405e-02 -7.03334762e-03
  -7.84956813e-02 -8.63972604e-02  2.54638866e-03  4.88952547e-02
   6.25000149e-02 -2.24759318e-02 -4.85563874e-02 -6.63465168e-03
  -1.51683986e-01 -2.92756483e-02  2.52765547e-02 -1.86307073e-01
  -6.94154054e-02 -3.14943418e-02 -2.25141793e-02 -1.17661282e-01
  -9.20655951e-03  3.68407741e-02 -8.97879526e-02  1.00966152e-02
  -1.48187513e-02  1.01730982e-02 -1.90856159e-02 -2.82570021e-04
  -1.35986626e-01 -1.35546729e-01  1.00351013e-01  3.65736783e-02
  -7.08068684e-02 -2.91351043e-02 -3.92451286e-02 -1.51527315e-01
  -3.11165000e-03  5.59572913e-02 -2.44358256e-02 -5.38783222e-02
   3.25182863e-02 -4.69469540e-02 -3.82793024e-02 -9.40937251e-02
   2.27070246e-02  2.39087641e-02 -1.76783100e-01 -2.59746052e-02
  -3.46277729e-02  8.29375163e-02 -1.93705072e-03 -7.80915655e-03
  -2.16229837e-02 -3.19748372e-02  3.09725385e-02 -2.38961540e-02
  -7.10130781e-02 -1.03072211e-01 -4.68448550e-02  4.00668643e-02
  -4.09097522e-02  2.45123971e-02 -2.12869830e-02  4.64130007e-02
   2.43880507e-02  1.61768794e-02  5.11447489e-02  1.23684118e-02
  -2.55390964e-02 -4.42692675e-02 -8.52650777e-02 -4.12460566e-02
   1.63402349e-01  5.61347641e-02 -2.17029266e-02  1.40349403e-01
  -8.71352106e-03 -4.02176939e-03 -1.19063929e-02  2.75957957e-02
   1.30077107e-02  1.69143137e-02 -2.33840570e-02  1.36962663e-02
  -1.01451918e-01 -4.76684496e-02 -2.32368335e-02  1.97373033e-02
  -4.27587926e-02 -4.84463647e-02 -1.15679977e-02 -7.27048367e-02
   4.52152044e-02 -7.59499371e-02 -1.24341780e-02  3.41971368e-02
   6.36163503e-02 -4.83568205e-04 -2.42510568e-02 -3.02659869e-01
  -1.27048921e-02  3.40693034e-02 -3.27803254e-01  5.87019548e-02
  -2.81353593e-02  1.21194199e-02  4.13309271e-03  1.08995974e-01
  -3.58780362e-02 -6.09104969e-02 -5.22753783e-02  2.60803681e-02]
 [-3.06500997e-02  2.44154036e-02 -1.55066596e-02 -7.34303817e-02
   2.60574277e-03 -1.58298180e-01  4.39868085e-02 -5.29770134e-03
  -8.98392573e-02  1.26164705e-02 -5.02538495e-02 -1.52774376e-03
  -1.04259020e-02 -1.28917061e-02  9.93436854e-03 -4.40369770e-02
   7.66063901e-03 -2.93340348e-02 -4.04465292e-03  4.48635127e-03
   5.41517027e-02  8.40470567e-02  2.09695734e-02 -4.19967286e-02
  -8.00309181e-02  1.72231440e-02  7.74114020e-03 -3.74617390e-02
  -1.15769349e-01  2.67893095e-02  3.18778977e-02  3.80872078e-02
  -8.34775269e-02 -2.78692264e-02  6.49643764e-02  7.24212546e-03
  -3.03200223e-02  4.56031561e-02 -8.18414241e-03  1.15509167e-01
  -3.15999016e-02 -4.39998358e-02 -2.77695321e-02  2.42155883e-02
   8.02895054e-02  5.02542667e-02  5.57141341e-02 -6.13324083e-02
  -1.30801037e-01 -2.86376663e-02 -3.94710414e-02  6.92735612e-02
   1.58356559e-02  1.93310678e-02 -6.03276566e-02  2.07065903e-02
   3.04587577e-02 -3.04421727e-02  5.54234833e-02  8.36032256e-03
   3.10757291e-02  4.22454923e-02  6.12190552e-02 -4.33664471e-02
  -3.60210128e-02  3.75258923e-02 -3.34336385e-02 -2.49725189e-02
   8.52791127e-03 -1.77572444e-01 -2.83298101e-02 -7.12880120e-02
   1.56824529e-01  1.63051337e-01 -4.61969972e-02  3.52457725e-02
   2.31606457e-02  3.34465876e-02  3.47054787e-02 -5.87230723e-04
  -1.01435460e-01  1.59853343e-02 -1.09882345e-02 -6.46230951e-02
   4.41865586e-02 -1.16260368e-02  2.14487582e-01 -2.96873134e-02
   1.11055404e-01 -2.38720663e-02  1.56531744e-02 -7.63915926e-02
  -4.00987342e-02  1.30641207e-01  1.87519658e-02  2.73498613e-02
  -4.86971587e-02 -2.71875262e-02  9.69895627e-03  2.85383053e-02
   3.93531565e-03  3.18083279e-02  4.29664403e-02  3.63803022e-02
  -5.18427417e-02 -4.14463393e-02 -5.09234592e-02 -4.51293774e-02
   3.18058170e-02 -2.62910575e-02 -3.10009867e-02 -1.34809613e-02
  -3.34204473e-02 -6.73570931e-02  1.41675174e-02  5.43640666e-02
   1.36402130e-01 -1.02548048e-01 -9.60531831e-02 -4.69017997e-02
   1.40513238e-02  4.35555615e-02  3.34637761e-02  7.54171759e-02
  -3.46442387e-02 -7.76642263e-02 -6.10637143e-02 -2.84915529e-02]
 [-6.71475008e-02 -4.74153645e-02 -4.59907949e-02 -2.79207006e-02
  -2.77786460e-02  1.06612310e-01  6.70611784e-02 -1.55873865e-01
  -6.69523627e-02  8.05266015e-03 -2.22198982e-02 -1.19084343e-01
  -5.45215867e-02  5.08780293e-02 -1.37156874e-01  1.79048833e-02
   1.11696403e-02  2.09092628e-02 -4.53739651e-02  3.69690023e-02
  -3.00343670e-02 -4.92093191e-02 -3.00060259e-03 -5.44456355e-02
  -8.54425190e-04  4.05207509e-03  1.17958607e-02 -2.13117357e-02
   4.49460149e-02  1.55090643e-02  3.93575020e-02  7.14775249e-02
  -3.34088914e-02  8.09091330e-03 -2.22777110e-03 -6.26278445e-02
   1.50237349e-03 -2.03217212e-02 -1.03313938e-01 -1.67572889e-02
  -3.16079482e-02 -6.76050736e-03 -5.62032312e-03  1.51893403e-02
   1.05353585e-02  1.81729291e-02 -1.48234889e-01  2.69344151e-02
  -1.48951039e-01 -9.40620806e-03  2.25509910e-04  7.05107227e-02
  -6.44624084e-02 -4.96415719e-02 -4.10359614e-02 -1.83421765e-02
  -5.51564880e-02 -5.06556220e-02 -7.45298713e-02  7.56074786e-02
  -3.30351815e-02 -2.31039599e-02  1.29319802e-01  6.66498486e-03
  -9.01943166e-03 -7.43744448e-02 -5.40652014e-02  2.51397435e-02
  -2.55898871e-02 -2.55556367e-02 -5.95375821e-02 -5.23873381e-02
  -3.95256095e-02 -6.83987606e-03  3.84678580e-02 -6.67896792e-02
  -1.82085223e-02 -5.54980384e-03 -2.63257772e-02 -2.02917773e-03
   2.46876329e-02 -1.21593354e-02  5.74202314e-02 -4.79194932e-02
  -4.50452045e-02 -5.65483421e-02 -4.39803628e-03 -9.74063054e-02
  -2.70407721e-02  3.83894630e-02 -1.08567812e-02 -1.48552790e-01
  -9.60963126e-03 -1.38803691e-01 -3.49572040e-02 -3.81756350e-02
  -4.80257757e-02  2.20461544e-02 -5.10310605e-02 -7.79029652e-02
  -1.54824153e-01 -7.90906176e-02  2.68182475e-02 -2.55514192e-03
   1.32016717e-02 -2.03109793e-02 -9.43700373e-02  8.95427540e-02
  -2.20431536e-02 -1.75518747e-02 -1.42350299e-02 -1.74488388e-02
   4.71427478e-02 -3.66559322e-03 -2.64780708e-02 -5.30111641e-02
   2.66346261e-02 -2.25374252e-01 -1.63192183e-01 -3.65700410e-03
  -1.32533135e-02 -3.52808721e-02  4.86066155e-02  1.34474367e-01
  -3.03804912e-02  7.99378380e-02  4.90647145e-02  9.67007410e-03]
 [ 7.81839807e-03 -4.91338745e-02 -2.20364556e-02  3.40626650e-02
   3.52677815e-02  4.64887917e-02  3.67448363e-03  2.61871666e-02
   1.25743346e-02 -3.30087841e-02 -1.05713541e-02  4.88523692e-02
  -4.11363021e-02 -4.96891104e-02  7.23039061e-02 -7.09768236e-02
  -9.18000843e-03  5.38157113e-02 -6.67280108e-02  1.00578098e-02
  -1.55145973e-02 -5.27343228e-02 -2.25499906e-02  1.63191743e-02
   3.63137349e-02  3.47724482e-02  1.35883400e-02 -3.69345956e-02
   3.13640386e-02 -7.32215643e-02 -2.35822462e-02  1.02314770e-01
   4.48555350e-02  3.61448973e-02 -2.74864603e-02  2.15954483e-02
  -5.10546081e-02  3.63420993e-02 -1.55926682e-03  3.90583277e-02
   1.54722845e-02 -4.48380522e-02 -3.94049566e-03 -3.20105031e-02
   2.87898467e-03 -2.53768228e-02 -3.99193726e-02 -8.48171674e-03
  -8.15114230e-02 -5.04750870e-02  2.35370472e-02  5.18642254e-02
  -5.45425480e-03  1.07340794e-03 -5.55349290e-02 -1.64610581e-04
  -9.83529259e-03  1.36981020e-02 -4.10020947e-02 -6.42011166e-02
  -5.41430898e-03 -2.56735682e-02  7.08003575e-03 -1.85499676e-02
   2.63927933e-02  2.97465324e-02  6.79276977e-03  4.30854363e-03
  -2.00580731e-02 -5.47380513e-03  4.35110256e-02 -3.47433053e-03
   8.02030042e-02 -5.68264909e-02  2.35912073e-02  3.76895219e-02
   3.95113192e-02 -2.46092640e-02 -1.91727243e-02 -6.90184683e-02
   5.10597825e-02 -2.18696892e-02 -6.06205091e-02  4.47910838e-02
  -6.17465265e-02 -3.27841714e-02 -4.30519991e-02  6.32691979e-02
  -8.50256979e-02  1.61592569e-02  6.64924532e-02 -7.44213164e-02
  -3.22538894e-03 -4.65206355e-02  3.65887582e-02 -2.36068722e-02
  -1.13313524e-02  3.70225124e-02 -3.77302952e-02 -2.07423028e-02
  -3.72979767e-03 -6.58415258e-03 -7.72688678e-03 -6.65502390e-03
  -1.61026716e-02  1.09924413e-02 -9.86793116e-02  3.80608067e-02
  -5.73739335e-02 -7.90270104e-04  3.72011624e-02  3.63299213e-02
   3.07915900e-02  3.45398486e-02  5.31970477e-03  1.15744613e-01
   3.80455330e-02  9.91331786e-03  6.33851364e-02 -1.56841595e-02
  -1.17410915e-02 -1.06966244e-02 -1.66603755e-02 -2.95120385e-03
   4.04590592e-02  8.46600905e-02  1.78698357e-02 -9.49909072e-03]
 [ 1.86173823e-02  1.27896247e-02 -6.38257489e-02  2.83885412e-02
  -1.34689147e-02 -6.36908263e-02 -2.34249197e-02 -6.45687990e-03
  -5.41780256e-02 -1.30108101e-02  4.87680733e-02  6.61028624e-02
  -1.04856463e-02  5.24437390e-02  8.01159590e-02  1.70604587e-02
  -4.02262881e-02  6.87874388e-03 -1.80312973e-02 -4.16764840e-02
  -9.83462203e-03  5.25470916e-03 -4.54198942e-02 -5.09746633e-02
  -3.39656994e-02  5.87931543e-04 -3.01863011e-02  1.20329624e-02
  -4.49061766e-02  3.07985786e-02 -6.30651936e-02 -2.90623661e-02
  -7.56076276e-02 -2.76997369e-02 -5.15420688e-03  1.02359660e-01
  -3.91288549e-02 -6.76997006e-02 -4.05044258e-02 -4.81475471e-03
  -2.08766200e-03 -6.07842486e-03  4.04559188e-02  4.27713655e-02
  -1.25694454e-01 -7.75746107e-02  2.34931186e-02  3.86991128e-02
   1.63715314e-02 -4.73874621e-02 -8.66377801e-02 -1.14235394e-01
   4.70858775e-02  2.07942054e-02 -7.69738182e-02  3.47079039e-02
  -6.75917789e-03 -4.93148789e-02 -1.36862823e-03  7.42559507e-02
   3.83642875e-02 -2.11880673e-02 -2.22794116e-02  5.13452850e-02
   2.40304954e-02  7.82298855e-04  6.05355483e-03 -5.41978404e-02
  -4.97983657e-02 -1.32377118e-01 -4.65835221e-02 -2.19851267e-02
   1.42774088e-02 -3.44610624e-02  1.18929762e-02  4.62540090e-02
   2.45647301e-04  2.85006892e-02 -7.99137726e-03  5.75840473e-02
  -6.98128045e-02  1.60721242e-02 -6.00394234e-03 -4.03635502e-02
  -1.25700433e-03 -6.42399117e-02 -1.87898502e-02  1.02904640e-01
   6.62500486e-02 -5.19363545e-02 -5.45894913e-02  1.18176574e-02
  -3.40117998e-02  5.57793938e-02  2.14816164e-02  4.66229580e-02
  -5.17967306e-02 -5.75000979e-02 -7.08143832e-03 -3.48162800e-02
  -2.92447824e-02 -9.61868316e-02 -3.35398093e-02 -1.60043016e-02
   5.04216738e-02  5.40948585e-02  1.58146210e-02 -1.26797240e-02
  -3.98719758e-02 -6.77730963e-02  5.62603362e-02 -2.48270053e-02
  -1.48141058e-03 -3.00975479e-02 -8.75507388e-03 -8.53136033e-02
   1.09424293e-01  5.35262078e-02 -1.30756432e-02 -2.37325598e-02
   4.10297066e-02  2.28774268e-02 -3.98462415e-02 -1.42229825e-01
  -1.09866753e-01 -2.18580261e-01  6.85475767e-02 -7.68902432e-03]
 [-8.67311731e-02 -4.70444793e-03  5.22549152e-02 -1.58762261e-02
  -7.96716809e-02 -7.05351010e-02 -5.72222508e-02 -1.82970092e-01
  -6.46305159e-02 -4.01966944e-02  8.97838399e-02  1.55329034e-01
   1.47439959e-02  6.62454870e-03 -7.48338848e-02  3.12087853e-02
   7.16373557e-03 -4.40789649e-04  2.52613686e-02 -3.31490897e-02
   4.48307395e-02  2.53338274e-02  7.32843624e-03  4.47829766e-03
   1.64283607e-02 -2.20070947e-02  2.89243516e-02  2.27739513e-02
  -5.44828549e-02  1.07334387e-02 -4.79588397e-02 -3.25962529e-02
  -1.13789901e-01  3.16722505e-02  1.60682917e-01 -3.82442735e-02
  -6.66409805e-02 -3.92418019e-02 -2.61921495e-01  2.86545628e-03
   4.98785488e-02 -4.28602546e-02 -5.88610955e-02 -4.33128662e-02
   1.92667410e-01  9.31191072e-03  7.08992183e-02 -3.44157107e-02
  -4.02346343e-01  1.83944721e-02 -2.77945790e-02 -1.04004424e-02
  -3.70607851e-03 -2.71306299e-02 -2.81817205e-02 -2.66873110e-02
   4.12882455e-02 -5.43978484e-03 -6.75641447e-02  7.24933892e-02
   2.62791421e-02 -7.66485706e-02 -1.80392578e-01 -1.82564987e-03
   5.51942028e-02 -5.35188876e-02 -1.14474250e-02 -3.99524383e-02
  -1.33678652e-02 -2.24962652e-01  4.84771952e-02  1.89351775e-02
  -9.42939669e-02 -4.83896285e-02  5.18703349e-02  1.28295766e-02
   5.25922216e-02  4.68223020e-02 -1.85818896e-02  3.54095586e-02
   1.61333866e-02 -6.78389221e-02  3.31486296e-03  3.01358178e-02
   1.12163811e-03  3.44905667e-02  3.40081006e-02  1.40386730e-01
   8.34293514e-02  1.51207978e-02  1.69669557e-02  1.85349241e-01
  -1.32118985e-02  8.86015147e-02 -4.83343191e-02  1.37464404e-02
  -1.19298573e-04 -2.15004738e-02  1.63322706e-02  4.72159460e-02
   2.89041158e-02 -1.22763077e-02 -3.07921469e-02 -3.79634113e-03
  -4.43011709e-02 -2.58880556e-02  1.55839799e-02 -4.48623113e-02
   3.57903615e-02 -7.17729628e-02  1.95310079e-02  3.81534398e-02
  -1.84570011e-02  5.90183064e-02 -5.70361540e-02  2.48346813e-02
  -7.65744895e-02  1.08585104e-01 -2.59721309e-01 -1.01486593e-01
  -4.79271263e-02 -4.71548326e-02  6.22130558e-02  2.26637825e-01
   2.25798991e-02 -8.11273679e-02 -6.86066076e-02  1.59172211e-02]
 [-2.72141211e-02  5.99974627e-03  3.64062078e-02  8.95774923e-03
   1.44601264e-03  9.70397443e-02 -8.21234807e-02  1.09450534e-01
   2.46268772e-02 -1.76642574e-02  1.90733001e-01  5.77838048e-02
   2.95285862e-02  2.46119946e-02 -1.47912195e-02  2.05068942e-03
  -6.77902345e-03  9.87862889e-03  5.25458492e-02  2.47230474e-02
  -1.08895883e-01  3.60767706e-03  4.37565055e-03 -6.07341342e-02
  -1.69182234e-02 -4.99003008e-02  4.97084036e-02 -2.78232973e-02
  -1.75188556e-01  2.46415287e-02  2.20777784e-02 -1.60752460e-01
   7.24055544e-02  1.20902583e-02  6.75337538e-02 -1.49605349e-01
   3.11353654e-02  2.48563150e-03  2.43593450e-03 -5.82573898e-02
   1.33096827e-02  2.56251656e-02 -1.54319946e-02  2.65454734e-03
  -1.16187140e-01 -3.13472033e-01  1.56079903e-01 -3.73174772e-02
  -7.01491088e-02 -5.93996085e-02 -7.59009048e-02 -1.98120505e-01
   3.95471826e-02  6.98081702e-02 -3.01850624e-02  3.35512273e-02
   2.41978629e-03  4.07483019e-02 -1.15319798e-02  4.57462249e-03
   2.96440301e-03  5.59487231e-02 -1.63945351e-02 -4.96347584e-02
  -2.11484637e-02 -6.26657531e-02  2.27511823e-02 -1.89163536e-02
  -4.20071892e-02  7.19116330e-02 -5.76442815e-02  3.01412009e-02
  -3.13172936e-02 -2.72398628e-02  1.24714375e-02  5.60822599e-02
  -3.89784016e-02  1.74936280e-02 -3.63689028e-02  3.52584794e-02
  -6.87178299e-02 -5.26389889e-02 -4.68192771e-02  8.48040078e-03
  -2.84674484e-02  4.95570786e-02 -1.43054888e-01  9.29739140e-03
   2.60172188e-01 -3.91321555e-02 -5.95334880e-02  6.75932914e-02
  -3.87740601e-03  8.15910250e-02  1.91939548e-02 -9.75764729e-03
  -2.85517387e-02  4.67111208e-02 -4.18939292e-02 -3.16424221e-02
  -1.09109730e-01  2.64481511e-02 -8.44946727e-02 -2.41431836e-02
   2.05351263e-02 -4.05366309e-02 -3.95077057e-02 -5.65155484e-02
  -3.64378244e-02 -5.94732426e-02  1.01540692e-01 -4.63836938e-02
  -4.77284566e-02  6.62753507e-02  3.08849141e-02 -2.88084030e-01
  -5.27376980e-02 -7.21635744e-02 -2.26387829e-01 -2.58579776e-02
   6.82400912e-02 -3.67661901e-02  2.20247153e-02 -5.18784523e-02
   2.99586579e-02 -1.14472762e-01  4.55764085e-02  3.71555761e-02]
 [-6.00909907e-03  1.95226690e-03 -4.85952310e-02 -1.69667788e-02
   3.35483951e-03 -4.49674577e-02 -4.43857023e-03 -9.37782601e-03
  -9.32692438e-02 -9.22080502e-03 -8.70302320e-04  9.26533341e-02
  -6.42049015e-02 -5.31472899e-02 -1.98242411e-01 -2.75268871e-02
   1.80487875e-02 -4.73175757e-02  5.97863831e-03  4.65681776e-02
  -1.60395782e-02  2.10428089e-02 -1.39831835e-02 -1.49585558e-02
  -5.26254475e-02 -5.28716221e-02  3.56940851e-02 -1.35415541e-02
  -1.05049312e-01 -3.84937339e-02 -2.25952603e-02  5.10474900e-04
  -1.04172342e-01  2.02287566e-02 -1.60210822e-02  8.34244117e-02
  -5.58401123e-02 -5.65873235e-02 -1.11750245e-01  4.60862704e-02
  -4.98155430e-02  4.87769134e-02  5.13501232e-03  3.59686352e-02
   1.12095878e-01 -5.06466962e-02 -1.32044451e-03  4.96742092e-02
  -1.67344153e-01  4.58007492e-02 -6.53419867e-02  6.28890246e-02
   2.66050491e-02 -1.26601141e-02 -5.10514081e-02 -5.38144186e-02
  -6.36276510e-03 -3.73673923e-02 -4.14776802e-03  9.13622826e-02
   1.82670336e-02  4.16526524e-03  8.58552288e-03 -2.05611810e-02
   7.14523420e-02  1.69769339e-02 -3.01108267e-02  3.53792720e-02
   4.04997468e-02 -1.12983018e-01  5.96196987e-02 -5.61404675e-02
   1.08261079e-01  1.29282951e-01  6.58080308e-03  3.74064706e-02
  -1.73529293e-02 -2.94064712e-02 -2.20946372e-02  5.47283180e-02
  -7.32417032e-02 -5.56278415e-02  1.59200467e-02  4.22136560e-02
   1.17713111e-02 -5.31827621e-02  1.73131809e-01  2.70034056e-02
   1.20953575e-01 -2.94015296e-02 -5.03063053e-02  8.12790766e-02
  -1.57945603e-02  1.36206731e-01  9.26394388e-03 -6.54841885e-02
  -6.31880108e-03 -2.63560098e-02  2.21683905e-02  1.99912377e-02
   3.56148258e-02 -8.30252692e-02  2.14968789e-02 -6.99678734e-02
  -2.60664825e-03  7.26693030e-03 -1.00806169e-01 -4.34000753e-02
  -2.87677068e-03 -1.23590983e-01 -6.11558594e-02 -2.98000351e-02
  -3.20065469e-02 -8.02444201e-03 -6.77683949e-02 -6.30812496e-02
   4.56252620e-02  5.47533203e-03 -6.78329617e-02 -1.02340780e-01
   5.48639474e-03  2.34537106e-02  2.34022569e-02  1.07511945e-01
   4.96650487e-02 -4.83220443e-02 -6.40089437e-02  1.71876438e-02]
 [-1.87484752e-02  5.25736883e-02  1.20790955e-02  7.33577134e-03
  -4.79440466e-02  4.52852510e-02  7.99269881e-03 -1.22962877e-01
   7.45687867e-03 -7.15166703e-02  3.91648337e-02 -1.55105785e-01
  -3.10055483e-02  3.90185155e-02 -1.65088713e-01 -3.36868726e-02
  -1.43908169e-02 -1.47805512e-02  2.93394625e-02 -3.35450731e-02
   4.54916880e-02 -5.68171479e-02  6.13115691e-02  4.62048538e-02
   4.35710810e-02  9.25710239e-03 -3.09257265e-02  1.46561600e-02
  -2.93815956e-02  2.27606669e-02  3.76921594e-02  1.16044417e-01
  -1.26389526e-02  4.39818874e-02 -3.78085598e-02 -3.54263224e-02
   4.93893623e-02 -1.06702587e-02  5.80742676e-03 -6.03275234e-03
   4.33344208e-02 -4.32833619e-02 -2.99192406e-02  4.08640038e-03
   6.23704121e-02  4.77300957e-02 -1.68140039e-01 -2.35866196e-03
  -1.88135952e-01  3.48761119e-02 -7.59940147e-02  7.24589229e-02
  -1.14480462e-02 -2.60857251e-02 -3.66728455e-02 -1.85410753e-02
  -2.78694872e-02  1.87346023e-02 -2.42976043e-02  6.36700988e-02
   4.57001030e-02  3.64127867e-02  5.46546057e-02  2.66084876e-02
  -1.40905324e-02 -1.05656348e-01 -8.18525031e-02  8.23371927e-04
   2.37817131e-02  2.92980578e-02 -4.77350019e-02  4.24278118e-02
   7.63793662e-02 -1.47876084e-01 -1.36228092e-02 -1.02128345e-03
  -4.45252694e-02 -9.74556897e-03 -6.52170852e-02  4.81520183e-02
  -1.58049520e-02 -1.24944150e-02 -5.15646450e-02  1.97140709e-03
  -7.08002076e-02 -3.93540449e-02 -6.08259663e-02 -1.13983557e-01
  -1.03359319e-01 -3.73343267e-02  5.67518249e-02 -1.38677284e-01
  -5.37896901e-02 -1.47491470e-01 -2.90368311e-02  6.33555790e-03
   5.83115928e-02  2.97472887e-02 -6.52132481e-02 -2.21114345e-02
  -2.67932471e-02  5.02869226e-02  3.39058787e-02  1.13378316e-02
  -4.32456173e-02  3.62632028e-03  3.50025333e-02  5.91707528e-02
  -4.87611294e-02  8.39756280e-02 -7.75572285e-02  2.20042374e-02
  -3.48601379e-02 -6.43070564e-02 -2.86696237e-02  5.35101183e-02
   4.49483916e-02 -2.33148560e-02 -5.94034418e-02  4.23861928e-02
   2.34728903e-02  2.89574414e-02 -6.40874133e-02  1.13289572e-01
   7.37919798e-03  7.55803883e-02 -4.32944410e-02  3.70236672e-02]
 [-7.29695335e-02 -3.83266136e-02  3.43286097e-02  1.55369164e-02
   2.81419437e-02  1.10692661e-02  2.64273211e-02 -7.79626593e-02
  -5.06930202e-02 -4.82271835e-02 -2.00694073e-02  2.94968393e-02
  -6.28374666e-02 -3.00176162e-03 -1.85723659e-02  2.37276591e-02
  -1.77507605e-02 -5.42138144e-02 -1.24543319e-02  2.38943342e-02
   2.93703228e-02 -5.21938987e-02  5.30821085e-02 -3.70181315e-02
  -5.46876565e-02  2.73467898e-02  3.70655279e-03 -2.66164988e-02
   1.33160129e-01  2.52491888e-02 -3.50058749e-02  6.09456003e-02
   4.72733863e-02 -4.48291413e-02  3.68798450e-02  5.28555140e-02
   2.19383817e-02  1.73671283e-02  1.02462666e-02  4.13014926e-02
  -3.24205728e-03 -5.75676234e-03 -6.51662797e-02 -2.06700545e-02
   5.79706207e-02  3.26793529e-02 -1.07553437e-01 -2.09389403e-02
  -4.14753743e-02 -3.58327385e-03 -8.73328245e-04  7.99329877e-02
   4.87688705e-02  1.61717851e-02  2.90532932e-02 -3.47034037e-02
   1.33001991e-02 -4.42347638e-02  1.72745697e-02 -9.02628005e-02
   7.31499400e-03  3.25370207e-02  1.29587557e-02 -7.66831338e-02
   4.20325473e-02 -3.18308435e-02 -1.47513570e-02  3.83507647e-02
  -6.50290102e-02  5.75924218e-02  2.98939385e-02 -8.53430666e-03
   4.20496091e-02 -4.40211445e-02 -5.14964631e-04 -2.32899492e-03
  -5.27171195e-02  3.15139629e-02  2.19861744e-03  3.30528361e-03
  -1.22340685e-02 -4.66569997e-02 -5.34149632e-02  2.25043762e-03
   2.55224518e-02 -6.54487545e-03  6.65817931e-02 -8.26761723e-02
   2.49918234e-02  3.50553688e-04  9.81529360e-04  6.86948374e-02
   1.71690490e-02  2.57340772e-03 -5.58377579e-02 -3.47610302e-02
  -6.84756935e-02  1.97048765e-03 -1.12447599e-02 -3.45488149e-03
   2.39706151e-02  5.04645854e-02  5.03995381e-02 -4.75215018e-02
   1.48047544e-02  4.60317135e-02 -6.49046376e-02  7.60276392e-02
   1.38761606e-02 -2.83560455e-02 -4.29689288e-02 -2.46973317e-02
  -4.08047736e-02 -6.79052174e-02  1.86030380e-02  1.25020966e-01
   6.46641180e-02  3.65414694e-02  1.42996944e-03  1.00133032e-01
  -7.55986124e-02  3.28127202e-03  4.22584750e-02  4.56698686e-02
   3.53512280e-02  9.19951499e-03  2.46782205e-04 -2.06871983e-02]
 [ 9.98798665e-03  3.28356735e-02 -4.54732925e-02  4.74842228e-02
  -8.36398900e-02 -2.54091397e-02 -5.98132201e-02 -5.71385510e-02
  -4.37317491e-02  3.01556792e-02  1.97705738e-02  6.57060370e-02
  -1.32459216e-02  2.88260449e-02  1.68495134e-01 -3.52233672e-03
  -6.08903542e-02  6.09958451e-03 -6.33758083e-02  3.06166857e-02
  -1.89007334e-02 -5.59196807e-02 -2.45132092e-02  4.38531898e-02
  -4.63881381e-02 -2.71711424e-02  2.09586546e-02  6.39262423e-03
   1.71909034e-02 -6.17626719e-02  3.17669325e-02 -2.93880720e-02
  -3.78342792e-02  2.37087701e-02  2.24675313e-02  1.42932504e-01
  -2.24118633e-03 -6.39539808e-02 -1.33777156e-01 -6.47716299e-02
  -4.52418253e-02  5.00720553e-02  3.67293768e-02  2.64530815e-02
   2.92171948e-02 -8.05873200e-02  1.02362834e-01 -3.32336836e-02
   1.45958349e-01 -5.09211682e-02  6.02496276e-03 -5.06477021e-02
   8.28028563e-03 -4.30397550e-03 -6.45944923e-02  1.19739342e-02
  -6.56195432e-02  2.26644650e-02 -3.27220075e-02  4.35519330e-02
  -6.76745400e-02 -3.32628079e-02 -1.48894023e-02  2.45472491e-02
   3.81862419e-03 -4.84329127e-02  2.70585471e-04 -5.57463951e-02
  -2.38178726e-02 -4.62487265e-02  3.85304950e-02 -1.53946076e-02
  -9.06960145e-02  1.21112680e-03 -2.65542269e-02 -6.87609687e-02
  -3.14672999e-02 -1.12001868e-02 -4.80708946e-03  2.80228276e-02
  -6.15971908e-02 -4.15360518e-02  1.11241601e-02 -6.13364726e-02
  -5.90951480e-02  7.84866419e-03 -1.08842649e-01 -3.01731378e-02
   1.12564623e-01 -4.64211740e-02  3.46972756e-02  3.01550571e-02
  -3.39429006e-02  1.42959088e-01  2.77102552e-02  3.66037004e-02
  -1.98898464e-02  1.77713465e-02 -4.76358421e-02  1.08099859e-02
   4.40949947e-03 -6.34387434e-02 -1.06588453e-02 -5.27799800e-02
   2.00679172e-02 -1.36496788e-02  6.23565875e-02  8.01110789e-02
  -2.17792708e-02 -4.42058258e-02  5.33546656e-02  3.34695876e-02
   2.81096250e-03 -3.00304662e-03 -2.12391978e-03 -1.17586844e-01
  -2.93301269e-02 -2.89074425e-02 -1.99586507e-02 -1.75527558e-02
  -2.61910260e-02 -4.78202105e-02 -1.50923999e-02 -8.37659463e-02
  -7.54250139e-02 -1.83811471e-01  7.69930286e-03 -1.49473492e-02]
 [-5.52131757e-02  1.45951705e-02  1.94478109e-02  3.76553871e-02
  -3.17824297e-02 -3.26656289e-02 -2.37885147e-01  4.12744619e-02
  -3.99794988e-02 -2.81065647e-02 -2.44856756e-02  1.86704218e-01
  -4.79785688e-02  3.69956829e-02 -2.57798936e-02  4.99215573e-02
  -8.28840770e-03 -2.96042878e-02 -7.51581267e-02 -3.49521376e-02
   7.24029727e-04 -6.22926727e-02 -5.18505573e-02 -4.46647294e-02
  -2.92664336e-04  4.78568077e-02  5.14392704e-02 -6.83345422e-02
  -1.16019480e-01  4.18237112e-02 -4.51124944e-02 -2.82225646e-02
  -1.94943637e-01  6.11517392e-02  1.57364905e-01 -1.11820400e-02
  -5.23832589e-02 -3.63055356e-02 -1.53813824e-01 -2.66930275e-02
   1.52827399e-02  9.54196788e-03  5.73231876e-02  1.99019238e-02
   5.50566502e-02 -1.39032066e-01  8.86588991e-02 -6.50630984e-03
  -2.93929100e-01 -1.64396651e-02  5.16076647e-02 -6.54812232e-02
   7.39544770e-03  1.97782274e-02 -1.07910326e-02 -2.64668111e-02
  -3.75896506e-02  4.87474278e-02 -1.74509678e-02  8.08076784e-02
  -4.43584286e-03  1.88099649e-02  5.71567798e-04  3.41565385e-02
   4.79995348e-02 -3.01716588e-02  4.18369845e-02  1.20558515e-02
   4.17425781e-02 -1.55656487e-01  5.10334708e-02  1.27011240e-02
  -2.02026777e-02  4.04635742e-02  2.89590601e-02  4.53543440e-02
  -1.01484200e-02 -4.06455528e-03  4.76966724e-02  1.73427968e-03
   5.12904301e-02  1.49731385e-02  6.30682409e-02  2.82974057e-02
   2.99777985e-02 -7.68701127e-03  1.60908997e-01 -1.56203909e-02
   1.51166454e-01  2.37752702e-02  1.55345723e-02  4.75173816e-02
  -4.72932272e-02  1.53572679e-01  2.91378014e-02 -7.33271018e-02
   7.72433355e-03 -3.26058045e-02  2.02476196e-02  4.13047858e-02
  -7.03042448e-02  2.10288502e-02  9.56326351e-03 -4.10630144e-02
   2.12240852e-02 -7.13346079e-02 -6.62470013e-02  5.34529425e-03
  -3.42253968e-02 -1.85574755e-01 -5.38939089e-02  3.60029303e-02
  -3.13318446e-02  1.85975265e-02  2.35896632e-02 -8.81298259e-02
  -3.41941901e-02  6.86991587e-02 -1.38869405e-01 -3.13283093e-02
   2.82607898e-02 -3.45312245e-02  1.94944385e-02  2.16940213e-02
  -9.95007828e-02 -1.80894025e-02  1.32542115e-03 -4.25856002e-02]
 [ 1.22132199e-02 -4.81619034e-03 -3.65578430e-03 -3.11111473e-02
   3.15485448e-02 -6.04625456e-02 -4.17402089e-02 -1.11003287e-01
  -3.20343785e-02  3.02975848e-02  1.18673993e-02  6.70015588e-02
  -2.39805710e-02 -5.89754879e-02 -1.57303497e-01 -7.41755515e-02
  -7.05692098e-02 -4.69003730e-02  9.25205741e-03  3.00264377e-02
  -2.24148296e-02  2.39549950e-03 -2.26927530e-02  3.11109237e-02
  -2.54279352e-04 -2.66102701e-02 -1.02951489e-02 -4.16030362e-02
  -2.19301820e-01  6.03245432e-03  3.45990360e-02 -1.82931811e-01
   2.05475595e-02  2.31854431e-02 -4.85596061e-02 -2.27447256e-01
   2.78264973e-02  3.63208912e-02 -5.07570393e-02 -3.31012271e-02
  -1.83828175e-02  3.10241766e-02  4.82876832e-03  5.26851565e-02
  -5.95628237e-03 -1.34937242e-01  9.67104658e-02 -1.76758133e-02
   2.91417129e-02 -3.90485860e-02 -1.28706759e-02 -2.72848625e-02
  -4.44166064e-02 -1.11970333e-02 -7.05563650e-03 -1.20853335e-02
  -3.41392644e-02 -4.53052036e-02  4.30971533e-02 -5.81446402e-02
  -8.99581797e-03  6.79595694e-02 -4.77711391e-03 -2.25366484e-02
   3.89788300e-02  1.03358291e-01 -5.02584986e-02 -2.21716128e-02
   6.55113608e-02 -5.75893000e-02 -4.15580813e-03 -3.36622372e-02
  -1.29487932e-01 -1.77828856e-02 -1.73715707e-02 -7.49879628e-02
   4.43989784e-03 -3.34015451e-02  1.96599215e-02  3.72917540e-02
  -1.83667373e-02  1.34947896e-02 -1.65131930e-02 -6.23714961e-02
   1.66458841e-02  1.88437663e-02 -6.69263527e-02 -3.40268970e-03
   7.16682673e-02 -4.11608182e-02 -1.09654918e-01  2.14663744e-01
  -6.45383894e-02  3.27190384e-03  5.69088385e-02 -1.74097531e-02
  -2.16000918e-02  3.26438397e-02  3.05250771e-02 -3.54321599e-02
  -1.37321338e-01  1.75338686e-02  4.95857978e-03  3.70065682e-02
   5.79612181e-02 -4.04673964e-02  6.39685337e-03 -3.88192683e-02
  -2.23487578e-02 -3.70834842e-02  7.26089031e-02  2.00783610e-02
  -2.02652831e-02  8.55180398e-02 -3.47269103e-02 -2.16922298e-01
   3.54756555e-03 -1.03328168e-01 -2.40150467e-01  7.65218399e-03
  -3.33131924e-02  4.32894379e-03  2.33941525e-03 -2.68684905e-02
  -4.45401222e-02 -1.29981786e-01 -3.69540565e-02 -7.08524510e-03]
 [-3.66678834e-02 -2.50620563e-02  5.18782884e-02 -2.89492812e-02
   3.76775451e-02  3.74551825e-02 -7.62848780e-02  4.65258807e-02
  -1.76645983e-02  3.66610624e-02 -1.08245365e-01  1.25218719e-01
   8.81587912e-04  8.98922887e-03 -4.09497768e-02  1.39863202e-02
  -4.26480062e-02 -1.46141443e-02 -2.24099346e-02 -2.89341044e-02
   3.18395835e-03 -6.61360770e-02 -3.18528712e-02  4.55687717e-02
   2.30815867e-03 -2.24638209e-02 -2.96601374e-03 -4.28967513e-02
   4.78456952e-02  3.52274440e-02 -5.44517860e-02  1.27096444e-01
  -8.42061788e-02 -2.74775061e-03 -5.34365997e-02  3.68417986e-02
  -5.86203039e-02  2.94075403e-02  5.59437508e-03  9.55992714e-02
  -1.57133788e-02  1.09146442e-03 -3.05613335e-02 -4.93474714e-02
  -2.91879773e-02 -4.88500409e-02  1.27324387e-01 -9.35619511e-03
  -8.84756371e-02  2.04443117e-03 -1.75862797e-02 -1.26145445e-02
   1.61200501e-02  1.03427516e-02  1.98867102e-03 -4.16241214e-02
  -6.05741777e-02 -6.63019717e-02 -6.72291219e-02 -7.33344555e-02
   5.03578037e-02 -2.27025971e-02  1.72552951e-02 -3.51723768e-02
   4.53366637e-02  1.16343498e-02  2.43120771e-02  1.05105378e-02
  -1.13173388e-02 -7.68334717e-02 -2.21508835e-02 -4.00390103e-02
   2.09998280e-01  7.11300075e-02  2.56224163e-02 -4.01378721e-02
   8.01132340e-03 -6.90037459e-02 -4.15066630e-02 -2.60798614e-02
  -2.74158511e-02 -9.27765220e-02 -2.63671912e-02  6.30304869e-03
   2.36494001e-02 -3.19323391e-02  5.29607199e-02  9.10826027e-02
   6.04817159e-02 -1.31361410e-02 -1.24853486e-02  2.03715302e-02
  -5.82828820e-02  6.53331131e-02 -2.85928212e-02  1.25460662e-02
  -6.96586519e-02  8.81930068e-03  1.96079724e-02  1.62262078e-02
   4.04586047e-02  6.27735183e-02 -2.91089006e-02 -5.97194806e-02
   4.76314835e-02 -7.19064921e-02 -2.93553155e-02 -1.09271161e-01
   6.96275197e-03 -1.39814466e-01 -5.75135536e-02 -3.23982909e-02
  -2.38362737e-02  7.42021250e-03 -4.59932499e-02  2.82168649e-02
   5.05417176e-02  3.04324739e-02  2.65694819e-02 -8.94547775e-02
   1.65518075e-02  1.09562743e-02 -6.74601570e-02  2.19564047e-02
  -2.97858752e-02 -2.86871996e-02 -2.36347858e-02  6.29802747e-03]
 [-1.81478821e-02  1.70394629e-02 -4.27467562e-02 -1.20178005e-02
   2.60819495e-02  3.47838923e-02  5.47258072e-02  2.28042006e-02
  -5.55763990e-02 -3.75812575e-02  3.26501578e-02 -1.97756924e-02
  -4.94259447e-02 -5.46950065e-02 -9.70081538e-02 -4.27344106e-02
  -3.40762809e-02  1.31725986e-02 -1.58545449e-02 -6.36715814e-02
  -5.78977494e-03 -1.28396219e-02 -8.97214282e-04 -4.41672839e-03
   4.39559184e-02 -4.36950997e-02 -6.55082911e-02 -1.74570903e-02
  -2.95693409e-02  2.77124462e-03 -1.99947059e-02  3.32854465e-02
  -6.74967691e-02  2.28919629e-02 -6.67544752e-02  3.90520506e-02
   6.44927025e-02 -2.34474614e-02  1.98426098e-02 -3.07823811e-02
   2.35148091e-02  6.20222185e-03  2.23750863e-02 -2.49835048e-02
  -2.16723643e-02  8.34738165e-02 -1.08617164e-01  3.41525525e-02
  -2.79333387e-02  1.78454574e-02 -1.11037463e-01  1.14534430e-01
  -6.21019378e-02 -5.46686836e-02  1.05444714e-02 -3.56551744e-02
   5.28586209e-02 -5.66254221e-02 -1.51931299e-02  9.78212245e-03
   4.12948839e-02  8.99735466e-02  6.61824346e-02  2.56859027e-02
  -2.82341111e-02 -1.00405566e-01 -2.99490448e-02  2.60102209e-02
   5.46421334e-02 -3.35341580e-02 -5.29931784e-02 -1.24716600e-02
  -4.60698716e-02 -1.03479750e-01 -3.67503567e-03 -1.18930144e-02
  -5.75175509e-02  4.87979949e-02  1.81045942e-02  5.72180152e-02
   4.21956331e-02  3.34407128e-02  1.60332210e-03 -5.05727828e-02
   1.30761657e-02  1.73353422e-02 -6.96018934e-02 -8.31341371e-02
  -1.63007513e-01  6.21532463e-03  5.13084792e-02 -3.55947673e-01
  -3.75453942e-02  1.10661546e-02 -8.04547817e-02 -3.16776633e-02
   1.55141409e-02  1.87547710e-02  3.41935791e-02  8.19281442e-04
   6.79904446e-02 -1.59829900e-01  2.35060360e-02 -3.12149264e-02
   3.56660341e-03  1.13073196e-02  3.07847358e-06 -3.47075500e-02
  -6.81989491e-02  5.48963882e-02 -2.00236216e-02 -5.15491366e-02
   9.99033917e-03 -4.82166708e-02  2.51198392e-02 -5.56186922e-02
   9.42697981e-04 -2.51624435e-01  1.70219950e-02  3.56536396e-02
  -7.45195746e-02  2.18931772e-02 -1.37237767e-02  4.83833328e-02
  -6.10100031e-02  7.58702755e-02  1.31558860e-02  3.98090929e-02]
 [ 1.83670577e-02  4.49012034e-02 -4.10611965e-02 -1.07916282e-03
   9.04233661e-03  5.07667698e-02  4.07392494e-02 -7.08281845e-02
  -6.79877028e-02  1.67900249e-02 -6.69382289e-02  8.33688397e-03
  -3.76732051e-02  2.96374112e-02 -3.56470682e-02 -1.60143897e-02
   2.45818980e-02 -5.02224304e-02 -6.15533963e-02 -3.36092412e-02
   2.40990445e-02 -1.26555674e-02 -3.18450518e-02  4.22550744e-04
  -8.04886371e-02  8.25711060e-03 -4.57669571e-02  2.21876130e-02
   8.20405260e-02  1.96474437e-02 -2.72505283e-02  1.09743178e-01
   4.88504022e-03  4.64999266e-02 -5.03011188e-03  2.79899649e-02
  -3.42327692e-02 -8.93330108e-03 -7.76588544e-03  1.68811879e-04
   4.89481613e-02 -6.16979152e-02  3.59119661e-02  1.00648310e-02
   5.09898029e-02  7.17193559e-02 -1.07980236e-01  6.01066649e-03
   3.10608372e-02  2.82059563e-03 -1.08972825e-01  7.92672038e-02
  -5.48804924e-02 -7.58075854e-03 -6.35875836e-02  1.36701474e-02
  -2.94398908e-02 -4.93934937e-02 -7.60288760e-02 -6.65760711e-02
   9.39349644e-03  2.00945232e-02  4.37886491e-02 -2.94351894e-02
  -1.78759675e-02 -8.43767598e-02 -5.66610023e-02  2.72836927e-02
   2.88485251e-02 -4.86901868e-03  2.82496177e-02  9.07596387e-03
   2.32421346e-02 -8.17786064e-03 -3.90754268e-02  3.52067761e-02
  -2.98830606e-02  2.97052395e-02 -2.08016168e-02 -7.02623576e-02
  -2.24586483e-02  1.79709457e-02 -1.14855252e-03  2.61510070e-02
  -1.64659563e-02 -7.48910978e-02 -3.58870579e-03  1.15102315e-02
  -6.19531535e-02 -6.08004928e-02  8.80728140e-02 -2.91833337e-02
   4.59558293e-02 -1.12114958e-02 -5.23286697e-04  4.70565222e-02
  -1.62582770e-02 -2.63489932e-02  3.14739197e-02 -7.25091994e-02
   5.93869537e-02  3.45562235e-03 -8.12969171e-03  1.05730863e-02
  -1.05544114e-02 -3.34287100e-02 -1.05578750e-01  1.01818442e-01
  -2.45097242e-02  6.30884469e-02  2.44231638e-03  3.13230380e-02
   5.10335006e-02 -3.85386832e-02  3.93317128e-03  1.02356546e-01
   5.72210178e-02  7.29837045e-02  7.41492063e-02 -3.99992056e-02
  -2.16257535e-02 -2.99886577e-02 -2.64707431e-02  1.80952791e-02
   4.41111811e-02  1.22321425e-02 -4.62243184e-02  4.58695628e-02]
 [ 1.47850474e-03 -1.62265375e-02 -8.37274734e-03 -4.77483422e-02
  -1.42344180e-02 -7.97309540e-03  2.26046871e-02 -2.48892326e-02
   3.30264270e-02  4.94059874e-03  7.57947490e-02  7.56477118e-02
   4.13220078e-02  1.97801832e-02  1.91745646e-02 -1.98776387e-02
  -4.78053018e-02  5.24283685e-02 -1.51934586e-02 -8.33550293e-04
  -1.83842126e-02 -1.82709545e-02 -4.00190540e-02  2.66831666e-02
   3.31253149e-02 -4.71033044e-02  3.80225368e-02 -6.56164885e-02
  -1.98352914e-02  5.79546988e-02  2.56405561e-03 -9.20232609e-02
  -1.17468163e-01 -5.32531664e-02  6.39538988e-02  1.32048100e-01
  -4.46518324e-02 -5.07469773e-02 -6.25040829e-02 -2.39148531e-02
  -2.93584578e-02 -9.89891216e-03  3.30096968e-02 -2.97578853e-02
  -5.85142896e-03 -1.11190572e-01  7.71498457e-02  1.62179396e-02
   6.56688586e-02  7.61329848e-03 -2.72680838e-02 -1.74771547e-01
   6.77067693e-03 -3.32766809e-02 -5.23052067e-02  3.13037708e-02
   6.86374353e-03  2.75867302e-02 -1.30135166e-02  9.86419320e-02
   2.47529894e-02 -2.78209802e-02  4.36398461e-02  2.09003203e-02
  -2.83779688e-02 -5.07415123e-02 -2.37153452e-02 -3.98297124e-02
   3.87581997e-02 -2.49406844e-02  9.22234822e-03  3.08806393e-02
  -6.55953214e-02  4.06594314e-02 -3.89777943e-02 -3.07199024e-02
   1.54543913e-03 -8.27539992e-03 -4.99466397e-02  8.18773732e-02
   2.52075270e-02  7.75643764e-03  3.84608805e-02 -2.86491029e-03
   1.22601772e-02  1.21594854e-02  4.59588580e-02 -3.18412259e-02
  -2.14278698e-02  4.45149690e-02 -8.04788608e-04  1.09121595e-02
   2.48569958e-02  1.45989969e-01  2.56658532e-02  3.49235721e-02
  -9.40551609e-02 -2.66594416e-03 -1.98090151e-02 -7.85618052e-02
   4.70413826e-04 -4.57552001e-02  4.22064289e-02  4.91707064e-02
  -2.47197784e-02 -1.25117591e-02  3.41712646e-02 -5.47043839e-03
  -5.92728518e-02 -1.24682866e-01  1.75396446e-02 -3.52115370e-03
  -3.37882750e-02 -1.06287271e-01 -2.39650365e-02 -9.85797867e-02
   7.07051158e-02 -7.87516087e-02  8.67036507e-02 -8.65865946e-02
   3.26201953e-02  2.98865363e-02  1.33561036e-02 -9.60645303e-02
  -1.03696585e-01 -1.25549793e-01  7.95354322e-02  3.18036340e-02]
 [-4.79128351e-03 -4.21558134e-02  1.16450321e-02  2.43529417e-02
  -6.17954582e-02 -1.61777213e-01  2.28746254e-02 -1.44234775e-02
   1.22083640e-02 -5.70022352e-02 -3.45280245e-02 -4.14609611e-02
  -7.03831911e-02  2.20681969e-02 -2.35320672e-01  3.78673663e-03
  -2.77997740e-03 -5.87945543e-02 -9.99393407e-03 -6.07163049e-02
  -5.28483726e-02  5.78304753e-02  5.41203283e-02 -2.86475830e-02
   4.10137605e-03 -3.71260308e-02  2.07117442e-02 -1.94206554e-03
   6.57054177e-03 -1.36229191e-02 -1.94195900e-02  1.42960891e-01
  -8.67474601e-02  2.12318264e-02 -2.87895631e-02 -1.54965799e-02
  -6.48156479e-02 -6.91696554e-02 -2.14887604e-01  2.00641546e-02
  -3.86047326e-02 -2.60334974e-03  3.60918492e-02  3.65685150e-02
   5.40650003e-02 -1.90008879e-02  6.72551915e-02  2.56051533e-02
  -2.06994146e-01  2.13075094e-02 -9.17928070e-02 -4.94401855e-03
   5.89961838e-03 -4.35908958e-02  4.16863523e-02 -4.48530586e-03
  -5.46674877e-02 -5.17877797e-03 -4.93428856e-02  1.18725173e-01
   7.45226769e-03 -2.01717652e-02 -1.17674610e-02  2.87480298e-02
  -5.19179441e-02 -1.14993446e-01  1.21931853e-02 -1.95920970e-02
  -1.89545881e-02 -2.75614653e-02 -6.11921363e-02 -1.11377295e-02
   1.33044794e-01  5.25544100e-02 -2.00640131e-02 -4.41652872e-02
   8.54056049e-03 -3.55918668e-02 -5.36673255e-02 -9.73570570e-02
  -2.74639037e-02  3.32258269e-02 -2.12254524e-02 -3.33178304e-02
   2.20701955e-02 -2.55292542e-02  6.62527978e-02  1.62436243e-03
  -4.75787073e-02  1.35928001e-02  3.06209549e-02  5.92330210e-02
  -4.45891395e-02  4.61620628e-04 -1.34476963e-02 -4.85158787e-04
   3.29541601e-02 -2.50546802e-02  2.46157534e-02  2.19431035e-02
  -7.55351083e-03  4.95165624e-02 -3.05066872e-02 -5.57993725e-02
  -3.74977440e-02 -5.84833212e-02 -2.36145947e-02  1.19277206e-03
   7.83388317e-03  5.60105965e-02 -3.33008356e-02 -3.22694168e-03
   3.10584698e-02 -1.12535939e-01 -6.09029867e-02 -4.17790897e-02
  -4.44746017e-02  5.81109338e-02  2.63601877e-02 -1.63337626e-02
  -1.27835143e-02  2.45189704e-02  3.08816060e-02  8.99836719e-02
  -9.88512859e-03  5.60225733e-02  3.26740108e-02  9.69811808e-03]
 [ 2.60947980e-02 -1.33123687e-02  1.43919280e-02 -1.64896827e-02
  -1.43105239e-02 -3.92546542e-02 -1.65044982e-02 -1.33912032e-02
   2.09225100e-02 -5.78373298e-03  4.61873077e-02 -1.55675933e-01
   2.88685178e-03  6.17610440e-02 -8.44114497e-02 -2.04565469e-02
  -1.31633542e-02  5.60740754e-02  2.61723194e-02  2.53927056e-03
  -1.72261763e-02  4.92620561e-03  3.00562624e-02 -4.46658290e-04
  -1.15529345e-02  2.04035193e-02 -4.48553115e-02  2.06569824e-02
  -8.25138986e-02  1.09711674e-03  6.24050759e-02 -1.00881487e-01
   6.53317049e-02 -3.18496116e-02 -2.44724713e-02 -1.51930958e-01
  -4.55949306e-02 -4.07735788e-04 -1.10087171e-01 -1.27506092e-01
  -1.87403765e-02  6.17219694e-02 -4.42798017e-03  4.50989716e-02
  -1.59323104e-02 -9.11046714e-02  4.07584161e-02 -5.02947494e-02
  -5.95803820e-02  1.76218599e-02  7.95109291e-03 -6.91244155e-02
   3.98560092e-02 -5.39992005e-02  5.69925755e-02  5.90076298e-02
   8.33300594e-03 -4.56179976e-02  1.77956130e-02 -1.37345880e-01
   3.50745139e-03  3.79441604e-02  4.03754190e-02 -1.76668521e-02
  -5.12056705e-03  9.44018066e-02  8.57250206e-03  3.80527526e-02
   1.97043903e-02 -1.23948663e-01 -2.00841203e-02  1.32150417e-02
  -9.77190807e-02 -4.76501510e-02  3.17472368e-02 -3.15573104e-02
  -4.84224595e-02  3.94469760e-02  3.00403144e-02 -7.49660209e-02
   3.41103561e-02  2.46505737e-02 -3.25557939e-03  9.71332099e-03
   1.38001852e-02  3.31751369e-02 -1.06708370e-01  4.93035726e-02
   1.70863811e-02  3.68764400e-02 -3.75596844e-02  5.95276952e-02
   1.56055007e-03  1.18959635e-01  3.79639491e-02  1.55094210e-02
  -2.89362893e-02 -6.19612820e-02  5.68159372e-02 -2.15625055e-02
  -2.12392539e-01 -6.73398525e-02 -5.58712753e-03  8.17143768e-02
  -5.35543002e-02 -5.89992404e-02 -3.98116112e-02 -9.39432904e-02
   1.70892179e-02 -1.18106931e-01 -1.19611556e-02 -5.24009764e-02
   5.67532331e-02 -4.47312593e-02 -3.61208804e-02 -1.11171201e-01
  -1.72358118e-02 -1.03425011e-01 -6.02694787e-02  1.00388318e-01
  -2.76260339e-02  3.48429158e-02  6.38341391e-03  7.39802271e-02
  -4.31204960e-03 -1.44519478e-01  2.58254427e-02 -2.41556764e-02]
 [-8.40595141e-02  1.49091100e-02 -5.54189226e-03 -5.80473803e-02
  -3.93474568e-03 -1.35264974e-02  7.84980580e-02  3.01081277e-02
   2.81182844e-02 -6.12635799e-02 -7.76217207e-02  3.95634696e-02
  -5.96890859e-02  1.61253158e-02  2.96691433e-02 -1.64516065e-02
  -5.52873462e-02  1.57645792e-02 -6.36001676e-02  1.71229653e-02
  -2.09867656e-02 -4.97184731e-02  2.60829516e-02  6.14578323e-03
   1.63458679e-02  2.04479061e-02 -1.48423528e-02 -4.99504134e-02
   2.48694476e-02  2.86825597e-02 -1.49155203e-02  9.38869566e-02
   2.40100529e-02 -3.61733474e-02 -1.28656998e-01 -6.39781728e-02
  -5.19806221e-02  1.69104487e-02  2.05747727e-02  1.16115592e-01
  -3.67419571e-02  3.08170952e-02  2.48157121e-02  1.26020312e-02
   2.26007216e-02 -1.07255988e-02  1.16441645e-01 -3.93922552e-02
  -1.64822772e-01 -5.10315076e-02 -4.67469692e-02 -1.76633112e-02
  -3.41518521e-02 -3.60170403e-03  4.45462279e-02  5.90005890e-03
  -3.65299103e-03 -1.65520404e-02 -2.98897158e-02  5.67120351e-02
   4.96929809e-02 -5.63240163e-02  4.01019007e-02 -5.40685765e-02
  -5.54058217e-02 -3.50011811e-02 -2.46633682e-02  3.00510600e-03
  -4.74619493e-02 -6.41564885e-03  1.51542798e-02  4.38036621e-02
   9.05032456e-02  1.11644171e-01  1.16981640e-02  1.56878810e-02
  -4.71861809e-02 -5.92474267e-03  1.61250103e-02 -2.95236409e-02
