dense/kernel:0
(784, 128)
[[ 2.72120833e-02  1.18897796e-01  8.74877349e-02  3.17962348e-01
  -3.58948797e-01  4.67111764e-04 -6.81576505e-02  4.39182594e-02
   1.52459279e-01  2.04557970e-01 -2.67059505e-02  3.23099554e-01
   5.68828762e-01  5.80196315e-03  2.30924040e-02 -1.67090446e-02
  -3.48562002e-01 -5.69330335e-01  7.31755868e-02  7.43929625e-01
  -1.37334689e-01 -2.32023090e-01  3.04079149e-02  5.06374538e-01
   2.29528263e-01 -8.34752098e-02 -4.22256559e-01 -5.11420906e-01
  -3.10052007e-01 -9.14811566e-02 -1.48592854e-03 -2.44669810e-01
   2.04710245e-01  6.24546632e-02  5.76212592e-02 -3.78659330e-02
  -5.60324132e-01 -6.28955781e-01  2.60100037e-01  3.25017571e-01
   1.11570768e-01  3.66696686e-01  3.32175165e-01 -4.26440150e-01
  -4.34909195e-01 -6.54525518e-01 -1.48784146e-02  1.21553309e-01
  -7.69228265e-02 -2.47008026e-01  8.96672159e-03  2.89832592e-01
   7.53897503e-02  1.48357665e-02  2.29908898e-02 -2.95960695e-01
  -1.20446339e-01  4.34695780e-01 -4.50121686e-02 -7.72565082e-02
  -3.81999873e-02  1.95536911e-01 -1.80529535e-01 -3.07295084e-01
  -1.64661974e-01  9.18579549e-02  2.42677048e-01 -1.00449026e-01
   2.66874254e-01 -3.23353142e-01 -2.94751108e-01 -3.53147566e-01
  -4.88459356e-02 -2.58662939e-01 -3.39883417e-02 -2.97922999e-01
   3.77829857e-02  3.57046276e-01  5.16194940e-01 -6.09210670e-01
   1.33689819e-02 -8.57029483e-02  4.80313972e-03  1.72374427e-01
   7.80650601e-02 -5.50477467e-02  2.06389189e-01 -5.23499012e-01
  -1.73301280e-01  5.33896148e-01  4.02911127e-01  4.61969078e-01
  -1.27551049e-01  2.87613064e-01  2.80508455e-02  7.35393390e-02
   4.48848829e-02  7.84613192e-04 -7.80179352e-02  6.24748543e-02
  -1.85062122e-02  3.34440619e-01  2.37182342e-02  1.14270717e-01
   3.12110260e-02 -5.09988330e-02 -3.98762263e-02  5.24273753e-01
  -4.83742580e-02  3.39621574e-01 -1.84221119e-02 -4.01015043e-01
  -2.61223465e-01 -1.30139783e-01 -2.26027835e-02  3.61679226e-01
   3.90381396e-01  2.24844553e-02 -6.16622940e-02  3.51617523e-02
   3.59890044e-01 -5.57477772e-02 -3.56639206e-01 -7.14971572e-02
  -6.74063861e-02 -4.34768558e-01  8.06504562e-02 -4.34822850e-02]
 [-4.23533730e-02 -4.44895104e-02 -1.19604226e-02  1.80466413e-01
   2.34596893e-01 -3.46721172e-01 -1.49239987e-01  3.82874757e-02
  -1.51744023e-01  1.55603811e-02 -2.32810378e-01 -1.75726876e-01
   1.14494056e-01  3.50092590e-01 -2.79249568e-02  7.94746280e-02
  -7.64629915e-02 -1.58170518e-02  2.42897466e-01  1.87558070e-01
  -1.88645229e-01 -7.88061842e-02 -1.06641792e-01 -2.43744344e-01
   4.20353919e-01  2.71965325e-01 -1.49603887e-03 -1.49165079e-01
  -4.31861967e-01 -2.60179192e-01 -1.01385685e-02  9.30720866e-02
   3.80890787e-01 -3.18914279e-02 -4.66521561e-01 -1.55088119e-02
   7.67367929e-02  4.77264464e-01 -2.02424332e-01  4.16453153e-01
  -1.78180739e-01  4.30900753e-01  1.93969935e-01  9.89623666e-02
   2.66871005e-01 -7.40720406e-02  2.30698817e-04  7.04826772e-01
   4.46360186e-02 -1.16174839e-01  2.30904892e-02  2.25179598e-01
  -4.42710429e-01 -3.59888464e-01  2.30066866e-01 -2.56297421e-02
   1.24066308e-01  1.08890384e-01 -1.30624309e-01  7.02481791e-02
  -2.61316467e-02  1.62482560e-02  3.05199713e-01 -5.02414107e-01
  -1.07959956e-01  2.47345492e-01 -5.62489867e-01 -1.74044892e-01
   2.99535632e-01 -5.27740568e-02  7.19859898e-02  8.11762959e-02
  -1.52224228e-01  6.67845786e-01 -1.33689642e-01 -5.70395529e-01
  -2.40687728e-01  4.21932966e-01 -2.50391245e-01  7.04505861e-01
  -1.64963573e-01  1.72559604e-01 -5.01213968e-01  3.90408635e-01
   2.07037717e-01 -4.10904661e-02 -3.63069661e-02  1.78300440e-01
   5.42336181e-02 -2.35314742e-01  4.65251684e-01  4.47319955e-01
   1.28482640e-01  3.12046528e-01 -8.63228217e-02 -2.68435657e-01
  -6.34904653e-02 -1.08896762e-01  1.08636335e-01 -1.52995512e-02
   1.09783173e-01  5.29127181e-01 -5.52884817e-01 -2.23057490e-04
  -1.11545719e-01  2.67935187e-01  7.54532933e-01 -2.14116052e-01
  -1.83341295e-01  5.04829466e-01  1.71926796e-01  9.60068703e-02
  -5.18040717e-01 -1.58130050e-01  4.77894582e-02  2.97144777e-03
   2.39661768e-01 -6.16263211e-01 -1.14406072e-01 -2.06776857e-01
   3.86110902e-01 -1.67883754e-01  9.71934795e-02 -4.14788514e-01
   3.90246511e-04 -2.09983205e-03 -7.14187771e-02  1.51880737e-02]
 [-3.22551429e-02  4.94940221e-01 -2.18237847e-01  3.70236844e-01
   1.53762132e-01 -2.54191101e-01 -3.22048187e-01 -1.91826448e-02
  -2.80772626e-01 -4.88330536e-02 -1.82751536e-01  5.94523409e-03
   2.43760049e-01  1.95726559e-01 -1.39921159e-01  8.46782625e-02
  -1.85647123e-02  2.49471039e-01  2.29100257e-01  4.83591616e-01
  -8.42350662e-01  6.48834854e-02 -3.78659248e-01  2.79952914e-01
  -1.47866070e-01  1.04011565e-01  5.80210209e-01  1.56538457e-01
  -7.31287301e-01 -1.43027484e-01 -5.71953543e-02  2.24026099e-01
   6.67328060e-01 -3.80127132e-03 -1.25457421e-01 -2.54071236e-01
  -1.95984289e-01 -9.71150994e-02 -3.09527069e-01 -1.71039626e-02
   4.95124489e-01  9.69931334e-02 -3.93112212e-01 -4.31600064e-02
  -2.02159017e-01 -5.18216752e-02 -2.39412338e-01  5.20007670e-01
   1.43720284e-02 -2.85206348e-01 -8.19047168e-02 -3.05250227e-01
  -6.56409934e-02 -4.27376896e-01 -9.86879468e-02 -1.67956203e-01
  -1.87691167e-01 -3.70575130e-01  5.08077502e-01 -4.84336726e-02
  -7.56984875e-02  1.80462226e-01  3.28348845e-01 -2.64945805e-01
  -2.98855156e-01  6.31005406e-01  5.89133799e-03 -1.15567684e+00
   4.82576728e-01  1.31615937e-01 -7.29142368e-01  2.01219857e-01
  -1.65453747e-01 -3.85639779e-02 -1.80207655e-01 -4.01082963e-01
  -2.64268219e-01  1.57890812e-01 -3.20592254e-01 -1.11746967e-01
  -3.55966866e-01  1.19709142e-01 -5.08988142e-01  4.24199134e-01
   4.07010376e-01 -4.20030765e-02 -4.60623540e-02  5.80053367e-02
   3.47092748e-01 -3.12356234e-01  5.07851660e-01  3.04269850e-01
   5.47360852e-02 -3.58558118e-01 -2.99266130e-01 -1.79624945e-01
  -7.06171691e-02 -9.76796821e-02 -4.75607477e-02 -5.49983159e-02
   1.14240587e-01  2.55001634e-01 -5.54849446e-01  4.68449891e-01
  -1.76018745e-01  2.19106376e-01 -3.37638035e-02  2.64023542e-01
   1.24671392e-01  2.05024660e-01  1.26154810e-01  2.48099506e-01
   9.11920518e-02  1.35040909e-01 -7.04064518e-02  4.33381528e-01
   2.71590203e-01 -1.52718663e-01 -4.85995978e-01 -2.32578203e-01
   6.96597457e-01 -3.04778010e-01  2.43654996e-01 -3.46902072e-01
   7.45604411e-02  4.08245742e-01 -6.44147769e-02  1.79890245e-01]
 [-7.24944100e-02 -1.53870314e-01 -6.50695026e-01  1.06047891e-01
  -2.83847898e-01  5.16305957e-03 -3.45937639e-01 -7.92289153e-02
  -2.35123914e-02 -1.09287001e-01 -8.67731199e-02 -1.31863773e-01
   3.02615166e-01  3.74593288e-01 -2.28774816e-01  9.23832953e-02
  -1.35340214e-01  2.86285937e-01  2.14389876e-01  2.68405408e-01
  -5.35375714e-01  4.38611880e-02 -6.17716610e-01 -3.83163273e-01
  -2.87796895e-04  7.21439049e-02  1.86482295e-01  3.47296521e-02
  -7.02262282e-01  1.25204697e-01 -5.52067757e-02  8.17169845e-02
   3.80724967e-01 -2.35921070e-02  1.39004394e-01 -4.40910384e-02
   2.14056313e-01 -1.17339991e-01 -1.11548148e-01  8.73291027e-03
  -2.15066001e-01  1.24326415e-01  2.78421491e-01  1.06162898e-01
   3.90765399e-01  4.42167908e-01 -7.87869245e-02  3.74685884e-01
  -2.79633272e-02  9.77400988e-02  6.08194135e-02 -1.63962409e-01
  -7.66352341e-02 -2.77378172e-01 -1.84569463e-01  3.92531455e-02
  -5.09553254e-01 -5.01421511e-01  1.06148450e-02  4.84871864e-02
   1.59183040e-01 -1.21050827e-01  1.35924712e-01  1.14765741e-01
  -4.94763464e-01  3.90991509e-01  4.10789132e-01 -4.39640731e-01
  -4.32456546e-02 -1.01048365e-01 -7.78475106e-02  3.98927748e-01
  -5.34895770e-02  3.94347131e-01 -6.95965290e-02 -1.06415257e-01
  -2.20125616e-01 -2.29892820e-01  3.87642652e-01  5.19284964e-01
   8.67210999e-02  2.66617965e-02 -3.56803954e-01  7.25240931e-02
   3.48321021e-01  1.79969482e-02 -1.99163213e-01  5.86931109e-01
  -2.76636779e-01  3.92275780e-01 -8.64368379e-02  6.22147098e-02
   9.87804607e-02  4.53085095e-01 -3.15173715e-01 -1.64762303e-01
  -7.14838132e-02  1.17614111e-02  3.12614813e-02 -3.60820591e-02
  -2.45921873e-02 -1.70723826e-01 -4.07931954e-01  7.00937957e-02
   1.69607729e-01  6.64099157e-02 -2.67068148e-01 -3.14755827e-01
  -3.22548509e-01 -2.37184614e-01 -1.80835761e-02 -4.57224362e-02
   2.62325257e-01  2.79532015e-01  4.37595509e-02 -7.50651062e-02
  -2.64478903e-02  3.73233795e-01 -1.57010928e-01 -2.21322566e-01
   1.38967991e-01  1.02928482e-01  2.60925349e-02  7.54208444e-03
   7.52845630e-02  4.34560597e-01  1.44795328e-02  2.69699804e-02]
 [-6.81221932e-02  3.21403295e-02 -3.91468585e-01  4.49123621e-01
  -5.05207442e-02  2.86729895e-02  1.70626700e-01  7.73619115e-03
  -5.58346331e-01  3.82495970e-01  6.98528230e-01  3.75022113e-01
   2.25095404e-03 -4.10320640e-01 -1.16830029e-01  1.27346488e-02
   1.39573365e-01 -8.71070921e-02  3.01695794e-01  2.08046734e-01
   8.38984370e-01 -1.13921726e+00  9.00938138e-02  8.82043445e-04
   2.28213847e-01 -2.91366547e-01 -1.03793189e-01 -4.12068903e-01
  -3.47857893e-01  7.84108508e-03 -1.98295653e-01 -1.63834438e-01
   4.86325413e-01  1.91164054e-02 -5.24358988e-01 -1.47814834e-02
  -3.12234879e-01 -7.62175500e-01 -8.35326910e-02  4.56858844e-01
   5.32986462e-01 -4.99022692e-01  1.51089340e-01 -2.61057705e-01
  -8.03203210e-02 -7.41713271e-02  3.24298777e-02  2.07330827e-02
  -8.10738429e-02 -7.45107114e-01  8.46606418e-02  2.94472963e-01
   5.59950843e-02 -1.84122592e-01 -1.50322691e-01  1.33886352e-01
   2.77240574e-01 -2.87959307e-01 -6.32764161e-01 -3.49007361e-02
   1.12843178e-01  1.43710867e-01 -7.19595030e-02 -4.03444976e-01
  -3.49171966e-01 -1.07327268e-01  1.06354380e+00 -6.40250966e-02
  -3.64512205e-02 -1.70097262e-01 -2.36637637e-01 -1.24375261e-01
   2.55189389e-01 -2.11411402e-01  6.58918977e-01 -1.56170130e-01
  -1.89318180e-01 -1.35653699e-02  2.64078110e-01 -2.65531242e-01
  -3.55933726e-01  1.74910411e-01 -3.56375337e-01 -2.69049436e-01
  -6.23804294e-02  7.72653446e-02  7.91705191e-01 -7.37871110e-01
  -4.31352705e-02  2.54637986e-01 -6.14247620e-01 -1.67339340e-01
  -4.99197364e-01  1.92778364e-01 -3.69788229e-01 -5.49533606e-01
   1.13822408e-02 -5.20898700e-01 -3.91939133e-02  7.65049681e-02
   2.15419948e-01  2.87489623e-01  7.70010471e-01 -1.74170181e-01
  -3.92654762e-02 -5.79848647e-01 -2.34603301e-01  3.08342904e-01
   3.64835501e-01  3.87696356e-01  2.21275333e-02 -4.01430249e-01
   1.97402269e-01  1.44639775e-01  1.19842868e-02  2.55036503e-01
   4.77830946e-01 -4.25209373e-01 -4.70825285e-01 -1.17319599e-01
  -1.10982455e-01  7.60944001e-03  1.36870861e-01  1.76008735e-02
  -3.83559316e-02 -1.54561222e-01 -7.95582533e-02 -5.36059327e-02]
 [-1.86660625e-02 -6.88366443e-02  1.86573733e-02  3.46005373e-02
  -3.02446157e-01 -5.22510037e-02  5.00746548e-01 -5.08433674e-03
  -8.01976979e-01  2.11417779e-01  4.54961330e-01  7.74436474e-01
   5.19928396e-01 -5.42824388e-01 -2.23792344e-01 -7.73491934e-02
   3.72150660e-01 -4.68059868e-01  6.39152467e-01  4.31564264e-02
   3.49693120e-01 -7.23241687e-01 -1.77149057e-01 -1.56122133e-01
   1.26952991e-01 -3.36968064e-01 -1.08627424e-01 -3.26456696e-01
  -4.22874480e-01 -5.52699640e-02  4.67260033e-01 -9.31524634e-02
   7.73851037e-01 -2.24136990e-02 -7.24661171e-01  6.24198355e-02
  -4.58714426e-01  1.22534567e-02  1.76548332e-01  6.79157555e-01
   2.65381396e-01  1.51609704e-02  8.35244805e-02 -3.74605879e-02
   1.21056162e-01 -4.73703951e-01  2.30716482e-01 -1.21649414e-01
  -4.17485163e-02 -3.90536308e-01  2.53552310e-02  6.96750581e-01
  -1.15191281e-01 -1.41625464e-01  4.26251084e-01  1.09643089e-02
   1.82830453e-01 -6.16999567e-01 -1.03825390e+00  2.84495056e-02
  -8.55215415e-02  2.67554730e-01 -1.01833835e-01 -5.22156358e-01
  -2.14374453e-01  8.33772197e-02  4.27085668e-01  1.57312490e-02
   1.26894629e-02  7.24182948e-02 -1.25336442e-02 -3.20766538e-01
   4.94632244e-01 -2.22891957e-01  2.68937320e-01 -2.33502194e-01
  -1.18199527e-01  3.53697777e-01  5.19905984e-01 -4.97707099e-01
  -1.52787417e-01 -1.53451920e-01 -7.63976097e-01 -1.08730517e-01
   5.19627072e-02 -1.37046054e-02  5.16692758e-01 -5.03089011e-01
   3.39802131e-02  2.21071944e-01 -1.07940055e-01 -1.52705207e-01
  -1.74123600e-01  8.95021036e-02  7.25792199e-02 -2.05156535e-01
  -1.02143563e-01 -5.05995572e-01 -2.69960444e-02  2.75339708e-02
   1.76950037e-01  6.06709063e-01  9.29950297e-01 -3.21885645e-01
  -2.68972754e-01 -4.11775440e-01 -2.22187713e-02  1.09474823e-01
   2.23486200e-01  6.55583680e-01 -1.30320387e-02 -5.64972341e-01
  -1.22281574e-01  1.14925712e-01 -9.33160037e-02  2.14218527e-01
   3.76849949e-01 -2.40639597e-01 -2.74247885e-01 -1.04277603e-01
  -6.46732301e-02 -1.06010422e-01  6.05549626e-02 -2.21952215e-01
   6.47851303e-02 -4.15797055e-01 -3.75127234e-02  2.90982351e-02]
 [ 7.81372711e-02 -3.50061268e-01 -2.67876327e-01 -5.15130103e-01
  -1.05244839e+00  5.06980538e-01  4.52720612e-01 -8.55452009e-03
  -1.76854402e-01  1.39159992e-01  2.98305064e-01 -3.74870747e-01
   6.85542300e-02 -8.98260057e-01 -1.63345292e-01 -1.16678346e-02
  -1.61795095e-01 -4.19492155e-01  9.11384284e-01 -4.74862754e-02
   8.43861550e-02 -7.59133816e-01  4.64907825e-01 -4.81525242e-01
  -4.31918018e-02 -1.98098719e-01 -4.39872563e-01 -1.58199206e-01
  -4.40341860e-01  6.58815447e-03  7.89869010e-01 -5.08398235e-01
   8.61942589e-01 -3.01564559e-02  3.05371940e-01 -4.48156744e-02
   4.48082872e-02  3.97584796e-01 -1.78540558e-01  6.74312949e-01
  -6.12152554e-02  2.18102366e-01  4.29433852e-01 -3.64521779e-02
   4.91827011e-01 -5.99592209e-01  2.14421853e-01  5.71275711e-01
  -2.69749388e-02  3.84359986e-01 -1.48994150e-02  8.30405772e-01
   3.24779332e-01 -1.26362950e-01  5.31183146e-02  4.68898743e-01
  -1.03986673e-01 -3.58951092e-01 -6.90133929e-01  2.59315688e-03
  -1.17911257e-01 -8.69414061e-02  3.64268392e-01 -1.19986892e+00
   5.30581057e-01  3.10803026e-01  3.53645422e-02  6.89539075e-01
  -2.81781763e-01 -5.71458973e-02  3.65940750e-01 -4.46799785e-01
   4.54494268e-01  7.06709921e-01  5.11291400e-02 -1.18879676e-01
  -3.68547529e-01  6.94691896e-01 -4.41038124e-02 -8.22916925e-01
   2.36874923e-01 -4.93884593e-01 -9.60115671e-01 -2.03517675e-01
   2.56089091e-01 -5.93379103e-02  3.70948553e-01  1.39245108e-01
  -3.17032546e-01  4.12785918e-01 -1.15481503e-01 -3.16163749e-01
   7.03759640e-02  4.15153384e-01 -3.62824388e-02  1.12702049e-01
  -8.62220451e-02 -6.67874813e-01 -5.82605481e-01 -2.49999259e-02
  -2.47263074e-01 -6.17142320e-02  5.96637964e-01 -3.89992118e-01
  -3.92154604e-01 -9.67140198e-02  9.78775546e-02 -1.93747893e-01
  -6.71529710e-01  3.64894509e-01 -6.86872751e-02 -6.50311649e-01
   2.45325603e-02 -2.70500541e-01  3.74972858e-02 -6.63994372e-01
  -1.52330726e-01  1.26667365e-01 -3.20298314e-01 -2.72155106e-01
   2.35020757e-01  2.87869245e-01 -9.17757750e-01 -3.88162613e-01
  -3.68430726e-02 -8.10877085e-01 -1.23987496e-02  1.48092225e-01]
 [-7.65546635e-02 -1.94019660e-01 -2.83766478e-01 -2.62013108e-01
  -7.40613937e-01 -3.48174900e-01 -6.38599694e-02  1.22901080e-02
  -1.54145956e-01 -4.12841111e-01 -1.17071725e-01 -9.00676727e-01
   1.70750812e-01 -7.69787669e-01 -4.26682979e-01  4.46929298e-02
  -2.63032019e-01 -9.56930220e-02  4.38561857e-01  7.54173398e-01
   6.62477762e-02 -2.79673100e-01  7.41790712e-01  2.85843760e-01
   2.73274720e-01  2.06607312e-01 -5.38574755e-02 -4.69752960e-02
  -2.25088090e-01  7.82498941e-02  5.13101339e-01 -3.84341180e-02
   6.63219988e-01  7.49759451e-02  4.46194708e-02 -4.19077069e-01
  -6.97821751e-02  5.86125478e-02 -4.99170721e-01  6.09669149e-01
   4.65236634e-01  5.90129614e-01  3.40500116e-01 -5.89115396e-02
   3.87719512e-01 -4.09458965e-01  1.11058004e-01  4.10951883e-01
  -6.16173297e-02  1.33562535e-01  5.50337732e-02  2.77751148e-01
   8.34939122e-01 -1.46821633e-01 -3.32797050e-01  2.63013512e-01
  -7.21526921e-01 -1.46087661e-01 -5.27339503e-02  2.65455656e-02
  -2.88949698e-01 -1.48863673e-01  2.82391608e-01 -3.54482263e-01
   1.82097077e-01  6.44077808e-02  1.99448854e-01  7.24708200e-01
   1.24815166e-01 -4.67198640e-01  3.06977451e-01 -3.40348810e-01
  -6.94235861e-02  5.78625381e-01  3.34150046e-01 -1.72687888e-01
  -4.41372454e-01  1.06056488e+00  5.57807684e-02 -6.16690993e-01
   1.74851701e-01 -2.59804517e-01 -8.01469088e-01 -2.06985682e-01
  -4.78995264e-01  6.53547868e-02 -6.84813736e-03  5.30957758e-01
  -5.44430792e-01  4.25684452e-01  4.41160277e-02 -2.85165627e-02
   5.31198144e-01  4.38127995e-01  4.97852921e-01 -1.45454749e-01
  -1.24461368e-01 -9.31937993e-01 -3.48334432e-01  7.26441219e-02
  -1.67908818e-01  2.31472969e-01  1.65481180e-01 -2.73087084e-01
  -5.10176003e-01  4.92236733e-01  2.44079307e-02  5.34343660e-01
  -8.02012682e-01  4.35768962e-01  6.95106164e-02 -4.97203469e-01
   2.15591602e-02 -6.47750556e-01  8.10027495e-02 -1.78193048e-01
   3.99109334e-01  9.94709507e-02  1.77021548e-01 -1.36390507e+00
   1.58890650e-01 -3.54351737e-02 -1.04712749e+00 -2.00561345e-01
   5.54745942e-02 -4.87191021e-01  8.75055790e-03  3.44884470e-02]
 [ 7.41915628e-02  4.26821262e-01  4.90330398e-01 -3.20580661e-01
   2.12613732e-01 -1.64676815e-01 -4.96158987e-01 -1.07780039e-01
   1.94119766e-01 -4.13869709e-01 -2.46370032e-01 -4.88688171e-01
  -2.65852213e-01 -1.62989482e-01 -5.30504942e-01 -4.64238971e-02
  -1.11788884e-01  3.72618549e-02  9.78084281e-02  4.55512077e-01
   4.62328613e-01 -2.27215305e-01 -1.40938729e-01  6.45520508e-01
  -1.08648334e-02 -1.60865888e-01  4.67897207e-01  1.10517658e-01
   2.07775965e-01  4.38918248e-02  1.55077115e-01  5.14068544e-01
  -3.08688022e-02 -2.88670510e-03  2.49825746e-01 -4.60622340e-01
  -1.44757837e-01  2.21632600e-01 -2.98197240e-01  9.79289562e-02
   2.94384629e-01 -5.91371842e-02 -8.36767033e-02 -4.50551361e-01
  -1.81062222e-01  2.40677625e-01  6.70073479e-02 -2.38831803e-01
  -8.59786794e-02 -2.47510716e-01 -5.57545349e-02 -2.33760867e-02
   4.36316341e-01 -2.48068556e-01 -1.25641763e-01  4.05804694e-01
  -4.90214556e-01 -2.20951706e-01  4.36882794e-01  4.35530320e-02
  -1.84827551e-01 -2.94660151e-01  2.46181682e-01 -9.47980657e-02
  -2.72055477e-01  1.20996997e-01  2.52226144e-01  2.98672587e-01
   5.08303881e-01 -2.38834918e-02  2.78255939e-01 -2.69229978e-01
  -3.57207924e-01  2.50176907e-01  3.20839107e-01  2.58663408e-02
  -4.21078116e-01  4.09830630e-01 -2.33435541e-01  2.08238706e-01
  -3.05859268e-01  3.86514127e-01 -6.37503922e-01 -3.19270074e-01
  -8.07529628e-01 -5.44490106e-02 -2.17106730e-01  1.82032123e-01
  -1.13349780e-02 -2.89282620e-01 -1.46752689e-02  2.49376506e-01
   5.68637431e-01  1.62724793e-01 -2.96388954e-01 -2.84913450e-01
  -6.88487291e-02 -1.10934436e+00 -6.96087852e-02 -4.86533530e-02
  -4.34747189e-02  1.10888861e-01 -1.54856250e-01  6.03858352e-01
  -2.00707000e-02  2.92242736e-01  1.28277496e-01  3.17382991e-01
  -3.05958152e-01 -1.37003943e-01 -1.16208129e-01  1.45275280e-01
  -2.11699530e-01 -7.18622506e-01 -4.80793118e-02  6.01076521e-02
   5.08348823e-01  4.04771298e-01 -2.59820610e-01 -5.23961723e-01
   2.08243221e-01 -3.02410632e-01  8.35102126e-02 -2.80011743e-01
   2.28307415e-02  3.97496730e-01  6.96255192e-02  5.36886193e-02]
 [-3.19734998e-02  3.21820915e-01  4.48989093e-01 -1.78601980e-01
   7.21041918e-01  1.38906300e-01 -3.80189270e-01  6.58938810e-02
  -7.68681318e-02 -5.20985544e-01  2.08120331e-01  4.26296927e-02
   4.68551740e-02  1.13299377e-01 -4.25579280e-01 -3.00663393e-02
  -2.74864018e-01  9.23988670e-02 -3.09576634e-02 -1.26120314e-01
   7.32148826e-01 -7.84485191e-02 -6.06730640e-01  8.89200568e-01
   3.16962004e-01 -3.36576283e-01  1.45622343e-01 -1.29031211e-01
   1.74664125e-01 -4.06994805e-04 -1.23754481e-03  3.05794448e-01
  -2.10392192e-01 -5.37067503e-02 -1.76088765e-01 -1.90477937e-01
  -2.71492064e-01  7.87724033e-02 -1.13925561e-01 -9.40101035e-03
  -4.03285444e-01  1.19084857e-01 -3.52084368e-01 -1.04645610e+00
  -6.28850311e-02  2.57527560e-01  1.82231128e-01 -2.95105368e-01
  -8.22832063e-03  3.11280396e-02  1.95405167e-02 -1.59339726e-01
   2.11438127e-02 -3.75308283e-02  1.43996119e-01  2.93088913e-01
  -1.47643164e-01 -2.86271036e-01  1.09685004e-01  5.78199029e-02
  -1.03517503e-01 -7.22853005e-01  1.31861955e-01 -6.58602715e-01
  -3.97855699e-01 -1.84611142e-01 -1.55020699e-01 -6.06782809e-02
   3.37990373e-01 -2.72844709e-03 -1.65364102e-01 -3.47155449e-03
  -1.37554914e-01  1.13016777e-01 -6.54722154e-02 -2.33129203e-01
  -3.75754237e-01  2.23636150e-01  4.54809554e-02  7.74885900e-03
  -2.73539156e-01  1.49664670e-01 -6.56629443e-01  4.63577747e-01
  -7.75983393e-01  5.54452650e-02  6.94220215e-02 -3.18880416e-02
   1.81027189e-01 -5.96670091e-01 -9.45922136e-02  2.40641326e-01
   3.79018724e-01 -5.53943701e-02 -1.98618025e-01 -9.43705559e-01
   3.02657876e-02 -2.84786820e-01  3.40826362e-01  4.85163331e-02
  -9.92675796e-02  2.32275143e-01 -6.71160996e-01  4.05512393e-01
  -9.80020761e-02  3.55434090e-01  6.82985723e-01 -2.45165452e-01
  -3.08157593e-01  9.47764665e-02 -4.17359442e-01 -2.31235668e-01
  -2.87173063e-01 -6.47841692e-01 -4.59773280e-02  1.90985445e-02
   4.03295845e-01  2.43816912e-01 -2.30958462e-02  2.52326965e-01
   3.67470175e-01 -2.32805938e-01  2.42070332e-01 -1.61557332e-01
  -6.09639026e-02  3.04756194e-01  2.82089263e-02 -2.51388010e-02]
 [-8.00755322e-02  2.55118817e-01  3.80411327e-01  4.79703061e-02
   4.70414013e-01 -3.47120345e-01 -8.34943950e-01  5.59271872e-02
  -2.54598737e-01 -6.39773905e-01  5.90785027e-01 -1.93926200e-01
   7.11182892e-01 -4.50854510e-01  1.74023643e-01  2.70521864e-02
   4.95601416e-01  8.74915645e-02  3.40106815e-01 -6.19433112e-02
   4.28678036e-01  7.44980201e-02 -5.94207719e-02  7.43693411e-01
   8.20665598e-01  1.56788796e-01  1.45687128e-03 -6.76316142e-01
   1.85217872e-01  4.48322743e-01 -1.98323190e-01 -6.45597696e-01
  -4.04664278e-02 -8.98291916e-02 -3.32617074e-01 -2.23273456e-01
  -4.25851196e-01 -5.64119458e-01 -4.44189101e-01 -3.50014329e-01
  -5.84348559e-01  2.29900464e-01  4.72586304e-01 -1.08596277e+00
  -6.19073272e-01 -5.66063881e-01 -8.23349282e-02  1.46283582e-01
  -3.12977023e-02  3.83679807e-01 -4.26363423e-02  8.66072625e-02
   2.67156005e-01 -3.02797817e-02  4.78597075e-01  5.52127540e-01
  -4.45108503e-01  1.05779469e-01  6.90921862e-03 -3.91326249e-02
  -1.92095056e-01 -1.04955006e+00  2.89441377e-01 -1.80144742e-01
  -2.74684787e-01 -6.56988561e-01  1.94675833e-01  3.97613466e-01
   4.42304134e-01  7.66124427e-02 -6.42685235e-01  3.60519141e-01
  -5.59955299e-01 -7.05869570e-02 -5.49767055e-02  1.76877916e-01
  -2.55812079e-01  1.59646213e-01  5.57896435e-01 -6.68380082e-01
  -3.46657783e-02 -4.63622883e-02 -3.99100870e-01 -3.85812484e-02
  -5.95428467e-01  2.85066590e-02  1.80480912e-01 -1.45164520e-01
   2.40062252e-01  9.20803752e-03  2.29057446e-01  3.80348027e-01
  -2.56340563e-01 -3.46994907e-01 -2.48563305e-01 -4.12824720e-01
  -1.27860785e-01 -1.62522629e-01  5.89669824e-01  2.36677974e-02
  -8.14353466e-01  1.59736171e-01 -1.64388716e+00 -3.21193963e-01
   1.06386229e-01  5.74990392e-01  1.06012940e+00 -8.27158868e-01
  -6.74763858e-01  7.74201214e-01 -4.02076393e-01 -7.68179774e-01
  -2.01547876e-01 -2.15343088e-01 -1.75249338e-01  5.04316449e-01
   2.38786310e-01  3.18156809e-01 -1.01737007e-01  5.24439253e-02
   2.30661720e-01  1.68025926e-01 -1.10258371e-01  7.65597075e-02
  -9.21763852e-03 -3.65277976e-01 -6.55515194e-02  5.91426641e-02]
 [-4.85739596e-02  3.51672083e-01 -5.35012148e-02 -1.45243317e-01
   3.00064981e-01 -2.08498940e-01 -4.75797296e-01 -1.58366058e-02
   3.46581161e-01 -4.01086003e-01  3.38242352e-01  3.31754833e-01
   2.44600192e-01 -9.18251723e-02  3.80576998e-01  6.98684668e-03
   6.53577566e-01 -1.25213787e-01  2.36480266e-01 -4.76846211e-02
   2.84409255e-01  1.99351404e-02 -1.68022856e-01 -3.42834860e-01
   5.10088265e-01  5.81853390e-01 -5.13940930e-01 -5.84500313e-01
   1.44006804e-01  5.51530302e-01  3.99539359e-02 -4.16373461e-01
   2.51135975e-01 -1.57332253e-02  5.34151979e-02  1.42703094e-02
   2.44746218e-03 -6.26459837e-01 -1.59259453e-01 -2.46691793e-01
  -1.46600202e-01  2.40134880e-01  1.71875969e-01 -2.26779655e-01
  -2.46802866e-01 -3.12606484e-01 -3.11232299e-01  4.45600301e-02
   3.59448791e-02  4.57174815e-02 -4.02864888e-02  5.11002541e-02
   4.93990332e-01 -1.96896777e-01  5.07141873e-02  1.33414537e-01
   2.09069341e-01 -7.97976330e-02  2.60124803e-01  2.37817951e-02
  -6.98103070e-01  1.22222215e-01  3.29227686e-01 -5.48338220e-02
  -1.95504427e-01  1.93703026e-01  2.01497748e-01 -1.94357075e-02
  -2.68270448e-02  4.27558661e-01 -3.93490821e-01  5.54152191e-01
  -4.93410438e-01 -1.14792630e-01  2.33186185e-01  3.32763106e-01
  -3.67648783e-04 -5.97041398e-02  2.04452157e-01  1.90422967e-01
   3.11948389e-01 -3.59352939e-02 -1.57925248e-01  1.71390679e-02
  -2.36143410e-01 -7.79475719e-02  4.32330608e-01  7.71015330e-05
   1.81397364e-01  1.10583410e-01  1.89453289e-01  4.72398400e-02
  -8.06267858e-01 -1.74872950e-01 -1.75921358e-02 -2.26083636e-01
  -1.05021305e-01 -2.12266654e-01  5.93235731e-01  5.25354221e-02
  -1.55817568e-01 -2.70327449e-01  2.52377428e-02 -2.30859574e-02
   2.59698834e-02 -2.27832571e-01  2.33017191e-01 -4.77748476e-02
  -1.11572005e-01  3.46412927e-01 -4.95157242e-01 -2.16435671e-01
   1.64485618e-01  3.52457911e-01 -1.80762991e-01  2.39468977e-01
  -1.99206248e-01  3.96982014e-01 -2.54246732e-03 -7.65804155e-03
   3.24436903e-01  7.27176890e-02  1.86039388e-01 -2.04775319e-01
  -5.69410389e-03 -3.77596170e-01  2.73077674e-02  4.38431874e-02]
 [ 3.31468880e-02  7.74753932e-03  9.73054096e-02 -8.89007747e-02
   4.14768308e-01  2.06802621e-01 -8.04596692e-02  9.91835818e-03
   1.40039539e-02 -2.41837591e-01 -2.92337298e-01  2.68195987e-01
   2.92577408e-02  6.29997730e-01  2.36650512e-01 -1.25499085e-01
   3.14467430e-01 -1.93017036e-01  1.90137625e-01 -8.15199494e-01
  -2.07130671e-01 -2.20479071e-01  3.14393826e-02 -1.60978839e-01
  -2.99747549e-02  4.71356362e-01 -5.34087360e-01 -1.83591191e-02
   1.05860360e-01  8.59360471e-02  4.93244469e-01 -1.00664191e-01
   5.99555708e-02 -1.23903461e-01 -3.76287192e-01  3.33324045e-01
   2.26351082e-01 -1.01143241e+00  4.80022758e-01 -4.81028199e-01
  -3.21738049e-02 -1.63556710e-02 -4.67977166e-01 -2.00071499e-01
   2.24468246e-01 -1.17380686e-01 -1.99746892e-01 -9.24503878e-02
  -8.84525925e-02 -5.35412014e-01 -1.41628673e-02  3.42550248e-01
   1.84936449e-01  1.12767383e-01 -3.80641311e-01 -4.71442014e-01
   2.30492324e-01 -2.17580810e-01 -6.86749592e-02 -6.70038238e-02
  -5.78029215e-01  4.57978696e-01 -2.37065956e-01  1.45813033e-01
   1.66058585e-01  1.57002285e-01 -9.34613422e-02 -2.48635888e-01
  -9.48930264e-01  2.29844600e-01 -1.48831001e-02  2.74418116e-01
  -4.45753455e-01 -5.72928190e-01  6.52508080e-01  4.75248605e-01
  -1.00379497e-01 -1.35348022e-01 -2.21779980e-02  8.05783644e-02
   5.63826272e-03  5.96072106e-03  2.69430876e-01  3.57122511e-01
   2.68924296e-01  5.31890355e-02  4.92753774e-01 -3.24087709e-01
  -6.04977906e-01  2.19560295e-01 -2.47050256e-01 -6.00168884e-01
  -8.91759396e-01 -3.12011212e-01  3.29480350e-01 -3.63843560e-01
  -9.30435807e-02 -1.46536455e-01 -2.76028693e-01 -7.72011420e-03
   3.40104014e-01 -3.27811033e-01  8.85233998e-01  1.56079665e-01
   2.08624035e-01 -8.59408975e-01 -1.01889275e-01 -6.47859648e-02
   4.02626067e-01  1.31276935e-01 -8.35602403e-01 -2.36795336e-01
   2.43726894e-01  3.39796364e-01 -1.32852241e-01 -3.00635189e-01
  -2.29558542e-01 -1.25873676e-02  2.93463290e-01 -5.78035899e-02
   1.14425711e-01  3.63418758e-02  1.58751801e-01 -2.06457570e-01
  -5.95382135e-03  4.38541844e-02  7.42150992e-02  1.77066699e-02]
 [-4.55738567e-02  2.72389919e-01 -9.95974708e-03  9.14694443e-02
   8.26900154e-02  7.79100657e-01 -2.02504903e-01  3.29734646e-02
  -1.74861178e-01  2.05202520e-01 -3.78319055e-01 -1.62988564e-03
  -5.01651108e-01  3.52684885e-01 -1.01827234e-01 -1.37483314e-01
   1.75643012e-01 -2.54371136e-01 -3.15609992e-01 -7.18766212e-01
   1.23974212e-01  2.27640882e-01  2.82883167e-01 -4.56588298e-01
   1.45422846e-01  1.43649444e-01 -5.74471116e-01  2.43880183e-01
   1.27720237e-01  1.69287294e-01  1.19542576e-01 -3.68240774e-01
   3.46957922e-01 -1.32165074e-01 -5.02219617e-01  1.36612132e-01
   3.64609152e-01 -8.12670231e-01  6.48335516e-01  1.16251551e-01
  -1.16907410e-01 -1.44665673e-01 -1.46676555e-01  1.73920050e-01
   2.03826100e-01 -3.46846208e-02 -1.55285627e-01 -2.56732870e-02
  -1.25887841e-01 -9.68885839e-01  1.93603337e-02  2.04289872e-02
  -4.78089750e-02 -1.67860657e-01  1.82105359e-02  8.94762948e-02
   5.15492141e-01  1.42288446e-01 -1.89678833e-01  1.00831324e-02
  -4.46012527e-01  4.71295953e-01 -4.41584550e-02  2.61060838e-02
   3.76310974e-01  3.53169858e-01  3.96647096e-01 -3.32092308e-02
  -1.39805400e+00  2.32705832e-01  3.45310360e-01  2.75373638e-01
  -2.32351664e-02 -5.82206786e-01  3.83884937e-01 -7.28239417e-02
  -2.25685045e-01  2.99167991e-01 -2.99868137e-01  2.07068156e-02
  -2.55947351e-01 -6.82120919e-02  1.60947099e-01 -4.40165490e-01
  -4.49431747e-01  1.47193344e-02  6.51300073e-01 -1.06958404e-01
  -1.12626696e+00  5.53040206e-01 -1.08522618e+00 -4.41666454e-01
  -8.75065625e-01 -3.62959579e-02  4.47650492e-01  1.73199371e-01
   4.27026451e-02 -4.91265744e-01 -4.99110967e-01 -5.18531762e-02
   3.08243223e-02 -4.25848603e-01  3.52660388e-01  4.97832239e-01
  -3.44532996e-01 -1.19418585e+00  3.09116542e-01 -2.27172524e-01
   3.41795206e-01 -5.58067799e-01 -1.17524469e+00 -5.75590180e-03
   2.60998815e-01 -1.94878262e-02  1.84047148e-01 -5.23276806e-01
   1.18571244e-01  3.30220520e-01  5.53109288e-01  8.61439049e-01
  -1.79273561e-01  3.76374841e-01  8.48744810e-02  2.99212426e-01
   3.59465554e-02  5.88981993e-02  8.16954672e-02  7.43470490e-02]
 [ 5.26963249e-02  3.50207388e-01 -1.83298364e-02 -2.72300214e-01
   6.39586821e-02  7.67449141e-01 -1.69339001e-01 -8.15887228e-02
   6.60659522e-02  8.78044497e-03 -4.23147798e-01  1.38467640e-01
  -6.97288036e-01  2.87298441e-01 -1.79770440e-01 -8.46630260e-02
   6.95911348e-02 -6.31969646e-02 -5.87478697e-01 -4.79862034e-01
   3.25078160e-01  5.19193113e-01  1.55648381e-01 -7.16500401e-01
  -6.50912747e-02  1.48065582e-01 -2.88733184e-01  2.84630626e-01
   2.01031834e-01  1.61722437e-01 -8.31380039e-02 -2.30273142e-01
   3.66320968e-01 -4.34323922e-02 -3.65257442e-01  7.16601359e-03
   5.56070745e-01 -5.04609883e-01  4.97042447e-01  7.36340601e-03
  -2.91455444e-02 -2.27213725e-01  2.35403404e-02  3.73133779e-01
   1.58197090e-01 -2.45016310e-02 -3.12368959e-01 -1.15319937e-02
  -1.94704935e-01 -8.89336348e-01 -2.92824395e-02  2.26037558e-02
   1.52909523e-03 -1.43842772e-01  6.42642006e-02 -5.60127851e-03
   2.15901509e-01  3.62857282e-01 -1.19179627e-02 -7.55019188e-02
  -1.48090303e-01  4.36167479e-01 -1.53878465e-01 -2.40414873e-01
   1.47723734e-01  2.10842565e-01  2.40428001e-01  6.84714392e-02
  -1.38773274e+00  4.28190619e-01  5.69002092e-01  3.39842439e-01
   5.59352338e-01 -4.25070524e-01  3.18298042e-01  1.78255871e-01
   2.69733876e-01  1.77408144e-01 -2.64203727e-01  2.81793237e-01
  -1.16838545e-01 -9.80853364e-02  2.31929626e-02 -7.15064526e-01
  -5.06376028e-01 -7.78453946e-02  2.87921965e-01 -2.22469106e-01
  -8.97618890e-01  2.93948650e-01 -1.06431472e+00 -4.46221083e-01
  -9.66002882e-01  1.59174055e-01  2.43934184e-01  6.31649077e-01
  -8.29542577e-02 -3.36076587e-01 -2.24409804e-01 -3.57810445e-02
  -1.21438116e-01 -2.28344768e-01  3.35851640e-01  6.05302274e-01
  -1.81666806e-01 -9.11421835e-01  3.38403910e-01 -1.59382775e-01
   9.13609415e-02 -8.65487754e-01 -1.15911007e+00  6.50944039e-02
   2.23973975e-01  7.71351084e-02  6.23585023e-02 -4.96395260e-01
   6.79239035e-02  5.85329354e-01  7.39390850e-01  7.16354132e-01
  -1.20414428e-01  4.25850183e-01 -2.17487477e-02  3.46703172e-01
  -5.08561246e-02  1.89766720e-01  3.83485481e-02 -5.77672124e-02]
 [ 4.96752635e-02  4.22402650e-01 -1.78422093e-01  9.59767923e-02
   1.34285852e-01  6.32371426e-01  2.67857555e-02 -1.05169922e-01
   1.11860454e-01 -4.59609367e-02 -1.86110333e-01  4.92668748e-01
  -1.74456596e-01  3.97332221e-01  3.43151122e-01 -9.13649127e-02
  -7.96363503e-02 -1.09522408e-02  7.93386176e-02 -5.96101940e-01
  -1.75717920e-01  7.45748803e-02  1.18444651e-01 -3.57163578e-01
  -9.75658000e-02  1.72428191e-01 -4.99084920e-01  4.39864278e-01
   1.85941577e-01  2.35214382e-02  4.69807312e-02 -1.99391887e-01
   3.14456642e-01 -4.22414280e-02 -3.93051833e-01  3.58027786e-01
   1.31346583e-01 -6.76667154e-01  4.84556973e-01 -2.16086492e-01
  -9.91611630e-02 -1.58682168e-01 -1.45798083e-02 -4.27993573e-02
   1.69057682e-01 -1.81490764e-01 -3.39049101e-01  1.36699146e-02
  -1.50737673e-01 -3.82285625e-01 -6.85709789e-02  1.26874864e-01
   9.09858197e-02  5.42508960e-02  7.73330592e-03 -1.82749450e-01
   3.11794162e-01  2.61950612e-01  1.07480146e-01 -8.22241651e-04
  -2.97166795e-01  5.11986136e-01 -7.83706009e-02 -2.65163839e-01
   2.01099709e-01  3.35812002e-01  1.85161561e-01 -1.51685312e-01
  -9.95325327e-01  2.59450346e-01  4.26093400e-01  4.12667431e-02
  -2.47033268e-01 -4.33256537e-01  5.17947495e-01  3.08436960e-01
   1.69431239e-01  2.42093608e-01 -2.32870746e-02  1.49203420e-01
   1.99012384e-02  2.32752953e-02  4.16841984e-01 -1.63669065e-02
  -1.94877669e-01  2.78300848e-02  3.58649462e-01 -1.86748102e-01
  -8.62436831e-01  1.87908217e-01 -6.35024011e-01 -4.68079954e-01
  -5.38937330e-01 -2.24290445e-01  4.51952189e-01  3.63622993e-01
  -6.61759172e-04 -2.03442290e-01 -1.11356422e-01  3.67807932e-02
   3.68003964e-01 -4.00475711e-01  7.46036887e-01  3.07847857e-01
  -2.86275536e-01 -8.10699403e-01  2.45326549e-01 -9.05060694e-02
   5.18368781e-01 -1.85569450e-01 -1.08331442e+00 -1.09186940e-01
   2.91228712e-01  5.52132726e-04  1.41113237e-01 -4.90144759e-01
  -9.02310088e-02  3.11014801e-01  5.52477598e-01 -1.10009223e-01
  -2.97526885e-02  6.56171739e-02  3.83445644e-04  4.80761491e-02
  -2.60599088e-02  7.38673881e-02  2.41396669e-02 -2.69110184e-02]
 [ 6.77444115e-02  4.46121871e-01 -2.20710546e-01 -1.26604408e-01
   3.05359721e-01  1.31469429e-01 -5.72396517e-01  1.47525650e-02
   2.53109246e-01 -1.90359145e-01  3.85602027e-01 -8.62987339e-02
   3.38504344e-01  1.90398186e-01  4.49158132e-01  8.05482417e-02
   8.74236673e-02  4.82013337e-02  3.18674058e-01 -1.80624187e-01
  -1.71182737e-01  3.36943209e-01 -2.75433242e-01 -1.59809172e-01
   3.53538573e-01  7.61500478e-01 -2.68160194e-01  1.66161060e-01
  -2.00943984e-02  5.84371090e-01  1.58382416e-01 -4.40105706e-01
   5.15917957e-01 -9.06796008e-02  3.08388919e-01  1.30617306e-01
   3.91250610e-01 -7.00628161e-01 -1.57000050e-01 -8.56842324e-02
  -1.63738117e-01  2.86087155e-01  2.31083721e-01 -8.43314081e-02
  -1.18672565e-01 -2.61548281e-01 -4.03863221e-01  4.41448167e-02
  -3.56684439e-02  2.00878337e-01 -3.53848897e-02 -1.34244263e-01
   1.73239276e-01 -1.40316173e-01  9.79964882e-02  2.27637619e-01
   1.09414190e-01 -8.90754610e-02  4.99512613e-01  5.11138812e-02
  -3.15879703e-01  3.49777788e-01  2.74437696e-01 -2.31796399e-01
   5.30302934e-02  3.66346508e-01  5.26451916e-02  1.04498282e-01
   1.50092065e-01  5.17682172e-02  1.58242062e-01  4.31441605e-01
  -6.29024446e-01  1.49451241e-01  2.97576010e-01  9.01248872e-01
  -4.57065552e-02  3.78426760e-01  2.38552429e-02 -6.73602894e-02
   1.48322120e-01 -7.09999213e-03  7.36461505e-02  3.83004874e-01
  -2.26870835e-01  5.65288551e-02  1.96686372e-01  3.16740453e-01
  -1.01474606e-01  1.64439917e-01  2.08910391e-01 -2.98831940e-01
  -4.72466081e-01 -4.01724875e-01  2.52750386e-02 -8.18801671e-02
   5.87437674e-02  3.96072865e-02  3.70157719e-01 -4.46892083e-02
   1.04876809e-01 -1.03155918e-01  2.54798889e-01 -1.65434349e-02
  -2.07556084e-01 -1.29116774e-01  4.22708690e-01  9.33143571e-02
  -8.55255574e-02  1.20940670e-01 -7.98870027e-01 -1.23171441e-01
   1.87229738e-01  1.67109638e-01 -5.35911545e-02 -4.43946064e-01
   1.25707751e-02  2.48777181e-01 -2.22760767e-01 -2.15936825e-01
   5.50427020e-01  2.41370082e-01 -4.18407857e-01  7.29459152e-02
  -7.72747910e-03 -2.73673266e-01  7.69307390e-02 -1.65345799e-02]
 [ 7.10778311e-02  3.01140308e-01  2.78000027e-01  1.29221246e-01
   3.39964092e-01  3.24310325e-02 -4.25493121e-01 -5.52786402e-02
   3.03447336e-01 -7.22245201e-02  6.21284962e-01 -2.76257008e-01
   5.89761078e-01  2.40728743e-02  4.11716729e-01  1.26185805e-01
  -1.23762451e-02  3.21683183e-05  3.93541902e-01 -2.24629089e-01
   2.09678009e-01  2.59319991e-01 -2.83648935e-03  2.42037222e-01
   4.11784917e-01  3.95926476e-01 -1.20892435e-01 -5.94960093e-01
   1.61103718e-02  4.13454771e-01  1.12137198e-01 -9.42206740e-01
   1.96672082e-01  1.19490083e-02  2.30672546e-02 -2.03548715e-01
   1.93397850e-01 -3.34502935e-01  2.42205933e-01 -1.12922899e-01
  -2.71996349e-01  1.42058030e-01  3.22093874e-01 -7.31393874e-01
  -3.93415570e-01 -6.85044765e-01 -5.33270538e-01  2.06404611e-01
  -8.40938911e-02  4.14423704e-01  5.45946732e-02 -1.76832005e-01
   1.20203346e-01  2.07795620e-01  3.34000647e-01  2.05917004e-02
   8.26596692e-02 -3.47078107e-02  3.12038779e-01 -1.74327809e-02
   6.30532280e-02 -5.03581703e-01  2.12928057e-01 -1.26318082e-01
   2.84806669e-01 -7.89595991e-02 -2.73321606e-02  4.98354226e-01
   6.40321910e-01  4.14374378e-03 -3.15623015e-01  4.23134029e-01
  -2.19674975e-01  5.28767668e-02 -1.52720347e-01  6.40036047e-01
  -9.63450782e-03 -1.10460341e-01 -9.41730849e-03  2.30507366e-02
   2.90177822e-01 -4.43257242e-01 -6.94826320e-02  5.18283188e-01
  -2.73069024e-01  3.66524495e-02  1.37431115e-01  3.67983520e-01
   7.01059997e-01  4.49797837e-03  4.48897272e-01 -2.86912713e-02
  -4.06588972e-01 -3.34720343e-01 -6.30907938e-02  3.39824528e-01
   5.37941009e-02 -7.80602247e-02  3.88050497e-01 -7.80689716e-02
  -3.38445693e-01  1.59732655e-01 -3.41461927e-01 -3.55536938e-01
   1.13947108e-01 -2.39615440e-02  5.71932018e-01 -4.54966933e-01
  -5.61778128e-01  3.36219251e-01 -2.91466326e-01 -3.32215339e-01
  -2.43999392e-01  2.09801063e-01 -7.01925159e-02 -1.80104762e-01
   2.17106447e-01  1.78589776e-01 -1.57222688e-01 -6.83814101e-03
   4.41386402e-01  4.43594605e-01 -9.77244005e-02 -3.48165520e-02
  -3.58766317e-02 -4.99061555e-01  5.25091169e-03  5.84555883e-03]
 [-1.40308663e-02  1.42012313e-01  3.82522970e-01 -2.22206190e-02
   5.44141591e-01  1.46234244e-01 -4.41228777e-01 -4.93170582e-02
   8.39446783e-02  1.23427667e-01  5.61861753e-01 -1.35403186e-01
   1.23694859e-01 -2.60318577e-01 -9.94467810e-02 -1.05501451e-02
  -6.45553917e-02  1.40370339e-01  8.41168091e-02 -8.59410837e-02
   4.68677193e-01 -1.95828881e-02 -7.00365245e-01  1.66528746e-01
   6.59556836e-02 -1.06558492e-02 -1.00459225e-01 -5.70250928e-01
   1.46354035e-01  1.10184006e-01  1.49633586e-02 -2.90255249e-01
  -1.92653343e-01 -7.66489357e-02 -9.74806473e-02 -5.43235183e-01
   5.61521016e-03  6.53353855e-02 -3.30687582e-01  3.57891545e-02
  -2.06671715e-01  1.79165006e-01 -2.42496192e-01 -1.03614628e+00
  -3.08949590e-01  1.13037780e-01 -2.69055009e-01 -1.99513286e-01
  -4.24011722e-02  1.46820307e-01 -4.99631837e-03 -3.88546556e-01
   2.30546266e-01  3.06563359e-02  1.75392300e-01  2.21741751e-01
  -2.72585958e-01 -3.04089673e-02  4.24440295e-01 -7.89652765e-02
   3.29752862e-02 -8.73606443e-01  2.33806506e-01 -4.67653841e-01
  -7.31534511e-02  1.04742460e-02 -1.97365060e-01  1.47747248e-01
   4.47489053e-01 -1.54491486e-02 -2.44665653e-01  2.36062899e-01
  -2.07295433e-01  2.05001025e-03 -1.14294961e-01  3.10775816e-01
  -4.66620296e-01  3.36400531e-02  3.43821459e-02 -3.56944688e-02
  -1.19604319e-01  4.72745821e-02 -7.00106993e-02  9.07681882e-02
  -7.89550662e-01 -2.36149710e-02 -8.72436096e-04  5.43658018e-01
   2.06797585e-01 -3.76026362e-01  5.26104048e-02  8.88225064e-02
   3.95359367e-01 -2.30480894e-01 -2.04923376e-01 -4.27076876e-01
   1.89466239e-03 -9.53960568e-02  1.51770964e-01  6.81117103e-02
  -3.58286679e-01  2.66343594e-01 -7.94542074e-01 -2.25394160e-01
   7.92798325e-02  3.26300472e-01  6.98434114e-01 -2.19718337e-01
  -2.96143174e-01 -2.97582243e-02 -4.64819789e-01 -3.57914358e-01
  -1.82061329e-01 -3.30185175e-01 -1.18118161e-02  6.07204735e-02
   1.58519462e-01  3.69624615e-01 -1.00201651e-01  1.79894865e-01
   4.42435831e-01  2.12123767e-01 -6.36373181e-04  3.94703485e-02
  -7.17787072e-02 -7.24883005e-02 -2.62182904e-04  6.21735789e-02]
 [-1.49294585e-02  3.36736679e-01  3.56776506e-01 -5.74544668e-02
   4.83619750e-01 -2.52893418e-01 -2.29223952e-01 -7.33213946e-02
  -4.11922969e-02 -7.14971185e-01  5.08069843e-02 -9.22499061e-01
  -6.00055516e-01 -4.48714525e-01 -4.54486728e-01 -3.38122323e-02
  -1.44250050e-01 -1.79032817e-01 -1.60595089e-01  3.48481178e-01
   7.93399453e-01  1.35464929e-02 -2.86206245e-01  7.40650833e-01
   4.01670992e-01 -2.59512633e-01  2.75347739e-01 -4.64555770e-01
  -4.24338579e-02  2.14425817e-01  1.33836523e-01  4.29202467e-01
  -1.42203629e-01 -4.82515171e-02 -1.32404402e-01 -8.75358760e-01
  -5.05836215e-03 -7.73836300e-02 -5.64119339e-01 -2.12991074e-01
   4.10857111e-01  1.15051448e-01 -3.05381328e-01 -8.03498209e-01
  -4.08533216e-01  4.10539269e-01 -6.43387958e-02 -1.48657365e-02
  -3.78382616e-02 -1.75824225e-01 -8.06921795e-02  6.03209659e-02
   5.26140630e-01 -5.82579076e-02 -9.96708572e-02  5.12868941e-01
  -5.12785017e-01  7.01875016e-02  2.25996852e-01 -1.27723338e-02
   2.33591795e-01 -2.94295371e-01  3.10482442e-01 -4.46113974e-01
  -9.87830162e-02 -1.03003234e-01  5.43988645e-01  4.43865567e-01
   2.66237557e-01 -4.52105254e-02 -4.23424207e-02  2.43536279e-01
   3.07142645e-01  1.98804602e-01  5.27480483e-01  1.70014888e-01
  -3.74463916e-01  5.84726214e-01 -5.37848473e-01 -1.70681968e-01
  -5.33110082e-01  3.68778378e-01 -2.46911913e-01 -7.20206261e-01
  -1.05539739e+00  3.23766842e-02  2.53384918e-01  2.00598776e-01
  -3.75287801e-01 -6.03812397e-01 -1.32352233e-01  8.74044672e-02
   7.91100502e-01  5.09631820e-02 -1.36166677e-01 -3.03227216e-01
  -1.66905925e-01 -5.94615079e-02 -1.94866464e-01 -5.48035614e-02
   6.04884028e-02  5.66866100e-01 -1.46845996e-01  3.87759656e-01
   1.25469312e-01  3.61400396e-01  5.31396508e-01  2.31842816e-01
  -5.38950622e-01 -2.58714885e-01 -4.24185753e-01  5.09934500e-02
  -2.63138264e-01 -4.80043083e-01  5.87028377e-02  6.65384233e-02
   2.99751729e-01  5.07799804e-01 -5.06462194e-02  6.66929334e-02
   5.89733683e-02  6.49537444e-01 -1.14141200e-02  3.30176428e-02
  -2.49924045e-02  2.51992017e-01  7.31029510e-02  3.80672552e-02]
 [ 2.94661894e-02 -8.19060951e-02 -3.20920609e-02 -5.53214133e-01
   2.79891908e-01 -3.10657591e-01 -3.74072999e-01  3.31916437e-02
   5.12228191e-01 -6.15429282e-01 -2.67127872e-01 -1.10098088e+00
  -2.94127464e-01 -4.81097102e-01 -4.12079036e-01 -5.05591780e-02
  -3.39537799e-01  1.96448728e-01  1.32102380e-02  1.65375859e-01
  -9.28514376e-02 -1.50734603e-01  4.92078483e-01  9.85317290e-01
   2.52664417e-01 -1.04930095e-01  2.54433334e-01 -1.12671651e-01
  -4.05763149e-01 -4.38230857e-02  8.96635875e-02  2.45522618e-01
  -1.74708217e-02 -2.10015351e-04  2.84266710e-01 -5.99276364e-01
  -7.73759419e-03  4.06144321e-01 -7.65768290e-01 -2.75007814e-01
  -9.29834880e-03  2.45125350e-02 -4.86992262e-02 -3.26522112e-01
  -2.98440933e-01  3.53459418e-01 -1.89518780e-01  2.00167894e-01
   1.37641607e-02  4.88385409e-02 -3.05977482e-02 -4.54763137e-02
   1.97590455e-01 -1.65237054e-01 -3.81229430e-01  2.73789853e-01
  -8.24043810e-01  1.51722729e-01  2.69166678e-01 -2.11912282e-02
   2.81624436e-01 -5.64018250e-01  4.48462278e-01  2.44558647e-01
  -3.25904563e-02 -7.71786273e-02  6.43565595e-01  7.71450698e-01
   3.51346195e-01  2.53567636e-01  2.80505389e-01  1.72907218e-01
  -5.17009944e-02  6.87953293e-01  4.98071462e-01  1.28906086e-01
  -1.46126211e-01  8.08897555e-01 -8.87562990e-01 -6.63327396e-01
   1.44044861e-01  7.90340602e-01 -3.05801779e-01 -5.52593231e-01
  -8.94789517e-01  4.51825522e-02  5.57962775e-01  3.46273541e-01
  -6.24417961e-01 -5.64614832e-01 -3.88075225e-02 -1.47555560e-01
   1.22226667e+00  2.03633994e-01  4.28236634e-01 -6.08869568e-02
  -1.24295071e-01 -3.74464542e-01 -4.53072369e-01  3.54712494e-02
   3.66587192e-02  2.04663947e-01 -8.46829563e-02  3.23074371e-01
   4.43253368e-01  3.68109763e-01 -2.61000404e-03  1.28842801e-01
  -6.00456059e-01 -3.18818063e-01 -4.06177372e-01  8.86874571e-02
   1.87015295e-01  7.18286773e-03  4.04710621e-02 -4.84930873e-01
   4.09874558e-01  3.77443701e-01 -3.73142622e-02 -1.15835595e+00
   3.67683828e-01  5.24802983e-01 -7.29161620e-01 -5.93300760e-02
  -7.88389530e-04 -6.66306391e-02  3.37002240e-02  9.62885618e-02]
 [ 1.71637461e-02 -3.09547812e-01 -2.11387530e-01 -2.66104579e-01
  -5.90938509e-01 -1.99671403e-01 -9.20769274e-02  1.05939850e-01
   2.00900376e-01 -9.82218049e-03  6.07770383e-01 -1.90520957e-01
   2.46566802e-01 -9.26790655e-01 -3.16281855e-01  2.65576001e-02
  -3.85471612e-01 -2.35442556e-02  6.04586780e-01  8.62836465e-02
  -1.95966251e-02 -2.85226732e-01  2.44952962e-01  5.77325106e-01
   3.42642167e-03 -1.53309152e-01  3.62272374e-02 -1.93422928e-01
  -5.59586406e-01 -9.19067860e-02  4.06310916e-01 -4.29387629e-01
   8.46473932e-01 -2.92025451e-02 -2.06500143e-01  9.31545906e-03
  -1.23997018e-01  4.97472376e-01 -2.12408438e-01  4.57042605e-01
  -2.56428510e-01  5.82175612e-01  4.66010690e-01 -6.94513381e-01
  -6.19024970e-02 -1.16214573e-01 -1.33899882e-01  2.75584489e-01
   2.48684622e-02  2.91838527e-01  5.01857810e-02  3.15214932e-01
   2.09101960e-01 -2.14226216e-01  1.46109462e-01  3.70237641e-02
  -9.46585715e-01 -1.57425120e-01 -6.05911076e-01 -3.17755044e-02
   2.65484959e-01 -1.45998776e-01  1.16811439e-01  1.40340924e-01
  -1.32625535e-01  2.30669096e-01  6.28042996e-01  7.98135698e-01
  -7.41977766e-02 -2.09291264e-01  6.64375603e-01  9.07157734e-02
   1.05667248e-01  5.10151565e-01  3.17883700e-01  1.38874039e-01
  -5.88601679e-02  1.17026603e+00 -3.69253725e-01 -9.89383459e-01
   1.28731459e-01  1.57226577e-01  2.80251592e-01 -8.47016335e-01
  -5.61482310e-01 -7.86853582e-02  9.21394825e-01  8.27901438e-02
   2.00931299e-02 -3.35416174e-03 -1.24067031e-01 -4.20747221e-01
   3.89138728e-01  2.09543377e-01  2.23659605e-01  7.72973597e-02
   2.47126967e-02 -1.71942741e-01 -1.52588338e-01  3.94196138e-02
  -1.07715450e-01  2.44133726e-01  2.46080056e-01 -2.86567897e-01
   2.83574164e-01  1.94991946e-01  1.16823629e-01  1.58848837e-02
  -2.68089771e-01  5.11808038e-01 -2.68634170e-01 -6.95298433e-01
   1.21362507e-01  9.89196897e-02  5.04686721e-02 -6.97373867e-01
  -4.25000526e-02  4.21546012e-01 -9.10124183e-02 -8.18602085e-01
   4.65051472e-01  6.42645776e-01 -1.28320587e+00 -3.30799639e-01
   5.99831715e-02 -8.11056733e-01  4.84553091e-02  1.85371563e-01]
 [-7.16985613e-02 -3.69649343e-02 -9.07952264e-02 -1.24586955e-01
  -4.61225092e-01  5.39740548e-02  2.94326365e-01  5.12140803e-02
   3.40989344e-02  4.32706892e-01  7.76597023e-01  5.58038950e-01
   9.35465544e-02 -4.15719539e-01  1.57030463e-01  1.32575706e-01
   1.84012070e-01 -4.07876402e-01  2.44524598e-01  1.83890596e-01
   4.72725660e-01 -7.51880288e-01 -7.80895129e-02 -5.46761572e-01
   1.26712739e-01 -1.58731882e-02 -2.50157058e-01  9.54583660e-03
  -5.15017867e-01 -1.81155503e-02  5.70375323e-01 -1.36619225e-01
   4.80990350e-01 -6.30578608e-04 -7.53481984e-01 -5.98849133e-02
  -1.76062346e-01 -3.76636088e-01  5.91275282e-03  5.66761613e-01
  -6.80620745e-02  4.76013005e-01  4.45947975e-01 -4.59719956e-01
  -1.86319813e-01  2.27696970e-01 -9.14832503e-02 -2.01209754e-01
  -1.00351535e-01 -4.02549237e-01  2.62090787e-02  4.70543444e-01
  -7.23464713e-02 -2.34578222e-01  1.31863862e-01  3.01684946e-01
  -2.36535072e-01 -2.08300769e-01 -4.74051267e-01 -4.00659777e-02
   2.93080419e-01 -2.12940499e-01 -1.30391464e-01 -2.71310389e-01
  -1.71749040e-01  1.97551399e-01  8.51664066e-01  6.07229590e-01
   5.64310513e-02 -3.30424160e-01  2.29075953e-01  3.18244129e-01
   3.17039728e-01  1.69509783e-01  3.18632007e-01  1.32431686e-01
  -1.96971491e-01  6.00738645e-01 -7.24469032e-03 -6.57104731e-01
  -2.56340861e-01 -2.21429586e-01  3.16999912e-01 -5.22636473e-01
   1.31389350e-01  1.87011585e-02  8.88770580e-01 -5.94229877e-01
   2.81560302e-01 -1.83946580e-01 -4.40190524e-01 -3.45872074e-01
  -8.29221681e-02  1.92304254e-01 -9.08384696e-02  6.65894430e-03
   1.31926071e-02 -2.75467515e-01  2.47780774e-02  2.32918561e-03
   7.12346956e-02  2.96620846e-01  1.15387261e+00 -2.55279452e-01
   8.15785676e-02 -3.38107914e-01  2.01364368e-01 -2.18132943e-01
  -2.62395680e-01  2.02195644e-01 -2.69609690e-01 -6.81798935e-01
   1.27117261e-01  2.22341716e-01  1.38070047e-01 -2.11198792e-01
   5.60434684e-02  2.25280896e-01 -7.57643878e-01 -1.58354342e-01
   4.24923748e-01  6.30257308e-01 -3.78319323e-01  3.82313952e-02
  -8.13185498e-02 -1.55363441e-01  7.51145333e-02  3.76727253e-01]
 [ 1.27821937e-02  1.81490839e-01 -4.68390852e-01  1.62726387e-01
  -1.84689522e-01  7.58543089e-02  2.73051411e-01  1.19909070e-01
  -8.04655403e-02  2.25487590e-01  5.13286829e-01  1.19302607e+00
   2.25079000e-01 -1.42248049e-01 -1.51952311e-01 -4.43265773e-02
   2.03603461e-01 -3.05117369e-01  1.00163877e-01  4.96768922e-01
   3.44377160e-01 -6.02685750e-01 -5.22159040e-01 -3.09796900e-01
   6.83841035e-02 -4.37105417e-01 -1.77200645e-01  1.45764261e-01
  -4.93430942e-01 -1.91568416e-02  7.38432556e-02  2.99666822e-01
   3.03327590e-01  5.60270026e-02 -4.13603991e-01 -2.62733668e-01
  -3.57060820e-01 -3.00083011e-01  6.63971379e-02  1.40707493e-01
   2.44214952e-01 -7.11797774e-02  1.61410347e-01 -4.41721410e-01
  -7.42362514e-02  6.46557361e-02  8.26911777e-02 -4.91536796e-01
  -2.85833422e-03 -7.17080176e-01 -1.67925172e-02  1.91872850e-01
  -2.98431873e-01 -1.18588910e-01  1.06430441e-01  5.54556251e-02
  -1.78774640e-01 -3.03863108e-01 -5.12011610e-02 -6.08986579e-02
  -1.67538300e-02  2.99875170e-01 -2.84642518e-01 -4.35997039e-01
  -1.98070914e-01 -2.38283560e-01  9.22119319e-01  1.83960706e-01
  -1.43175155e-01  7.35587329e-02 -1.40441805e-01  1.72182709e-01
   5.71130551e-02 -1.43252030e-01  7.11808503e-01 -1.34565547e-01
  -2.79076993e-01  1.40014961e-01  5.01841187e-01 -9.54491049e-02
  -2.04503134e-01  3.21289062e-01  1.23632014e-01 -1.91502899e-01
   4.73215371e-01  8.36180244e-03  8.50231767e-01 -7.09165752e-01
   1.26370996e-01  4.63290848e-02 -6.55687332e-01 -6.03617392e-02
  -4.29412246e-01  3.82909030e-01 -4.78294119e-02 -2.33254790e-01
  -3.50599699e-02 -2.07631141e-01 -8.62251371e-02 -2.15830654e-03
   1.23259187e-01  5.51395178e-01  1.06151450e+00 -4.94178981e-02
  -5.03108263e-01 -1.61530539e-01 -1.65713906e-01  3.09097499e-01
  -4.07388248e-02  3.78744990e-01  9.45912860e-03 -2.43327275e-01
   1.77422747e-01  2.62311012e-01  1.47459090e-01  3.66148502e-01
   5.21519721e-01  1.06528327e-01 -9.56201479e-02 -3.57415341e-02
   3.66223633e-01 -8.29122588e-02  5.98674547e-03  2.58016828e-02
   2.30056588e-02  1.62392616e-01  1.49157364e-02  3.95977676e-01]
 [ 1.26546323e-02 -1.34210944e-01 -5.63238800e-01  9.93444212e-03
   3.14394683e-01 -1.45226300e-01 -3.58658731e-02  8.50538816e-03
  -5.89462072e-02  3.95758711e-02 -1.88980401e-01  5.56094885e-01
   3.95427525e-01  4.95139807e-01  1.33479282e-01 -1.38376772e-01
   1.48296446e-01 -9.12853256e-02 -3.77018869e-01  1.95170656e-01
   4.01402488e-02  1.85465857e-01 -5.51465511e-01  2.87551820e-01
   1.78843781e-01 -5.09243011e-02  2.17100143e-01  3.65263879e-01
  -2.15632319e-01  1.43860001e-02  7.10845888e-02  1.02144420e+00
  -2.18437873e-02  2.29282454e-02 -4.19857413e-01 -1.66267574e-01
   4.81009334e-02  5.39148331e-01  1.35147303e-01 -2.59096116e-01
   2.36144140e-01  2.59845912e-01  3.40489969e-02 -9.32914540e-02
   3.60738486e-01  1.54719383e-01  1.35735661e-01 -2.81128213e-02
  -4.58041355e-02 -2.61085093e-01 -5.78745976e-02 -1.71391651e-01
  -5.87385707e-02 -1.40968174e-01 -3.13209087e-01 -4.62354422e-01
  -3.85994852e-01 -1.88356683e-01  2.05320463e-01  4.30925153e-02
   1.79687798e-01  5.73006690e-01 -1.83318183e-01 -1.07362486e-01
  -1.56502426e-01 -9.77696478e-02 -6.44098520e-02 -6.74747407e-01
  -9.02260318e-02  9.85726789e-02  6.45466074e-02  3.54097128e-01
  -1.09049663e-01 -8.91716853e-02  2.12443888e-01  2.43543178e-01
  -2.00143054e-01  2.76428550e-01  8.19252908e-01  6.39441311e-01
  -4.17765111e-01  1.53860465e-01 -2.30870694e-01  1.27171680e-01
   4.69424784e-01 -9.58556384e-02 -3.09833914e-01 -2.23341569e-01
  -2.56268948e-01  1.49218559e-01  1.48033544e-01  1.27646446e-01
   3.41652930e-01  7.87129477e-02 -2.42280930e-01 -4.11537647e-01
   2.58068219e-02  3.78545761e-01  2.43617669e-01 -7.57188424e-02
   2.29983479e-01  1.57806307e-01 -1.14425737e-02 -4.16390032e-01
   1.75228566e-01  2.87138760e-01 -9.91327763e-02  4.07400131e-01
   3.73575836e-01  3.78874093e-02  1.14715554e-01  1.39370516e-01
   1.37249142e-01  3.27842504e-01 -2.31089070e-02  1.68926448e-01
  -1.37645915e-01 -5.41287482e-01 -4.77173775e-01 -3.90844584e-01
  -1.05374128e-01 -5.07131994e-01  1.83377430e-01 -2.02910170e-01
  -5.74085191e-02  6.66122794e-01 -5.73537424e-02  3.49124409e-02]
 [ 7.05958977e-02 -1.26103893e-01 -3.96648228e-01 -2.13676438e-01
   2.97951065e-02  3.22865009e-01 -1.77667558e-01  6.76649064e-02
  -7.35231936e-02 -7.83840343e-02  1.97167955e-02  3.93228829e-01
   2.08312958e-01  2.18918979e-01  1.07419252e-01  1.54142097e-01
  -2.03893080e-01 -2.53185958e-01 -3.25596333e-01  2.55342096e-01
   2.20619142e-02  4.62557256e-01  1.83050141e-01 -1.77716732e-01
  -1.14752293e-01  1.68502554e-01 -2.28454307e-01  1.16980411e-01
  -5.33785462e-01 -4.71121259e-02  2.76025325e-01  5.16284525e-01
   1.93235785e-01  3.38598713e-02  1.15694009e-01 -3.27880323e-01
   3.45832467e-01  3.22251320e-01  1.14885338e-01 -2.48595864e-01
  -1.88322902e-01  6.19376227e-02  3.57949555e-01  2.17759877e-01
   4.16925818e-01  1.26677722e-01  2.37988412e-01 -7.94995055e-02
   1.78175941e-02 -2.30411604e-01  3.78204957e-02 -8.76204446e-02
   7.64930993e-02 -1.51553348e-01 -4.45679203e-02 -2.07217172e-01
   1.00700349e-01 -8.07366073e-02  5.33037111e-02  1.10243037e-02
   2.78918236e-01  3.04677188e-01 -1.45420671e-01 -1.34400338e-01
  -1.62004642e-02 -1.21133141e-01  1.15695693e-01 -6.12683713e-01
  -3.75369638e-01  1.72070786e-02  2.86531121e-01  3.75723213e-01
  -9.31906048e-03  3.74900281e-01  1.63152620e-01 -2.87065394e-02
  -2.21458554e-01 -8.11915919e-02  5.94398379e-01  7.10715771e-01
  -3.80267024e-01 -5.17209508e-02 -4.42402959e-02 -1.68877557e-01
   7.07234442e-02 -1.53437406e-02 -2.92653501e-01  1.19619779e-01
  -6.99975640e-02  5.44007897e-01  1.16405398e-01  1.77947342e-01
   4.27684188e-02  4.56784874e-01 -1.94088258e-02  2.36242980e-01
   3.06539554e-02  2.16533676e-01  9.64296535e-02 -1.84854195e-02
  -9.74571779e-02 -1.44557962e-02 -2.28856906e-01 -9.83898193e-02
   5.23271933e-02  3.40179317e-02 -3.29866111e-01  5.65572269e-02
  -1.17901929e-01 -4.08319801e-01 -1.50140515e-03  1.34639248e-01
  -4.80607264e-02  1.44340381e-01  6.51728064e-02 -2.58639842e-01
  -1.27100974e-01 -1.92251697e-01 -3.41535002e-01 -7.32451491e-03
   1.83091164e-01 -3.10953498e-01 -2.86003977e-01 -1.32001743e-01
   3.02964598e-02  2.39855126e-01 -2.90397443e-02  4.92118560e-02]
 [ 4.65580821e-03  1.17972724e-01 -2.45703802e-01 -2.69349188e-01
   4.45273779e-02  2.06263606e-02  8.12487602e-02 -2.65853591e-02
   3.23066264e-01  1.85959667e-01  6.86966777e-01  6.70028865e-01
   2.42454305e-01  2.40079895e-01  1.63124520e-02  1.26883581e-01
  -2.42064238e-01 -4.25521582e-02 -1.00661196e-01  2.73477852e-01
  -6.56448379e-02 -3.50949988e-02 -1.07776314e-01  1.30217075e-01
  -1.50766134e-01 -2.90475786e-01 -5.44688582e-01 -9.07417610e-02
  -5.81918359e-01  9.08454880e-03 -1.29613474e-01  4.33757633e-01
  -9.70641598e-02 -3.00570168e-02  8.60832930e-02  2.64738575e-02
   1.04239129e-01  1.66998103e-01  3.79584610e-01  2.11078286e-01
  -1.75874867e-02  5.43803155e-01  6.59290433e-01  1.04703426e-01
  -1.25181720e-01 -5.45742474e-02  8.53121728e-02  2.89831996e-01
   6.77591041e-02 -8.03880021e-03  1.69471949e-02  4.34484780e-01
  -1.62303485e-02 -2.15665940e-02  3.06040794e-01 -6.54834732e-02
  -1.09302223e-01  8.38917434e-01  1.03830762e-01  3.12658921e-02
  -8.07667226e-02 -1.00839585e-01 -8.91534984e-02  8.47427547e-02
   5.34576893e-01  2.52256095e-01 -1.07111476e-01 -2.33688563e-01
  -4.80563998e-01 -8.12859833e-01  6.36582673e-01 -1.49795175e-01
   6.27417788e-02  9.65763330e-02  2.74114013e-01 -3.24906081e-01
  -3.46198454e-02  4.27490711e-01  9.40336566e-03  2.94322520e-02
  -8.34683552e-02  1.31971389e-02  4.74166274e-01 -1.83541313e-01
  -1.46719432e-02 -2.00054795e-03  4.18557711e-02 -2.87699282e-01
  -2.61075824e-01  5.38896441e-01 -1.69510227e-02  1.77998155e-01
  -1.67129606e-01  9.41858888e-01  2.98461523e-02  2.10840836e-01
   5.33658303e-02 -4.60162938e-01 -2.05012038e-01 -3.56549323e-02
  -8.33300501e-02 -2.78066657e-02  3.38136517e-02  2.03182906e-01
  -2.43000641e-01 -1.35386005e-01 -1.42449334e-01 -2.49803830e-02
   2.13114038e-01  6.02474920e-02  2.08773017e-02 -2.00680628e-01
  -1.77057877e-01 -2.43566513e-01  1.56784640e-03 -5.66302538e-01
   2.46732667e-01 -3.70970257e-02 -2.49228507e-01  8.76373146e-03
   2.12086201e-01  4.29235548e-01 -4.38168108e-01  2.07380056e-01
  -4.32511196e-02 -3.74788553e-01  1.11878682e-02  8.99649262e-02]
 [-2.34484039e-02  2.22336918e-01  1.69388577e-02  2.18277633e-01
   4.32387859e-01 -1.22508861e-01 -1.18970923e-01 -1.37023535e-02
  -6.15735017e-02 -2.34189108e-01 -1.48916140e-01  8.41783658e-02
   2.84309059e-01  1.10177517e-01  5.48294410e-02  6.83296695e-02
  -1.25433728e-01  7.79718608e-02 -1.38816178e-01  6.48114383e-02
  -3.23881432e-02 -5.53143257e-03  4.42486117e-03  1.95151329e-01
   3.05531491e-02 -3.03106964e-01  5.00677265e-02 -1.91485067e-03
  -3.63460571e-01 -1.05391458e-01 -6.06342331e-02  2.76388437e-01
   3.69067967e-01 -3.36914174e-02  1.55415712e-02 -1.68823570e-01
  -2.34101281e-01  3.19044888e-01 -2.07481682e-01  5.69291674e-02
   7.61568025e-02  6.07731231e-02  8.82298127e-02 -1.73620075e-01
   2.09670246e-01 -2.17803344e-01 -1.54975668e-01  3.57572466e-01
   3.52462754e-02 -2.60072529e-01  7.06690177e-02  1.61996737e-01
  -4.28255163e-02  6.27560243e-02 -9.45699774e-03 -3.05930555e-01
  -8.76388773e-02 -3.32379073e-01  7.01223463e-02  2.60243043e-02
   1.36802480e-01  1.92762747e-01  2.19267741e-01 -1.59758240e-01
  -3.23605567e-01  2.44709283e-01 -1.91487998e-01  3.79909179e-03
   1.84063599e-01 -2.63890713e-01 -3.40538681e-01  4.17736359e-02
  -1.21180184e-01  6.00663759e-02  2.87181079e-01 -2.44663253e-01
   1.49715832e-02  3.47991288e-01 -1.73273757e-01  1.16562054e-01
  -9.23106149e-02 -8.31228122e-03 -2.01470196e-01  3.41830820e-01
   1.72178775e-01  6.43444434e-02 -3.09718642e-02 -1.62412897e-01
   1.46705121e-01 -2.55746514e-01  4.62658525e-01  1.11711159e-01
   7.49958679e-02  1.95976168e-01 -1.18407525e-01 -2.21442193e-01
  -5.82000464e-02  1.55124217e-01  8.79128352e-02  7.59949610e-02
   1.21920228e-01  3.35169375e-01 -8.61923099e-02  2.05928758e-01
   1.16202064e-01  1.82953119e-01  4.83645871e-02  3.77694190e-01
   1.33718550e-01  3.15857142e-01  1.81363270e-01  1.48585346e-02
  -1.99188188e-01  1.16128489e-01 -7.80380964e-02  3.30413520e-01
   3.36240947e-01 -6.89978451e-02 -1.60807028e-01 -2.54342020e-01
   5.05339682e-01 -3.64041358e-01  1.77938238e-01 -2.82660335e-01
  -5.48997894e-02  1.33426711e-01  2.12485790e-02 -1.53876413e-02]
 [-4.25609499e-02  6.08158588e-01 -2.30844691e-01  7.90756941e-01
   1.22947305e-01  1.59709617e-01  1.42421514e-01  3.66990268e-02
   1.91560034e-02  2.88167596e-01 -5.96767366e-01 -2.01657981e-01
   2.23410651e-01  5.30941367e-01  4.54531051e-02 -4.56506535e-02
  -1.05412580e-01 -4.99785900e-01 -2.85074085e-01  2.94606954e-01
  -1.54859513e-01 -2.81315327e-01 -2.04751063e-02  4.46698427e-01
  -7.43412524e-02 -4.37187552e-01 -9.03013051e-02 -2.60758668e-01
  -3.74744654e-01 -5.58500215e-02 -8.33501220e-02  3.39733481e-01
   7.42997944e-01 -5.51717058e-02  2.61644185e-01 -1.51039228e-01
  -4.36417729e-01  9.22157317e-02  2.28584819e-02 -8.51140767e-02
   1.73874557e-01  4.98780496e-02 -2.29794487e-01 -3.15362543e-01
   4.07319441e-02 -4.72187459e-01  1.69760764e-01  1.04332909e-01
  -4.21350412e-02 -9.97475088e-02 -1.31183863e-02  2.61809438e-01
   5.62790111e-02  1.43156108e-02  6.03934424e-03 -4.15357918e-01
   6.05642982e-02 -1.62097067e-02  8.19602311e-02  7.03021213e-02
   5.70649952e-02  2.39849418e-01  4.64668348e-02 -2.91931719e-01
   1.57052457e-01  7.48386025e-01  4.41800579e-02 -1.87948272e-01
   4.03262973e-01 -5.39387822e-01 -1.32658347e-01  1.80265307e-01
  -3.66700813e-02 -7.39716142e-02 -7.20654428e-02 -1.66421160e-01
  -5.08705914e-01  3.86172384e-01  8.24617222e-02 -1.53921023e-01
  -8.91619734e-03  5.85129142e-01  1.02980912e-01  7.61802018e-01
   2.56479621e-01  9.14446265e-03  2.79973626e-01 -5.83681405e-01
  -6.18736446e-01 -8.58472139e-02  4.96586174e-01  3.48914266e-01
   3.85388792e-01 -2.71680474e-01 -1.27463683e-01 -2.51946867e-01
  -3.69966254e-02 -1.71730489e-01  4.20478582e-02 -5.81458583e-02
  -3.87887135e-02  3.67899984e-01  1.95226427e-02 -5.97021580e-02
   2.43405458e-02 -2.18171373e-01 -1.33257166e-01  3.80111188e-01
   1.26673296e-01  5.41873038e-01  3.02932024e-01  3.50875147e-02
  -2.88900048e-01  5.54089360e-02 -1.03910705e-02  4.84108269e-01
   3.94088119e-01 -6.10583872e-02 -8.86393338e-02 -3.22927624e-01
   4.78601992e-01  1.44924119e-01 -8.46129656e-03 -3.66075903e-01
  -5.81310093e-02 -2.02328131e-01  4.14393842e-02 -3.66975777e-02]
 [-7.17080757e-02  1.86645731e-01 -3.34529936e-01  3.87681901e-01
   1.66788280e-01 -3.07478189e-01  1.24094389e-01 -2.46095918e-02
   1.31181449e-01  8.39973148e-03 -6.68145120e-01 -4.25694674e-01
  -4.69514847e-01 -3.62397015e-01  7.72323310e-02 -4.61806804e-02
  -7.89541975e-02  9.31047574e-02  3.88117391e-03  4.21869844e-01
  -2.58927971e-01 -1.19242564e-01 -1.33386463e-01 -2.32016876e-01
  -1.81971043e-01  4.16219383e-01  3.60195071e-01  3.46959144e-01
  -4.73568916e-01 -2.15226952e-02 -7.07531208e-03 -1.20382465e-01
   6.75600648e-01 -3.97652723e-02 -3.17923874e-02 -1.42061144e-01
   5.72435677e-01  4.02766287e-01  1.71326362e-02 -1.94581613e-01
  -3.84048253e-01  2.15710010e-02 -4.26096580e-04  2.58142918e-01
  -2.91161180e-01 -3.00120890e-01  1.48828164e-01  4.94328260e-01
   2.08641514e-02  2.20098615e-01 -1.93576962e-02  1.58009499e-01
  -3.92571419e-01 -2.51890182e-01  1.28214613e-01 -1.60940439e-01
  -1.50803756e-02 -7.42594153e-02  1.41418144e-01  3.45829874e-02
   3.64101939e-02 -2.16579691e-01  3.54004145e-01 -2.89627522e-01
   2.99985617e-01  4.52984750e-01  1.62260905e-01 -4.75174636e-01
   3.17764699e-01 -2.32230306e-01  1.92849576e-01  1.87590659e-01
  -5.38438298e-02  5.49680114e-01 -1.20762020e-01  1.65765196e-01
  -2.05990389e-01  4.05949354e-01 -2.05102146e-01 -1.43624740e-02
  -1.76060751e-01  3.68779182e-01 -3.44013244e-01  3.22277457e-01
   2.07790360e-01  2.38477960e-02  9.95329320e-02  3.25478494e-01
  -2.73034185e-01  2.49191165e-01  6.83183730e-01  3.95222932e-01
   3.56836230e-01 -2.95984484e-02  2.93000881e-02 -2.61461169e-01
   5.28052747e-02 -2.14233533e-01  1.89310402e-01  6.80358186e-02
   4.90653105e-02 -3.89771373e-03  1.81709647e-01  1.02957353e-01
   1.73177719e-01  9.26349759e-02 -2.30338275e-01 -5.68783939e-01
   1.87307671e-01  3.19425076e-01  1.12876669e-01  4.82022673e-01
  -2.04403326e-01  2.82727420e-01 -1.01372570e-01 -2.34980598e-01
   1.96487397e-01 -2.87624747e-01 -6.49540394e-04 -2.74533391e-01
   6.90271914e-01  2.66457945e-01  3.36558595e-02  9.57498699e-02
   3.62434909e-02 -4.41897601e-01  6.86316714e-02 -6.53602555e-02]
 [ 5.06513342e-02  4.53771204e-01 -3.18894595e-01  4.48550433e-01
   2.11476728e-01 -3.42051983e-01 -2.69817412e-01 -7.38341734e-02
  -2.82035470e-02 -9.35859699e-03 -2.89798856e-01  2.17102438e-01
   1.95021093e-01  3.26419443e-01  1.15302391e-01  9.41043422e-02
  -2.37987325e-01 -1.77767158e-01 -1.41534815e-02  2.72993505e-01
  -4.51876104e-01  1.53625861e-01  7.95836747e-02 -9.80303884e-02
   4.62996401e-02  1.15237832e-01  5.97533643e-01  4.71940488e-01
  -1.92182854e-01 -1.06091261e-01 -3.76024127e-01  4.65297461e-01
  -1.49921134e-01  8.49628821e-02 -4.46825355e-01 -4.84693617e-01
  -1.95627436e-01 -2.44917609e-02 -2.62276411e-01 -2.36452371e-01
   2.35027790e-01 -2.57449985e-01 -4.89053071e-01 -1.96636215e-01
  -1.49389580e-01  1.37118205e-01 -1.26136109e-01  3.27699095e-01
   4.17417586e-02 -3.03074270e-02 -4.50790450e-02 -2.60650545e-01
   3.01235199e-01 -3.73962283e-01 -2.98311532e-01 -1.18268184e-01
  -3.10419321e-01 -8.99792612e-01 -6.41830713e-02 -1.17531195e-02
   4.94889803e-02  2.02070892e-01  3.77531111e-01 -1.29501317e-02
  -5.51403761e-01  5.75346231e-01  9.80675817e-02 -6.24568760e-01
   3.86675060e-01  3.56436446e-02 -7.54834354e-01  4.31811988e-01
   2.90852059e-02 -1.40401140e-01 -2.39797145e-01 -4.26925629e-01
  -3.32644254e-01 -2.01238185e-01 -2.05417454e-01 -1.07121602e-01
  -8.20787326e-02  1.24036357e-01 -3.38220969e-02  4.33986895e-02
   5.90573192e-01  1.80354901e-02  1.05916057e-03 -2.78902113e-01
   2.21374393e-01 -4.24800098e-01  4.09815051e-02  1.19192593e-01
   2.37292588e-01 -3.51677269e-01 -3.69561315e-01 -4.28100228e-01
   1.04062236e-03 -2.88958341e-01  3.27511549e-01  6.75053075e-02
   1.01709545e-01  1.13372616e-01 -3.78550529e-01  1.83907047e-01
   2.66772747e-01  2.29572609e-01 -7.74689242e-02  3.09390515e-01
  -1.17379665e-01  5.98895848e-02  3.95974308e-01  3.04928362e-01
  -4.60033715e-02  2.94681460e-01  7.29149878e-02  5.24355531e-01
   3.78628403e-01 -8.14777762e-02 -4.84984696e-01 -3.31940174e-01
   3.99922058e-02 -1.11089014e-01  4.91790861e-01 -4.82323110e-01
   5.08787222e-02  1.77727580e-01  6.93493858e-02 -4.28957082e-02]
 [-1.54827833e-02  1.89238593e-01 -4.83165473e-01  2.81784892e-01
   8.84071216e-02 -1.37588441e-01 -2.52732188e-01 -1.85746327e-02
  -2.34154657e-01 -1.60683200e-01  1.62126124e-01  1.40429214e-01
   3.20516229e-01  8.45312607e-04  4.00537364e-02 -4.14336845e-02
  -3.96155685e-01  2.22699896e-01  1.17607646e-01  3.48330468e-01
  -9.51889813e-01 -1.85169265e-01 -6.51762009e-01 -3.67120415e-01
   7.90582448e-02  3.62230502e-02  3.68196607e-01  7.90091511e-03
   2.57243658e-03  2.04604212e-02 -3.30578417e-01 -2.86640495e-01
   1.76504895e-01  4.85208705e-02 -6.47866488e-01 -6.94211304e-01
  -1.75877616e-01 -3.35607767e-01 -2.12831289e-01 -1.91580892e-01
   1.44610837e-01  2.78684832e-02  9.89085361e-02 -2.34763563e-01
   2.01126590e-01  1.92853570e-01 -2.37587377e-01  2.84713238e-01
  -1.66476127e-02  3.75981033e-02  2.71356348e-02  1.17019564e-01
  -5.22874035e-02 -3.33364308e-01 -3.43110532e-01  1.07655860e-01
  -4.18825746e-01 -5.86727798e-01 -3.23851258e-01 -1.76135488e-02
   1.09292500e-01 -5.46614523e-04  3.14031541e-01 -9.98105481e-02
  -2.91217238e-01  6.63778126e-01  5.13595879e-01 -6.82095289e-01
   2.55608886e-01 -1.95505112e-01 -3.27327847e-01  4.57415760e-01
  -5.80060817e-02  1.53376833e-01  1.28504056e-02 -1.27334550e-01
  -2.23937333e-02 -1.98347181e-01  1.86708897e-01 -3.36577930e-02
  -1.29870400e-01  8.38576406e-02 -8.60131457e-02  9.53046083e-02
   1.99825659e-01  2.20430344e-02 -8.22378471e-02 -3.23839784e-02
   1.95635557e-01  1.94164872e-01  2.22512424e-01 -1.18026122e-01
  -1.02356993e-01  2.41390914e-01 -4.77788955e-01 -5.28653920e-01
  -8.08996931e-02  4.21982333e-02  4.81513262e-01  5.16174957e-02
  -1.59483835e-01 -4.43079434e-02 -2.62843609e-01 -9.75417867e-02
  -1.48696244e-01 -2.85486002e-02 -2.36480445e-01 -6.42713085e-02
  -9.77877453e-02  3.64795029e-01  1.68167770e-01 -4.33034539e-01
   2.10929930e-01  4.07836914e-01 -3.71926799e-02  2.05978006e-01
  -6.52181804e-02  2.68748522e-01 -2.36114591e-01 -4.98519033e-01
  -2.14031518e-01  1.66843191e-01  2.27337241e-01 -1.43090695e-01
  -6.10904545e-02  3.18978280e-02  1.07967257e-02 -7.49540254e-02]
 [-4.98119593e-02  2.98393127e-02 -7.55231604e-02  1.86137304e-01
  -1.01488322e-01 -1.00938961e-01  1.39727339e-01 -2.69465372e-02
  -5.19288301e-01  3.77931744e-01  3.92144531e-01  5.37219167e-01
   6.48867130e-01  1.90795794e-01 -4.14472133e-01  7.26200826e-03
  -8.26555640e-02 -1.48811284e-02  5.85903078e-02  2.76468486e-01
   2.31828421e-01 -1.02260232e+00 -4.16165501e-01 -2.74960786e-01
  -2.86198884e-01 -2.16382578e-01  5.69321848e-02 -3.39947522e-01
   3.10394876e-02  4.09328416e-02  1.44997165e-01  3.10713738e-01
  -1.10693954e-01  7.98958838e-02 -5.12532055e-01 -3.97126228e-01
  -2.46641099e-01 -1.45202011e-01  1.51577041e-01  4.19465959e-01
   6.23614252e-01 -1.10947348e-01 -1.68947995e-01  2.65863180e-01
   9.98576134e-02 -9.70314592e-02  2.13989429e-02  5.48309498e-02
  -4.90525505e-03 -4.31435347e-01  1.40505899e-02  1.94337711e-01
  -2.11385489e-01 -1.93920895e-01  1.09382726e-01 -1.58486396e-01
  -1.85925856e-01 -5.68694353e-01 -4.97324347e-01  1.07835149e-02
  -9.00249332e-02  2.92396367e-01 -1.67896807e-01 -1.66505858e-01
  -4.36127394e-01 -9.37215537e-02  4.12731439e-01 -5.88379860e-01
   1.78434581e-01 -4.16546941e-01 -2.52068430e-01 -4.23598588e-02
   3.33104789e-01 -4.85151261e-01  1.43948182e-01 -2.85336018e-01
  -1.64383635e-01 -1.74779236e-01  9.91020739e-01  9.54798162e-02
  -2.10659832e-01  9.89255905e-02 -4.33324307e-01  2.30209351e-01
   1.63154185e-01 -6.74905926e-02  6.74313456e-02 -5.97668350e-01
   2.49088667e-02  2.97519654e-01 -1.60198793e-01 -2.38798589e-01
   2.80372072e-02 -1.65983230e-01 -4.79202867e-01 -4.00123507e-01
  -3.93618867e-02 -6.09124541e-01  6.79499581e-02  1.84579045e-02
   1.93947569e-01  3.34298521e-01  6.41394734e-01 -3.33480239e-01
  -7.95669947e-03 -1.80168748e-01  1.97935879e-01  1.31051302e-01
  -9.39520635e-03  6.62855804e-01  9.92988199e-02 -4.36754584e-01
  -2.79021680e-01 -1.08393781e-01  3.06820907e-02  4.62319881e-01
   2.73056418e-01 -5.05693376e-01 -4.35306638e-01 -1.98121190e-01
  -5.72144985e-01 -2.56845683e-01  3.84060144e-01 -6.92707524e-02
   4.34371047e-02  1.10879026e-01 -8.10868070e-02 -6.56389669e-02]
 [ 4.31267321e-02 -4.88261163e-01 -1.71336196e-02 -3.94361436e-01
  -3.61655325e-01 -2.33345747e-01  4.05618548e-01  2.47187577e-02
  -2.94373780e-01  1.21845990e-01  3.28105152e-01  2.84015208e-01
   5.65853357e-01 -3.69834863e-02 -3.86030860e-02  9.08599868e-02
  -9.15381983e-02 -3.01390767e-01  3.02049011e-01  2.52844006e-01
  -7.95289934e-01 -1.13245106e+00 -2.02068925e-01 -2.67397672e-01
  -2.59191453e-01  5.47011755e-02 -3.82463217e-01 -2.86319762e-01
   2.08122302e-02  1.08379878e-01  2.73753315e-01  1.26774862e-01
  -4.18838225e-02  6.14743009e-02 -1.85884964e-02 -4.14425284e-01
  -9.17105600e-02  3.59381735e-01 -4.60805930e-02  4.18051302e-01
   3.84380251e-01 -7.95643404e-02  3.61784622e-02  3.60443830e-01
   1.60265103e-01 -1.73234746e-01  1.66823074e-01 -4.64228317e-02
  -3.86650898e-02  3.03530127e-01  2.35976223e-02  4.33825821e-01
   5.88714302e-01 -1.05435647e-01 -2.17855990e-01  8.27127323e-02
  -4.34050679e-01 -3.59019905e-01 -3.20538491e-01 -5.47676049e-02
  -4.29957062e-02  2.20972523e-01  9.33550522e-02 -4.11657095e-01
  -6.59813881e-02 -2.50219107e-01 -5.24516031e-02 -2.46061265e-01
  -2.98678011e-01 -4.74954136e-02  4.94814478e-02 -1.33020282e-01
   3.08408886e-01  2.42357459e-02 -4.74395782e-01 -4.51285727e-02
  -2.13612691e-01 -2.85775755e-02  6.19290531e-01 -1.44157380e-01
   6.58241063e-02 -1.69606164e-01 -4.79852110e-01 -6.36755303e-02
   2.78875738e-01 -3.38487998e-02 -8.34082812e-02 -1.99220777e-01
   2.63054650e-02  1.89225137e-01  2.40468219e-01 -1.81888476e-01
   2.03386575e-01  3.80591631e-01 -2.89119892e-02 -6.20602429e-01
  -6.20228946e-02 -6.48032725e-01 -2.61297733e-01  8.72491449e-02
   6.03167750e-02 -3.35427612e-01  5.65149724e-01 -3.83967459e-01
  -2.79603392e-01 -6.29451498e-02 -3.12893987e-02  1.85529009e-01
  -4.44487929e-01  3.77212554e-01  2.29208305e-01 -3.97416055e-01
  -4.61083315e-02 -4.16459024e-01 -2.77594104e-03 -1.51789337e-01
  -4.00860831e-02 -1.55850291e-01 -3.17886442e-01 -2.47852653e-01
  -5.42204306e-02  1.95901096e-01 -2.16973111e-01 -5.45416251e-02
   2.86206882e-02 -1.98038951e-01  6.74668178e-02 -1.06040500e-01]
 [ 7.73484781e-02 -5.04821241e-01 -1.92160100e-01 -5.49433410e-01
  -5.97286582e-01  2.80958652e-01 -6.67259023e-02 -3.78448516e-03
   9.97619331e-02 -2.38183245e-01 -2.13607430e-01  3.18284482e-01
   3.14390570e-01  2.54135370e-01 -3.44037920e-01  3.38732568e-03
  -3.33855242e-01 -1.45209745e-01  1.08183443e-03 -5.37188584e-03
  -3.09827596e-01 -8.71426284e-01  9.90184322e-02 -2.07305595e-01
  -3.68606508e-01 -4.02244538e-01 -3.00839990e-01 -2.90557563e-01
  -7.09615797e-02  1.29926920e-01  2.03633383e-01  1.05621487e-01
   4.99804348e-01 -4.29487303e-02  3.73643786e-02  7.81572387e-02
  -2.38531098e-01  2.98481494e-01  2.05517381e-01  2.56159067e-01
   5.41978553e-02  1.68590501e-01  2.94720791e-02  1.44713357e-01
   3.29710692e-01 -1.91195697e-01  9.37033445e-02 -2.22054034e-01
  -6.72526807e-02  1.97212473e-01  6.82747737e-02  4.23823416e-01
   3.38483602e-01 -1.65192544e-01 -2.26660535e-01  5.96256629e-02
  -3.97533119e-01  2.39673397e-03 -4.37222511e-01  3.68932262e-02
  -1.98334411e-01 -1.38580948e-02  3.03815007e-02 -6.59223974e-01
   6.68895543e-01 -2.96046376e-01 -1.17318993e-02 -5.25246143e-01
  -5.83989561e-01 -4.09783363e-01  3.93192083e-01 -5.49092472e-01
  -4.06786688e-02 -3.37469250e-01 -7.74082765e-02 -4.26626116e-01
   3.62144671e-02  4.66182888e-01  3.81379455e-01 -5.55866100e-02
   1.59756780e-01 -1.52639508e-01 -3.08446944e-01  9.04510096e-02
   9.69801620e-02  6.40653297e-02 -3.08000064e-03 -2.76376843e-01
   1.21154502e-01  1.16393141e-01 -2.44456455e-02 -1.48961291e-01
  -4.50095423e-02  5.14263451e-01 -5.50751425e-02 -2.97144264e-01
  -1.49098948e-01 -6.96042657e-01 -6.62749112e-01  5.03142551e-02
  -1.15603343e-01  7.47716278e-02  1.42348692e-01 -1.87941507e-01
  -8.49022567e-02 -2.47850135e-01  1.21889018e-01  2.95084208e-01
   4.62344736e-01  2.84492016e-01  1.89099267e-01 -4.16354895e-01
   7.95534328e-02 -3.90320778e-01 -2.23123748e-02 -1.43095165e-01
   1.18675277e-01  1.19541168e-01 -2.36831531e-01 -5.61932981e-01
  -1.22461535e-01 -9.39742699e-02 -3.66461396e-01 -2.15348825e-01
  -1.05969952e-02 -9.69716981e-02  8.05854425e-02  2.11714655e-01]
 [-1.51183903e-02  1.41836792e-01 -4.28675085e-01  1.06068984e-01
  -3.20850819e-01 -1.76883906e-01 -7.45563745e-01  5.81365917e-03
  -1.80365622e-01 -5.26488066e-01 -7.20072508e-01  1.78778532e-03
  -1.52811393e-01  3.74032080e-01 -1.91645518e-01  1.80395937e-03
  -3.74820948e-01 -4.19205651e-02 -2.19698727e-01  1.24012418e-02
  -3.67651254e-01 -5.68006873e-01  1.09687731e-01  3.03721607e-01
  -1.82565898e-01  7.60322213e-02  2.04471368e-02 -7.58273974e-02
   1.46905854e-01  1.72106668e-01  6.23055361e-02  1.37879983e-01
   1.53220887e-03  8.25843960e-03 -8.21726918e-02  3.06968689e-01
  -3.91515702e-01  1.86680898e-01  1.83351757e-03 -1.35196656e-01
  -2.51091987e-01 -4.67835307e-01 -1.81211516e-01  2.02507108e-01
   9.46808085e-02  2.08904147e-02 -1.02715015e-01 -4.23322946e-01
  -1.02883093e-01 -2.95182616e-01  5.68476273e-03  3.03885132e-01
   2.35229358e-01  1.60097659e-01 -7.47520775e-02  4.88916375e-02
  -6.37629092e-01 -2.52877235e-01  1.41197676e-02  4.18831445e-02
  -1.96859971e-01 -3.56680721e-01 -4.45900150e-02  4.42875177e-02
   1.85083017e-01 -3.34666222e-01  2.07191065e-01 -1.50600746e-01
  -1.64955512e-01 -1.92152128e-01  1.73322812e-01 -6.66010559e-01
  -6.40261322e-02 -2.65545756e-01 -4.21018898e-02 -3.43496621e-01
   1.58570856e-02 -2.56402224e-01  1.75207555e-01  7.40171373e-02
  -2.50314325e-01  3.64633232e-01 -6.78857490e-02  1.12762891e-01
  -2.65458196e-01 -4.28635217e-02  1.13175005e-01 -2.19756551e-02
  -2.69333333e-01  7.17541501e-02 -1.82820171e-01  1.41582832e-01
   1.86582416e-01  2.65258968e-01  1.13399334e-01 -8.29036415e-01
  -2.43356451e-02 -7.15577126e-01 -4.20780867e-01 -5.01984730e-02
   7.72259980e-02  2.92865187e-01 -1.08669853e+00 -3.69807690e-01
  -1.72742695e-01  1.79208711e-01  2.23907828e-01 -1.00527517e-02
  -6.79343985e-03  9.49447677e-02  3.09639037e-01  1.89343959e-01
  -2.61837155e-01 -4.06766832e-01 -2.16724630e-02  2.03277305e-01
   2.77231425e-01 -4.19903658e-02  1.56460822e-01 -6.76128745e-01
  -5.46719059e-02 -5.45951307e-01 -3.20869684e-02  1.03791582e-03
  -5.21090254e-02  2.69626975e-01  3.89773771e-02 -1.87695213e-02]
 [-7.59227052e-02 -5.84618077e-02 -1.63727939e-01  2.48087421e-01
   1.17322346e-02  2.57260241e-02 -3.31216961e-01 -8.82938877e-02
  -3.30544747e-02 -9.07526493e-01 -7.04737604e-01 -9.46700573e-02
   1.10466652e-01  8.19181204e-02 -1.92509845e-01  1.60660278e-02
  -1.74527302e-01  4.86956090e-02 -3.50192301e-02  2.04538941e-01
   9.25802290e-02 -7.39167929e-01 -1.54710397e-01  3.07075024e-01
   2.53304485e-02  1.60754040e-01  5.40853068e-02  5.26427217e-02
   2.43307993e-01  2.17468627e-02  1.20641924e-01  3.28175388e-02
  -2.88607534e-02 -7.80861964e-03 -1.95839018e-01  9.71818641e-02
  -2.27207035e-01  8.26855823e-02 -9.38399753e-04 -4.38683689e-01
  -1.58077295e-04 -1.21053785e-01  2.47727092e-02 -3.68730783e-01
   3.48453559e-02 -8.07288960e-02 -7.76483938e-02 -3.40619504e-01
   7.88676087e-03  3.59303802e-02  6.83754906e-02  4.63480145e-01
   1.11201279e-01  3.49430621e-01  3.38046849e-01  6.53539672e-02
  -3.80414933e-01 -3.47978592e-01 -4.11734767e-02  4.73882928e-02
  -2.64808029e-01 -5.47930479e-01 -1.03955664e-01 -1.00992322e-02
   7.51405507e-02 -1.10672839e-01  2.16861099e-01  6.87640309e-02
  -1.68743610e-01  1.84385315e-01  4.57228497e-02 -3.60924274e-01
  -3.13273698e-01 -3.31556708e-01 -2.15487868e-01 -7.73405507e-02
   4.02462967e-02 -5.07531278e-02  1.69421747e-01 -3.68213981e-01
  -2.11779520e-01  1.39465481e-01 -3.74034673e-01  4.38885510e-01
  -3.66474867e-01  6.94870278e-02  9.89811867e-02 -1.99763685e-01
  -5.73875085e-02  1.81541160e-01 -2.29049206e-01  1.08175166e-01
   5.44519499e-02  2.45142713e-01 -1.80302989e-02 -3.41432571e-01
   1.28362756e-02 -6.33689463e-01  1.41602278e-01  3.10143474e-02
   2.00749785e-01 -4.97313552e-02 -6.67485654e-01 -3.50430101e-01
  -2.08482131e-01  6.41271770e-01  2.11215708e-02 -2.52911061e-01
  -5.68550639e-02  4.34416950e-01  8.95946994e-02 -1.20985089e-02
  -4.45494980e-01 -2.47288823e-01  6.40890896e-02  3.91558588e-01
   2.82219142e-01 -1.83913827e-01 -3.64679962e-01 -2.15227604e-01
   1.32270649e-01 -4.76256043e-01 -1.85713485e-01  1.42232716e-01
  -5.23792431e-02  1.32104322e-01 -2.51108892e-02 -5.45315072e-02]
 [ 1.47458017e-02 -1.77318975e-01  1.95041850e-01  3.52618068e-01
  -2.87574917e-01  9.71167386e-02 -4.44318593e-01 -4.76440378e-02
  -1.38355568e-01 -3.21132571e-01  1.71081945e-01 -3.31369668e-01
   1.35817781e-01 -2.77493536e-01  6.43653274e-02 -2.95337532e-02
  -5.35383701e-01 -4.07302566e-02  4.88217399e-02  8.15012604e-02
   2.72940308e-01  2.16836587e-01  5.55530004e-02  1.06904767e-01
   3.39613765e-01  4.04738516e-01  8.46934319e-02 -3.37070286e-01
   1.34968191e-01  3.77563983e-02  2.45845124e-01 -4.52482909e-01
   4.04756218e-01 -8.64664838e-02  1.23658702e-02 -8.70710164e-02
   4.58077818e-01  3.29594500e-02  9.22565162e-02  8.30504969e-02
  -6.40195429e-01  7.13392973e-01  3.61439258e-01 -3.64806384e-01
  -1.83639586e-01 -6.64863288e-01 -1.56651121e-02  1.69132382e-01
  -4.45982181e-02  3.51480842e-01  4.99033555e-02  4.29602981e-01
  -5.28942049e-02 -7.21086282e-03  2.52801090e-01 -7.46508166e-02
   1.03614695e-01 -1.86279677e-02  5.26608191e-02 -3.37567274e-03
  -3.01554382e-01 -8.98896992e-01  1.63940325e-01  3.72118666e-03
   3.63973826e-01  3.02110106e-01  7.38731101e-02  4.01595652e-01
   1.63562641e-01  3.33139092e-01 -8.60348344e-02 -1.02364570e-01
  -5.71309865e-01 -4.19761986e-02 -4.79814619e-01 -9.31650400e-03
   6.48180470e-02  3.09645832e-01 -1.94083471e-02 -4.95013624e-01
   1.76953688e-01 -3.70447099e-01 -7.79958069e-01  1.52424335e-01
  -3.16435903e-01  1.62196085e-02  2.82982707e-01  1.38343677e-01
   4.14504223e-02  6.05556846e-01  1.78887933e-01  2.24340037e-01
  -3.31103653e-01  1.01682998e-01 -2.39191160e-01 -3.40137213e-01
  -2.71037389e-02 -1.25089929e-01  2.11507026e-02  1.03121914e-01
  -4.82828289e-01 -2.34668061e-01 -9.05536890e-01 -4.87975597e-01
  -2.63469398e-01  3.12441021e-01  1.40602052e-01 -9.22501087e-01
  -4.23643440e-01  3.16226214e-01 -9.36087295e-02 -8.61010477e-02
   8.12446997e-02 -3.02109092e-01 -4.28351089e-02  3.02415881e-02
  -7.64988065e-02 -2.09832460e-01 -7.29592204e-01 -1.02889597e-01
   1.78455159e-01  1.50372341e-01 -3.91109318e-01  1.04667082e-01
   1.95180904e-02 -5.22513986e-01  2.73134541e-02 -1.04791589e-01]
 [ 5.19405976e-02  3.74901555e-02 -2.29903590e-02 -1.22770421e-01
  -1.53983161e-01 -2.53960818e-01 -1.25664234e-01  1.21074757e-02
  -2.03414951e-02  2.00980231e-02  2.43293822e-01 -6.65894449e-02
   5.10595106e-02 -4.77650799e-02  2.28257075e-01 -1.26957923e-01
  -6.38583153e-02 -1.82119265e-01 -1.21097960e-01  1.74847260e-01
   3.98201674e-01  3.71996343e-01 -7.82166496e-02  3.89949143e-01
   3.31422150e-01  8.60461816e-02 -6.57012090e-02 -3.19364727e-01
   9.60205421e-02  2.59577367e-03 -2.43003353e-01 -5.21340668e-01
   2.24201784e-01 -7.42114633e-02  9.27829966e-02 -1.61482077e-02
   3.65082681e-01  5.34901433e-02 -2.28830911e-02  1.00739054e-01
  -9.57939923e-01  3.94346565e-01  8.94883052e-02 -4.26533297e-02
  -9.04762000e-02 -3.46549392e-01 -1.56866908e-01  2.90975929e-03
   2.51902267e-02  3.44425559e-01 -7.51143098e-02  9.04741734e-02
  -9.98560861e-02  2.73534693e-02  2.22518444e-01  2.34783471e-01
   1.32749245e-01  9.82677117e-02  1.58376619e-01 -3.00980676e-02
  -4.14667785e-01 -5.79675496e-01  7.12237880e-02  2.78435759e-02
   4.77904886e-01  2.32080832e-01  4.24248993e-01  2.56422877e-01
   6.80265799e-02  2.00423136e-01 -9.30066854e-02  2.26858288e-01
  -5.37621260e-01 -1.19366452e-01 -2.95965731e-01  2.51960917e-03
  -2.05854396e-03  6.42884523e-02 -1.47539720e-01 -1.43568724e-01
   2.78785437e-01  9.37422067e-02 -2.63540298e-01  3.04700360e-02
  -2.67351776e-01 -1.57742631e-02  3.68046969e-01 -2.02520192e-02
   3.61212194e-01  3.82444590e-01  8.10716748e-02  1.84925318e-01
  -2.42311105e-01  1.57832861e-01 -1.38967484e-01 -1.33270189e-01
   4.79764342e-02  1.88913032e-01  9.29709971e-02 -9.11104530e-02
  -4.79745239e-01  5.92663996e-02 -6.50722504e-01 -1.78043470e-02
  -1.16059996e-01  2.97660023e-01  4.46919262e-01 -8.43016505e-01
  -2.76906371e-01  1.61890373e-01 -6.77334607e-01  1.31575629e-01
  -3.14392298e-02 -1.11557007e-01 -6.11966737e-02  3.87980081e-02
   3.80181707e-02  1.11199155e-01 -2.03008845e-01 -2.64571339e-01
   1.51530966e-01  4.11124170e-01 -2.55247921e-01  1.01610012e-02
  -3.54450271e-02 -7.05859885e-02  1.71529688e-02 -1.07284606e-01]
 [ 1.06563866e-02  7.12396353e-02  1.03273317e-01 -5.57456613e-02
   1.37614474e-01  5.98799903e-03 -4.78137098e-02 -1.00050755e-01
   5.27924418e-01  1.26838759e-01 -1.26238829e-02  3.18236500e-02
  -1.04629755e-01  2.23469585e-01  1.88247189e-01 -7.20595419e-02
   1.97906986e-01 -2.92423636e-01 -1.11992061e-01  3.09996039e-01
   1.86408490e-01  1.98167518e-01 -1.61172882e-01  8.89754221e-02
   2.48990029e-01 -4.21926230e-02 -3.55974555e-01  3.39506418e-01
   5.75175742e-03  7.37286434e-02 -2.13118255e-01 -5.12795001e-02
   1.12483554e-01 -1.27857059e-01  2.51181066e-01  2.48853415e-02
   1.32611245e-01 -3.72606933e-01  4.83123511e-02 -6.06318265e-02
  -5.56310058e-01  2.08474845e-01 -1.76038072e-02  6.44882768e-02
  -8.83146450e-02 -1.00673512e-01 -2.31919408e-01  1.87554341e-02
  -1.42231748e-01  1.25389472e-01  6.48624152e-02  1.05417155e-01
   1.14553377e-01  2.32983515e-01  1.89342499e-01  1.99810281e-01
   2.57130682e-01  1.48339733e-01  1.14463121e-01 -5.08631952e-02
  -3.82031828e-01 -1.94929689e-01  1.90364569e-02  1.50774851e-01
   1.39586240e-01  1.31889984e-01  2.08973557e-01 -1.13333389e-01
   5.08619146e-03 -7.14350343e-02 -4.16383259e-02  3.24408591e-01
  -6.72387838e-01 -2.79691577e-01  1.67815104e-01  1.83117911e-01
  -7.06663206e-02  1.27213657e-01 -1.93572596e-01  1.42503709e-01
   5.39498180e-02  5.62346466e-02 -1.20282158e-01  1.81917682e-01
  -4.60028231e-01  1.28783602e-02  3.17299247e-01 -7.50800446e-02
   2.06796676e-01  2.83312559e-01 -2.02355981e-02  1.39401421e-01
  -4.93572593e-01  1.91912986e-02  3.78684886e-02  1.07222125e-01
  -9.50907245e-02  2.67724872e-01  1.20611660e-01  6.19963519e-02
  -6.97277933e-02  1.59687057e-01 -3.32294226e-01  1.06122583e-01
  -1.70170903e-01  9.70664062e-03  2.76794851e-01 -6.36547625e-01
   9.77277756e-02  6.95281401e-02 -6.34243011e-01  2.03689665e-01
   8.81851315e-02  1.92556962e-01 -2.62276679e-01  1.23212123e-02
   1.33797646e-01  2.01873705e-01  1.70450673e-01  3.37361954e-02
  -4.24623340e-02  1.11318782e-01 -1.44741595e-01  4.54436950e-02
   9.91394650e-03  6.23589642e-02 -7.79124722e-02 -1.10320553e-01]
 [-3.54386121e-03  1.22023553e-01  1.42895177e-01 -3.48882154e-02
   1.45908877e-01  3.07965547e-01  2.05457196e-01 -1.71320420e-02
   3.16656321e-01  6.52677426e-03 -2.60435808e-02  3.51769626e-01
   1.92920431e-01  1.48375869e-01  2.63518125e-01 -7.24748820e-02
   7.64082596e-02 -1.14142984e-01 -1.77843552e-02  2.01515481e-01
  -1.37654558e-01 -2.58974731e-01 -1.50108412e-01 -1.11243077e-01
   8.15213323e-02  8.26997831e-02 -1.87962785e-01  2.07683846e-01
   1.50274476e-02  4.79336195e-02 -1.04881570e-01  1.39307559e-01
  -2.86059119e-02 -3.62365879e-02  2.10569650e-01  3.65386993e-01
  -8.00104663e-02 -3.07691634e-01  1.89898059e-01  6.46734759e-02
  -3.42421643e-02  1.03683747e-01 -1.26054078e-01 -1.98273510e-01
  -8.71463269e-02 -1.17698602e-01 -1.84728742e-01  8.28986242e-02
  -1.23261467e-01 -1.24595702e-01 -1.39394486e-02  3.70625347e-01
   2.82817513e-01  2.96038181e-01  2.04679981e-01  1.80161089e-01
   1.16775200e-01 -1.16759561e-01  1.18618757e-01  1.64064281e-02
  -1.32758960e-01  8.73943209e-04 -5.06471731e-02  2.93417782e-01
  -1.70147479e-01  6.84517026e-02 -8.77775252e-02 -1.24155030e-01
  -9.48290527e-03 -8.05610865e-02  5.34064062e-02  1.96008176e-01
  -7.82350779e-01 -1.23204991e-01  3.09318870e-01  3.33776921e-01
  -7.47364312e-02  1.64839342e-01  3.13329935e-01  1.89254820e-01
  -1.32380119e-02  1.17266327e-01  1.47713304e-01  3.45634282e-01
  -2.71256953e-01 -7.79106766e-02  2.03345969e-01 -4.67032231e-02
   1.57848582e-01  3.22852954e-02  3.06930840e-02  2.88973778e-01
  -3.16130519e-01  2.99306273e-01  2.83194259e-02 -1.06238537e-01
  -4.76170667e-02  8.85183215e-02  2.29837388e-01  2.32913494e-02
   2.71575898e-01  6.13500662e-02  3.30378950e-01  6.41417829e-03
   3.11454058e-01 -2.21362293e-01  1.94929108e-01 -7.19800033e-03
   3.78718615e-01  2.74648607e-01 -5.49664795e-01  4.94161844e-02
  -1.76318772e-02  2.58242667e-01 -8.06991234e-02  7.25910068e-02
   1.73942402e-01  1.01107962e-01 -1.39983892e-01  3.74162830e-02
  -1.60030574e-01 -9.25673321e-02  1.64039314e-01  5.11655807e-02
   1.98829491e-02 -1.88706592e-02  5.73392995e-02 -6.38556778e-02]
 [ 3.97263989e-02  3.68367702e-01  3.04966364e-02  8.77483040e-02
   1.57300532e-01  4.05010909e-01  3.41829479e-01 -9.09288228e-02
   4.88156855e-01  6.89037051e-03 -1.74435779e-01  2.20932454e-01
  -5.71257435e-02  2.39479039e-02  2.57078707e-01 -7.02084079e-02
  -1.47097245e-01  2.91568696e-01  4.64741373e-03 -4.72002216e-02
   1.14584267e-01 -4.24001396e-01 -6.35125265e-02 -1.51889563e-01
   9.78210866e-02  6.90312013e-02 -7.05386233e-03 -5.24554998e-02
   9.70657244e-02  1.55237153e-01  1.45008698e-01 -2.24885285e-01
   1.76976964e-01 -5.82232559e-03  3.88165146e-01  1.78659976e-01
   1.50802866e-01 -2.63004959e-01  1.63634375e-01  2.42704391e-01
   1.08801890e-02  1.73956141e-01 -1.73738152e-02 -6.56964704e-02
  -8.33626539e-02 -2.37969711e-01  8.03137720e-02  1.34298623e-01
  -7.45568350e-02  3.60699892e-02 -1.25597836e-02  1.34606421e-01
   3.58027965e-01  1.45379201e-01  1.45281300e-01  9.62608233e-02
   1.02859467e-01  1.81310073e-01  2.96415359e-01  2.14558486e-02
  -1.99893296e-01  2.62215704e-01  8.62541571e-02  2.15074643e-01
  -1.15805112e-01  8.78791139e-02 -7.38942772e-02  1.41185358e-01
  -2.17689738e-01  3.01845580e-01 -1.47515768e-02  2.47093037e-01
  -1.51064545e-01 -2.08236277e-02  2.20491514e-01  4.78807688e-01
  -1.46761686e-01  2.66413718e-01 -9.52244271e-04  2.31639773e-01
   1.05062023e-01 -1.54060749e-02  2.00424254e-01  2.65027046e-01
  -1.30722806e-01  1.09760705e-02  7.08686262e-02  1.30347773e-01
  -2.28545800e-01  1.43746436e-01  4.00104523e-02  2.73213446e-01
  -4.93431091e-01  2.78241009e-01 -6.43502921e-02  9.23552811e-02
  -1.90981105e-02  8.37064628e-03  1.01049185e-01  1.73421688e-02
   4.42330569e-01 -7.06127584e-02  4.02879536e-01  1.15363032e-01
   1.78026527e-01 -5.25386274e-01  3.96612078e-01  1.22357219e-01
   3.13300878e-01  6.14853855e-03 -5.18418610e-01  1.51222721e-01
  -3.40710521e-01  4.29684669e-01 -4.56727035e-02 -3.89028728e-01
   2.32427344e-01  1.98413253e-01 -1.99904397e-01  2.57253528e-01
   9.44040939e-02  4.79993783e-02 -6.25940645e-03  4.66752835e-02
  -6.12404756e-02 -6.68234602e-02 -2.01406348e-02 -9.63466987e-02]
 [-3.29435281e-02  1.81713313e-01 -7.32971579e-02  2.44164497e-01
   1.00152954e-01  3.59978676e-01  1.41847268e-01 -9.33011100e-02
   5.20669639e-01  2.25558683e-01 -1.54712841e-01 -2.72374526e-02
  -2.46305421e-01 -4.64690551e-02  3.82131279e-01 -9.20367613e-02
  -1.56623811e-01  3.83802682e-01 -1.14717901e-01 -1.69327613e-02
   3.79683487e-02 -2.12905750e-01  1.70603871e-01 -3.55386853e-01
   2.26368695e-01  1.60144553e-01  2.51215011e-01 -3.72911632e-01
   2.51396120e-01  3.31882805e-01 -3.05959173e-02 -3.87092471e-01
   1.30735576e-01 -1.12936318e-01  5.58419585e-01  2.34208420e-01
   3.84357244e-01 -3.27967763e-01  1.21678017e-01  2.56146967e-01
   6.47413954e-02  1.19596377e-01 -1.65360957e-01 -8.14371705e-02
   2.06732359e-02 -1.00153014e-01 -1.53575942e-01  1.44111738e-01
  -6.08680770e-02  1.04385121e-02 -4.40126285e-02  5.36002256e-02
   2.43646145e-01 -1.30327553e-01  2.09099382e-01 -1.30967647e-01
   2.28679791e-01  1.80696651e-01  3.80814135e-01 -8.69499519e-02
  -9.05035511e-02  2.64836460e-01  2.36974061e-01  3.33124578e-01
   1.28658459e-01  2.48383790e-01  1.16609909e-01  1.16961531e-01
  -2.86216110e-01  2.03124225e-01  7.75166303e-02  1.47465959e-01
  -2.03149557e-01  3.78965400e-02  3.33744772e-02  5.18948436e-01
   6.27426431e-02  2.34089568e-01 -4.53858644e-01  1.50477350e-01
   6.27621338e-02  9.18564200e-02  3.53044599e-01  3.55474167e-02
  -1.07062101e-01 -4.49706353e-02  2.41890892e-01  2.50242472e-01
  -6.14486277e-01  3.55353773e-01  4.21796031e-02  3.29012245e-01
  -7.10718513e-01  2.29504719e-01 -3.41918319e-02 -4.29894403e-02
  -7.59067610e-02  4.13308926e-02  1.63089827e-01 -6.29491508e-02
   4.45274651e-01  9.72778276e-02  3.00765336e-01  2.42161617e-01
   2.08844453e-01 -5.56916356e-01  5.79822063e-01  1.76515624e-01
   2.28234127e-01 -2.21869588e-01 -3.17647576e-01  2.54636735e-01
  -2.22687691e-01  4.15429324e-01 -1.34443659e-02 -7.25359857e-01
   1.86832830e-01  3.30585837e-01 -1.71823099e-01  5.71761653e-02
   4.38471138e-01  3.37104082e-01 -1.16965454e-02 -2.07198367e-01
  -7.14843050e-02  1.50917359e-02 -3.12878303e-02 -1.00590892e-01]
 [ 1.50009096e-02  4.52785119e-02  3.26225162e-02  1.13764308e-01
  -1.54977245e-03  5.12998581e-01  7.26043954e-02 -1.04940794e-01
   6.47522926e-01  5.68195581e-02 -3.19580764e-01  2.15653941e-01
  -8.12806711e-02  2.64327943e-01  5.10702431e-01 -8.12616721e-02
   2.88326889e-01  1.92927435e-01 -1.87868640e-01 -1.45770282e-01
  -2.64690481e-02 -1.31788716e-01  5.53461760e-02 -3.78434330e-01
  -1.52541742e-01  7.81326592e-02 -9.10808221e-02 -2.57728193e-02
   1.43734634e-01  7.64158368e-02 -2.56114416e-02  1.33447096e-01
   3.90347466e-02  1.18130613e-02  5.50271749e-01  3.71733099e-01
   1.77126840e-01 -2.59920418e-01  2.10740473e-02 -2.29629949e-02
   2.64862087e-03 -2.05329716e-01 -4.51509804e-01  2.12802831e-03
  -1.35835737e-01  1.35275811e-01 -6.03652894e-01  1.11364871e-01
  -8.35155174e-02  1.46032274e-01  2.04460807e-02  2.23149762e-01
   2.41782069e-01  1.21104062e-01  2.39978582e-01 -1.47968531e-03
   4.55392331e-01  8.12072083e-02  3.40583444e-01  5.19511588e-02
   1.73670709e-01  1.02833159e-01  5.21815158e-02  2.62678683e-01
  -1.80032343e-01  3.11139226e-01  7.45287016e-02 -2.35371679e-01
  -1.44500613e-01  5.51519617e-02  1.12890556e-01  2.25499287e-01
  -1.28774792e-02 -9.85936373e-02  3.98707390e-01  2.30567411e-01
   2.90720146e-02  6.15660809e-02 -6.20800816e-02  3.47470284e-01
   1.04848586e-01  2.71986485e-01  3.36947262e-01  2.87007004e-01
  -3.89730632e-02 -6.92422688e-02  5.69550544e-02 -3.28163207e-02
  -2.79618382e-01  9.03474092e-02 -2.05845848e-01  1.81531638e-01
  -4.42871928e-01 -1.92507170e-02 -1.29698172e-01  1.29346728e-01
  -2.02542804e-02 -2.20342681e-01  6.51598116e-03 -9.16682854e-02
   5.57958543e-01  1.82446375e-01  3.44123900e-01  3.14914584e-01
  -5.13770618e-02 -3.81662548e-01  3.54295611e-01  1.65656269e-01
   5.72528780e-01 -2.21532866e-01 -5.86295128e-01  2.58417249e-01
   2.81321048e-03  3.94281149e-01 -1.04515426e-01 -2.91469932e-01
   1.91433296e-01  1.14907302e-01 -3.03997755e-01  7.92649910e-02
  -3.32817398e-02  6.41734079e-02  1.03327967e-01 -9.57100093e-03
  -4.80416641e-02  3.20524812e-01 -5.56430481e-02 -9.03386176e-02]
 [ 7.14016035e-02  3.36030424e-01 -1.40694436e-02  3.64874839e-04
   2.81326145e-01  1.78071156e-01 -1.67690068e-01 -3.67795527e-02
   3.17447841e-01 -1.62265114e-02  1.16496757e-01 -1.05684593e-01
   3.09964065e-02  8.15530792e-02  3.31674337e-01  6.16272725e-02
   2.47171655e-01  1.52563184e-01 -1.76818535e-01  3.57367285e-02
   2.65867591e-01  2.12210417e-01 -1.26522303e-01  9.17097479e-02
   4.95932400e-02  2.42689013e-01 -2.30399109e-02  2.28576437e-01
   4.96005341e-02  1.43726021e-01 -1.57519370e-01 -1.99092045e-01
  -1.23060264e-01 -9.51837450e-02  2.89747268e-01  2.02276874e-02
   2.83550441e-01 -3.93610179e-01 -4.27757092e-02 -2.03283131e-01
  -4.03506398e-01  4.43065241e-02 -2.73331311e-02 -1.96158215e-01
  -2.48965532e-01  5.94681613e-02 -5.33007920e-01  1.62892923e-01
  -1.53387219e-01  1.14580929e-01  6.26832852e-03 -6.71278536e-02
   2.21968114e-01 -1.41782584e-02  3.56339753e-01  3.84034187e-01
   3.53611618e-01  3.79447527e-02  3.19454312e-01 -4.73601259e-02
   1.50104731e-01  1.52542451e-02 -5.17219752e-02  5.30851036e-02
  -7.83009548e-03  4.26845364e-02  3.17429453e-01  1.30651519e-01
   8.91212821e-02  6.99000359e-02  1.08902462e-01  2.95892507e-01
  -5.98102152e-01 -8.16332996e-02  1.77509487e-01  5.25548697e-01
  -1.51846707e-01  1.35760710e-01 -1.31160215e-01  9.34060439e-02
   2.00728346e-02  2.71266639e-01  5.32751419e-02  1.93413451e-01
  -5.11801064e-01  4.95445989e-02  1.56315565e-01 -1.25229657e-01
   2.34396994e-01  1.14304580e-01 -1.08727373e-01  7.95022473e-02
  -3.71419311e-01  1.83962320e-03  2.32224882e-01  1.03096873e-01
   1.00241363e-01 -8.35625604e-02  1.34021044e-01 -2.21068952e-02
   1.10517800e-01  3.13645244e-01 -2.06354693e-01  2.64532745e-01
  -2.47794725e-02 -4.48000319e-02  5.04136205e-01 -2.99971431e-01
   7.93914422e-02 -2.06462741e-01 -5.72517753e-01  3.10953498e-01
  -1.21811368e-01  1.38679758e-01 -1.76868662e-01 -6.05195984e-02
   2.57405758e-01  1.70665190e-01 -4.19435501e-01  5.63094355e-02
   5.11050224e-02  2.97893226e-01 -4.79968004e-02  2.98435628e-01
  -6.07845485e-02  1.40334859e-01  1.29720950e-02 -9.54930931e-02]
 [ 3.89768109e-02  2.89928615e-01 -5.83237447e-02  1.39564529e-01
   3.02719176e-01  5.59199974e-02 -5.92265606e-01 -5.43109290e-02
   1.45092383e-01  1.83958381e-01  6.57214224e-02 -3.05220306e-01
   2.51400284e-02  4.68333550e-02  1.40691757e-01 -1.30872905e-01
  -4.31991845e-01 -4.58804071e-02 -3.06508899e-01  2.36763909e-01
   4.93993431e-01  4.07652110e-01 -9.50815305e-02  3.25519621e-01
   2.93580711e-01  9.37729478e-02 -3.91041040e-02  4.61944565e-02
   1.01722665e-01 -9.98178199e-02 -6.39256313e-02 -4.89296347e-01
  -8.18683431e-02 -1.30703703e-01  1.65073112e-01  8.39105174e-02
   3.83353084e-01 -2.83709049e-01  7.93816373e-02 -2.44518027e-01
  -8.61098409e-01 -4.35476340e-02  1.57472193e-01 -1.28021091e-01
  -2.80290484e-01  5.28243445e-02 -5.24025321e-01 -1.21712424e-01
  -2.52418034e-02 -7.45721981e-02  6.79035261e-02 -1.22684054e-01
   7.67316222e-02  5.72378635e-02  3.28309715e-01  4.21093315e-01
   2.81564474e-01  5.50233796e-02  1.68748125e-01 -2.87484732e-02
   1.02345943e-01 -4.29101765e-01 -2.98473369e-02  7.31072277e-02
   4.00310785e-01  2.88020760e-01  4.41509306e-01  2.77836978e-01
   1.90942004e-01  1.16725892e-01  4.07856815e-02  2.48921454e-01
  -4.14244860e-01 -1.86678231e-01 -2.44535670e-01  3.01911950e-01
  -1.16129451e-01 -6.84183650e-03 -1.60490975e-01 -1.46452576e-01
   1.07758008e-01  2.03677520e-01  1.01743080e-01  1.73431471e-01
  -4.37862724e-01 -4.61077690e-02  3.35792691e-01 -7.41302222e-02
   3.85168642e-01  1.51548192e-01 -3.99129316e-02  1.58617318e-01
  -1.97328329e-01  5.44329062e-02 -1.20177336e-01  1.17936045e-01
  -8.90404265e-03 -6.31729513e-02  1.44552112e-01 -4.51217294e-02
  -2.95479178e-01  2.91705459e-01 -6.80023372e-01  2.78219670e-01
   1.82974756e-01  1.36378601e-01  5.46939075e-01 -1.00252163e+00
  -9.45046172e-02 -1.38611361e-01 -3.57564062e-01  3.59894276e-01
   2.42968183e-02 -1.59743249e-01 -1.66335836e-01 -6.30711243e-02
   2.41761670e-01  1.09522827e-01 -1.96182489e-01  8.50449130e-03
   2.87358016e-01  5.97437382e-01 -2.91968703e-01  4.74397868e-01
  -6.85089603e-02  1.39592988e-02 -2.78112534e-02 -1.13461964e-01]
 [-5.58985360e-02  2.75618881e-02  1.84112519e-01  1.21312559e-01
   1.73504695e-01  1.57920659e-01 -6.02124870e-01 -6.76981658e-02
   2.93816328e-01 -4.62927297e-02  1.71083212e-01 -5.81476629e-01
   3.35644521e-02 -1.98412850e-01  1.48531243e-01  2.30922010e-02
  -6.01378500e-01 -1.42321279e-02  2.13786773e-02  1.95034623e-01
   2.11021513e-01  1.85308218e-01  4.15174477e-02  3.91097128e-01
   3.24999034e-01  3.63844395e-01  3.21936011e-02 -2.76013762e-01
  -4.90147248e-02 -1.70703027e-02  2.60365456e-01 -3.93520743e-01
   1.94337249e-01 -6.29119650e-02  5.58445305e-02  2.03859638e-02
   6.57846153e-01  1.80479176e-02 -2.56824583e-01  1.61001325e-01
  -8.25056374e-01  4.44792479e-01  4.68305796e-02 -4.52010334e-01
  -4.04543638e-01  2.20984407e-02 -3.63448381e-01  2.25238264e-01
   1.30125713e-02  1.31952107e-01 -8.18653628e-02  7.26987794e-02
   1.14590274e-02 -1.97209835e-01  9.45484713e-02  9.82411280e-02
   1.87753797e-01 -2.62497109e-03  1.04901209e-01 -1.26117691e-02
   3.14407259e-01 -8.20495188e-01  1.75243035e-01  1.55021653e-01
   3.85168374e-01  3.31922233e-01  7.69706592e-02  3.41212034e-01
   1.66556597e-01  2.98478544e-01 -6.78736493e-02  1.54876068e-01
  -2.05340341e-01 -6.47788420e-02 -2.52989262e-01  7.14392588e-02
